,0,1,2,3,4,5,6,7,8,9,10,11,12,13,14,15,16,17,18,19,20,21,22,23,24,25,26,27,28,29,30,31,32,33,34,35,36,37,38,39,40,41,42,43,44,45,46,47,48,49,50,51,52,53,54,55,56,57,58,59,60,61,62,63,64,65,66,67,68,69,70,71,72,73,74,75,76,77,78,79,80,81,82,83,84,85,86,87,88,89,90,91,92,93,94,95,96,97,98,99,100,101,102,103,104,105,106,107,108,109,110,111,112,113,114,115,116,117,118,119,120,121,122,123,124,125,126,127
p0,0.2828768995341274,0.5873422866403705,-0.529679816,0.0846155766611464,-0.766887211,0.8604618493578098,-0.01853371,0.2622441939803682,0.2859111103396923,0.0417347283631476,-0.074305581,-0.697043301,1.1200516829517844,0.0142253530614548,0.3476608093850537,0.0318881746685167,-0.123085744,1.0007179522004237,-0.193616683,0.0565005645622689,-0.167462996,0.2525753139456987,0.0252189198524532,-0.371700611,-0.057097075,-0.122994252,0.00705649331371,0.0039884345311468,-0.100949388,-0.248009716,0.2336677575394352,0.0054315569291853,-0.070080767,0.1471521690036479,-0.592138021,-0.053558796,0.3011222946497514,0.2012691890273528,-0.243652816,0.6948481085149844,-0.097719645,-0.045296357,0.0631497356821561,0.2560520455426851,-0.081136704,0.1916068710308584,-0.871975812,0.1527135672097917,-0.08722122,0.2236171448904292,-0.063368196,-0.464557961,0.4356913408388529,1.005370475081241,0.0192439427656397,0.0864198428674061,-0.083467746,0.1260097162788795,-0.027621961,0.1575004213885684,0.1858866418137125,0.0504926863715742,-0.07864186,-0.039972618,-0.08749707,-0.028080858,-0.056210172,0.1079502629115463,0.5978449065468939,-0.049200152,-1.032802965,-0.045594504,0.1719065738008396,0.2158154958097634,-0.236817284,0.2570742256600999,0.1388069127865976,0.057247427236162,-0.187427162,-1.066356683,0.2556208753481794,0.0583365957424436,-0.088122309,0.9867343681382692,-0.398898211,-0.06060016,0.0019450440730801,-0.099358016,-0.102342175,0.0012619646021416,0.9515625134132204,-0.195963015,-0.045829826,0.1032992091594092,0.1375369489169048,-0.952688727,0.0065749894235965,0.073978036776314,0.0792647979833122,-0.019983191,-0.353597905,0.8490384783885311,0.0113615895232853,-0.143313875,-0.293269303,-0.086212939,-0.017221261,0.1414264941712268,0.0238450287246582,0.373353562712906,-0.004091784,0.0254479715524385,-0.391290647,-0.11791406,-0.064456143,0.1545626162651865,0.0687917354096284,0.0342463362717725,0.2042450619528303,0.1267351422724099,-0.058472653,-0.191239447,0.2586126127904281,0.0322330187891372,-0.118507809,0.9687208297273634,0.1068967071956348,0.1058234544528242
p1,-0.055345614,0.2467165932931219,0.1003716453253949,0.0037931683773944,-0.681063075,0.6697939288037651,0.334257795638319,0.319231573739876,0.1349369817694463,0.1465827784750815,-0.499142045,-0.688514308,0.8542502758096308,0.0569441873504645,-0.051490265,0.1709839961204545,-0.054369496,0.7564968176526549,-0.179373965,-0.253588125,-0.740644409,0.0191078746336197,0.3828963885808398,-0.060256142,0.0814050809226035,0.0574395656621807,0.4123949100993919,-0.182398248,-0.085675582,-0.096727668,0.1935999647367983,0.3347487841057568,-0.30212128,0.0167681123731241,0.0082091522012233,0.0848158770972449,0.0665293263455416,0.0137137581344717,-0.246695478,0.6568367954090912,-0.452885194,-0.495561579,0.2066640899151471,0.2067293734250834,-0.062921661,0.2779899279413333,-0.658828252,0.1332666765109784,-0.089152216,0.0571038433290276,-0.344257497,-0.098095233,0.3543750858028584,0.8205418698645734,0.2847405394289785,0.471671911372901,-0.726137922,0.1139622319030738,-0.346569235,0.0167635811498123,0.1389737231498349,-0.219238604,0.3334577619111095,-0.217108876,-0.425301339,-0.204327832,-0.333704571,-0.072985193,0.4519678060489134,-0.441884398,-0.795818738,-0.028722923,0.2979921066193459,0.0674309503314469,-0.231264742,-0.018511018,-0.017712711,-0.201527714,0.0375501333658882,-0.830069278,0.1283178563419164,0.0213887221928018,0.2258365815944937,0.7562275835231674,-0.407040524,-0.709974372,0.2283120960851143,0.0234302500260263,-0.429784149,-0.012606132,0.7445644299270338,0.0220597441938422,-0.144725972,0.4651047176265279,0.2075115997035914,-0.79137422,-0.185530494,0.3324398759795786,0.412655974822715,0.0599210299159323,0.0746956081516105,0.7263959919123416,-0.172183512,0.0883561187755767,0.1023834650703426,-0.149082684,-0.254384657,-0.089078074,0.1659396784755334,0.2142412925852179,-0.051947545,-0.119389706,-0.078718378,0.0667619511519524,-0.637852368,0.2914640058171913,0.4684650281411356,-0.437094919,-0.056815688,0.1679091663740353,-0.531089916,-0.365380402,0.2501528402117026,-0.180701943,-0.20804642,0.7451202406839254,0.3452613892729321,0.6154846505521545
p2,0.0206028133623464,0.3843858372599258,-0.008872393,0.094889999880715,-0.702052689,0.7376907262308288,0.1956335594209733,0.2522771023984109,0.1796770377257988,0.1186222069346207,-0.334594599,-0.687720885,0.944533366333918,0.1466842215013408,0.0333936587571952,0.0472603399960725,-0.021856927,0.8300290418915802,-0.27664438,-0.168050737,-0.539465211,0.0714072128238918,0.2298444146964675,-0.272568034,0.0447512469302926,0.043774983475862,0.3029165683762996,-0.100122312,-0.152165033,-0.185979924,0.2745271637069494,0.2238480853900507,-0.255253755,0.0806145428252661,0.1770320767061045,0.2183497279186464,0.0841865437615655,0.0679790051867881,-0.324531308,0.7045229189687102,-0.34458814,-0.352186034,0.0631381584575258,0.0747052067067471,-0.118335345,0.3069820557503249,-0.736803887,0.0279151868582529,-0.056658199,0.0360043955716892,-0.230165939,-0.028051253,0.3921882676641413,0.8890335374247246,0.2038603036227326,0.3413478885912899,-0.522710028,0.0881072287616997,-0.272652989,0.1564496947096433,0.0380182040675395,-0.016512896,0.2200767458017225,-0.15087656,-0.290605604,-0.070506913,-0.232003215,0.0602126051569679,0.5018116514309052,-0.313970986,-0.878710394,0.0997346479281706,0.3369784110985676,0.1545166457990436,-0.319351297,-0.011903703,0.123389979915305,-0.105798789,-0.024042713,-0.899973948,0.3490479433258508,-0.038451441,0.1448695100837861,0.8285222804988406,-0.432672716,-0.531389912,0.1342147368707575,0.0200187905785953,-0.345762227,0.0241732357102657,0.8172959833628116,-0.068386296,-0.108572404,0.3539222375069518,0.286287320569641,-0.85794834,-0.132175156,0.2807644307232057,0.28752760585996,0.0691907117999177,-0.120432602,0.7627657756703269,-0.108119871,0.0335915224447603,-0.030218967,-0.103583445,-0.185720763,0.0411702109478673,0.1026494352971811,0.411055093816288,-0.028167576,-0.125162143,0.0940930014980926,-0.036242791,-0.446326988,0.1816026258107498,0.3276464485227312,-0.303172228,0.0372014413485777,0.1413531871960955,-0.359025793,-0.452517743,0.2974713851791394,-0.099631888,-0.045889928,0.8171130913937766,0.2625417446856176,0.4457520698426809
p3,-0.196519654,0.3656987606063068,-0.047126214,0.0305491972207192,-0.685330416,0.6784109142753327,0.3097085038694099,0.3034489404176372,0.1692358050203897,0.1622705657262677,-0.480644036,-0.692727922,0.8738619008535101,0.004941465950843,-0.202924281,0.1244664026060435,0.0009567249149002,0.7672227868614442,-0.182312531,-0.236683923,-0.712041552,0.1178511797665886,0.352490016972075,-0.311880489,0.1224640644698515,0.0002527042246707,0.4155223245082563,-0.024677575,0.0318558685823249,-0.26543829,-0.019186999,0.3270246265207103,-0.315057351,-0.088416178,0.1574712648913784,0.0068313680810639,0.0513399027585435,0.0655786316334412,-0.24480362,0.6392719781132672,-0.462575945,-0.47432194,0.1620587928813089,0.3780349744647969,-0.026886807,0.2984318148799233,-0.681386882,0.0802093591112196,-0.128057726,0.0638379609316439,-0.337115794,0.0645690918987346,0.3635022711838755,0.8319254451336003,0.2752042070510444,0.4538279764940177,-0.693489935,-0.056045875,-0.26963686,-0.06633956,0.0268114087148648,-0.176285273,0.3164769574106685,-0.219335171,-0.414605435,-0.189652617,-0.317930685,-0.070884211,0.4667728034325736,-0.428672619,-0.804866223,-0.034117337,0.2584199911605535,0.1225109571313295,-0.263875155,0.1145201098995944,0.1180835004030165,-0.181524683,-0.039704329,-0.838171178,0.2532922255724399,-0.035049962,0.0711083564140052,0.7647122846018651,-0.392096873,-0.693263427,0.2141382774638558,0.0647270972674443,-0.432790986,-0.11251194,0.7548252806417531,-0.069672162,-0.14721981,0.4680716973797209,0.2165897087319715,-0.807795756,-0.181167994,0.3489108342254119,0.4038433554932123,0.0738033899018009,0.0766701662268685,0.733290750715391,-0.158687666,-0.040576121,0.0509872348532454,-0.210569408,-0.250660849,-0.050583993,0.165565156525874,0.48532790389958,-0.011469682,-0.110185568,-0.003524877,-0.035129786,-0.61772024,0.2165175845363426,0.4587018887283088,-0.429748074,0.0343623840457721,0.0847525086306654,-0.512061605,-0.424290866,0.216371889408046,-0.166070918,-0.093445925,0.7662351188956403,0.3288164040991564,0.5974201662569832
p4,-0.088463654,0.2067478691038972,0.0844853657594825,0.0523435076740155,-0.661303012,0.6535572608207535,0.361708272707638,0.2816810488939247,0.0964183508495237,0.1565841636051448,-0.507859195,-0.672640582,0.8411487891051723,-0.001778988,-0.097095457,0.1497905170520788,-0.002276126,0.7372878670219456,-0.139156941,-0.279202103,-0.72195793,0.0369993090266079,0.3665527946418084,-0.002550655,0.0661344329866512,0.0274106279441369,0.4509465043153338,-0.071639238,0.0101445943338293,-0.010521609,0.1440782120564021,0.3648481635673911,-0.31046345,-0.082205073,0.0151629036099561,-0.062747387,0.0521361127148834,0.0230725538756874,-0.16314354,0.6373767581279213,-0.480286002,-0.508382363,0.1687528504503197,0.2944881843002748,-0.016892218,0.1476726727333072,-0.655686187,-0.002366467,-0.049704311,-0.036511717,-0.355967626,-0.025038653,0.3536446244893081,0.8061934196946111,0.2983691227722535,0.4625155142901477,-0.730629291,-0.019041835,-0.135866674,-0.052283782,0.062361037406928,-0.172881904,0.3642575755659996,-0.230188057,-0.423059847,-0.176871482,-0.324994268,-0.099640582,0.4569919900562199,-0.456495907,-0.774778519,-0.061613813,0.1493266088669463,0.0576894946730992,-0.151785033,0.0413220828954592,-0.019010045,-0.217933475,0.0218904602815074,-0.812803263,0.1390559085155615,-0.046310071,0.0583839137346019,0.7416035867118719,-0.39577558,-0.734115282,0.2384436478923756,0.0606779581120716,-0.437079129,-0.048708186,0.726503958156203,-0.030188173,-0.150568569,0.4727766060711315,0.1367782862172535,-0.766558373,-0.194558709,0.3534244479686141,0.4187289262544391,0.0500015923221705,0.055133238952427,0.7058895731209027,-0.180603753,-0.057497495,0.0351311699159474,-0.118074261,-0.268367528,-0.058025921,0.1747850587735415,0.13384738481431,0.0008297848966067,-0.046484933,-0.085888111,0.0265382766156859,-0.660322712,0.2481907613591097,0.4892511507299283,-0.481303666,0.0192280200025582,0.0689172593783899,-0.549480475,-0.201335511,0.1329967760848402,-0.187466751,-0.166162644,0.7326401566024814,0.3385432153422058,0.6203777160453935
p5,-0.128578343,0.23902070347395762,-0.033442757,0.05967714548647327,-0.698646675,0.6833564150841023,0.22718582230565812,0.2832675599369894,0.13345052774994884,0.16272906055250733,-0.489306008,-0.69032283,0.885770291236538,-0.020725993,-0.081151399,0.15991898593565138,-0.031091153,0.7901034689037255,-0.186715212,-0.185011694,-0.675318775,0.017718954867773095,0.3535455093355143,-0.053689452,0.059341722549096726,0.01753368488747129,0.33722603108692806,-0.082909411,-0.037123581,-0.020975523,0.01727169482651012,0.25097492861651904,-0.232476027,-0.071183656,-0.004116287,-0.059624442,0.0485146211176827,-0.006547418,-0.224410784,0.640447937283921,-0.433502941,-0.415572425,0.22826875562898152,0.3204495177270234,-0.044247088,0.2560004385510026,-0.69634062,0.04198332223127741,-0.05014873,-0.022193701,-0.319551785,-0.073723828,0.3561718934143121,0.837981478153761,0.23437942457257038,0.43152368969462845,-0.621382802,0.0004213809825338899,-0.224596464,-0.098919446,0.07817993106265415,-0.181013399,0.25223746731773794,-0.208651626,-0.421428252,-0.172302421,-0.318395202,-0.095267672,0.4718623031914985,-0.363139171,-0.806966952,-0.060249031,0.21553923871606528,0.031110804263730106,-0.243529533,0.028011083039564934,-0.01403452,-0.137792371,0.004951670781064034,-0.859335707,0.17694311202847401,-0.005450459,0.15845740418734378,0.7817500488029399,-0.367078068,-0.571611502,0.19702610501677656,0.042398816734279976,-0.359878863,-0.026044445,0.7607308173791872,0.013190626502355423,-0.153436534,0.44300463705335025,0.20626119267517773,-0.806054085,-0.149981509,0.28227027789868614,0.3844092786071682,0.04003786206213409,0.09843274238943543,0.7415413900171439,-0.125936142,-0.041477583,0.07995417761104114,-0.130639025,-0.202920583,-0.061169632,0.18349884651378762,0.24711990739505807,0.011987521163923414,-0.054201064,-0.092267196,0.014083424043492308,-0.58778261,0.2721751554633167,0.45651854693036015,-0.347156925,0.003206546430267901,0.09985789996325828,-0.493703582,-0.336334552,0.18712711775535967,-0.148809719,-0.208350617,0.7870886255967979,0.32398904018123964,0.5698009266977889
p6,-0.2112787,0.3553560546783689,-0.019335571,0.0074751277237992,-0.678863321,0.6620270607312435,0.326014222294806,0.2841489536768921,0.1784208049534237,0.1529323108724423,-0.497423351,-0.678483279,0.8417741802035178,0.0342159081335901,-0.225451184,0.1361661436809127,-0.002307279,0.7425131584665647,-0.180746016,-0.24313872,-0.738741499,0.1665325623128943,0.3713705459936214,-0.408377739,0.1550546911457734,-0.011205069,0.4195681827417123,-0.007342742,0.0225986793459273,-0.350740894,0.0361287311267301,0.3342344813395739,-0.304831888,-0.08404544,0.1780000443713627,0.0595460456932007,0.0414310939793646,0.0818555359440434,-0.253508985,0.6416498480020885,-0.468236828,-0.496799629,0.1737349259241745,0.4145901091676851,-0.04846504,0.3390672996680569,-0.652968444,0.1195847083597361,-0.167105185,0.1366111601614433,-0.342897382,0.0915473169353931,0.3501089058410508,0.804371957943991,0.2854129670671046,0.4611374675990548,-0.719182597,-0.055331007,-0.339912324,-0.06540341,0.0266802824394551,-0.172228305,0.3278706376014919,-0.222325561,-0.415679264,-0.176303186,-0.323005223,-0.066568309,0.45455207304888,-0.430658287,-0.784276177,-0.034253276,0.2829188132653901,0.1508748183463567,-0.2897086,0.106839858920548,0.1580609987867881,-0.205090886,-0.063499294,-0.810325015,0.2733205940513314,-0.002324016,0.1087194300995338,0.7431159822343211,-0.399942945,-0.719351691,0.2213517409638171,0.0619494184459576,-0.429849783,-0.112775308,0.732988561084106,-0.06550782,-0.139182606,0.4726315877017177,0.2402975216758539,-0.776743052,-0.180080379,0.3440486742341096,0.4117674908272253,0.0868039287864982,0.0845369983852797,0.7179376191541708,-0.16057791,0.0093556070390831,0.0853431237800236,-0.236063963,-0.255986354,-0.063107752,0.1717956213452767,0.5641989832781457,-0.010497426,-0.158579219,0.0002079874487163,-0.041934762,-0.649607193,0.2461235848986611,0.4814804103847868,-0.443677955,0.0368539784303048,0.0720208406376867,-0.52609707,-0.468317288,0.2409321811672453,-0.170850989,-0.104754253,0.7329759845627298,0.3292645113727847,0.6144946516730436
p7,-0.083216125,0.2258841108094629,0.0499658320123145,-0.001029819,-0.6862058,0.7115562445090444,0.2533111319305709,0.2828490783520288,0.1370654345101162,0.0850497351862674,-0.349834901,-0.689457596,0.9382939291038248,0.0364272933747307,-0.059417819,0.1615865833511009,-0.063186776,0.7975402409838103,-0.205810149,-0.181181846,-0.601809904,0.005816551543466,0.3079456688091742,-0.067880925,0.0831335548254423,0.0481916146670599,0.269156871652175,-0.192501422,-0.078389685,-0.124612133,0.2604092988089853,0.2401524841320574,-0.204088844,0.014625101168597,-0.039993061,0.0761541391974918,0.0817784262656485,0.0192412177153811,-0.248378737,0.5569287564691544,-0.303359635,-0.365141964,0.160813645965567,0.3832922479129395,-0.059523787,0.2671990534796689,-0.725920191,0.1392116453388977,-0.07578814,0.0824012892603251,-0.242078649,-0.183322407,0.3333705159229862,0.8975962509067772,0.2035630323151308,0.3844205305691429,-0.530297776,0.149017003899496,-0.344961168,0.0260560050641554,0.1559031667236656,-0.16978104,0.2447773928393542,-0.140640657,-0.36810046,-0.164776435,-0.28777806,-0.089424692,0.4760029168315765,-0.32154388,-0.847871496,-0.03290211,0.302820207974488,0.0525044126700779,-0.223422294,-0.021611082,-0.006270248,-0.134359698,0.0311562954140202,-0.901474953,0.122795250084465,0.0306809749899449,0.2028737484250382,0.8227254349865175,-0.304355535,-0.49798778,0.1785619872213575,0.0105637055434023,-0.290194777,-0.013309143,0.7782394095814836,0.0215394708412604,-0.077978837,0.3156958574623648,0.2126137485202403,-0.815300624,-0.131272015,0.2116722309208511,0.3740766105237492,0.0436555467225922,0.0848209403888334,0.7502394517841693,-0.136322893,0.1001017718948174,0.0871956469209237,-0.166412717,-0.172513438,-0.07949388,0.1060321532609159,0.2067662552450012,-0.034448022,-0.110700994,-0.179250713,0.0612866807283695,-0.4564795,0.23781484097277,0.3284264767226399,-0.303307278,-0.074114375,0.1731932755115825,-0.374590598,-0.336902646,0.2506704544461574,-0.128478731,-0.326405386,0.797423045438869,0.3105621129878683,0.4212568145642935
p8,0.0657898086705005,0.2199809565430246,-0.345840866,-0.03829539,-0.708562948,0.7119587385845982,0.2456763249585286,0.3554035949373544,0.128880457700151,0.1446930911708295,-0.410781472,-0.703959468,0.9190170220980431,-0.086530087,0.1506853660353035,0.1292458726706483,-0.138523133,0.8017171269985611,-0.210259055,-0.132362499,-0.66878473,0.2338867587442949,0.3191190386946544,-0.375433553,0.0566248334484141,0.0681480545869743,0.2753364799306081,0.1582481566148371,-0.104823133,-0.212871006,-0.167438317,0.2077967482895933,-0.249539395,0.3053706505309379,-0.3626869,0.1274490986080379,0.0454012698658765,0.0482797288506415,-0.314770079,0.6130936863661783,-0.388711362,-0.39108145,0.1878806289198471,0.2745582255717434,-0.208857129,0.424605765764152,-0.723545582,0.1068595003400294,-0.011128977,0.2311187141265805,-0.280799242,0.0606804049744434,0.3570589146860933,0.8620822623992794,0.2377226223406861,0.4227064625864874,-0.564188864,0.0509423013900245,-0.248748826,-0.034273005,0.0579101825574906,-0.209151689,0.1960254125353412,-0.190856142,-0.3833941,-0.207599913,-0.303836639,0.2834082122855007,0.4808317901393396,-0.33221618,-0.836978092,0.0037782132959069,0.1325543235226258,0.3029328161410856,-0.266150404,0.1302341810770162,0.0585129317759119,-0.110652773,-0.277013636,-0.880762495,0.0980928845691807,0.0869465617643912,0.2277586303225459,0.809873180589644,-0.336289664,-0.529530172,0.1607994584545486,-0.057696646,-0.347460292,0.1758803980735212,0.7863664943833145,0.200622831736202,-0.132066116,0.3933812974395033,0.1243911248472059,-0.824601116,-0.115115998,0.29009878349152,0.369597682526642,-0.073604514,0.0504701715330207,0.766462365990772,-0.119714439,0.0915380968703361,0.0737230016125365,-0.213563772,-0.205806106,-0.017986309,0.1215367619930438,0.2488610067865201,-0.067326296,-0.275818865,-0.213713456,-0.074358188,-0.480718216,0.2730644211136907,0.3868772089979783,-0.287783308,0.0383448300686668,0.0969807841987154,-0.417965171,-0.635751852,0.2279164975483263,-0.12825438,-0.107213583,0.7977227669094914,0.3096410971017412,0.5261448227562007
p9,0.1379628052577318,0.4823014065423803,-0.283073342,0.0284421147860697,-0.674848164,0.66388221747995,0.3415428596435758,0.3266298852823638,0.2147654743381397,0.1563392045717648,-0.488790775,-0.68345182,0.8512632218295159,-0.004592757,0.1487572885561228,0.1816829390704079,-0.010848677,0.7495949454257358,-0.25690284,-0.262471068,-0.736860374,0.1559393269829004,0.3739155955914107,-0.185676876,-0.04211289,-0.07104486,0.4405777584356203,0.0029217229909634,-0.009700823,-0.098376082,0.2428112529232527,0.3512356303645562,-0.313069153,0.092313887382575,-0.333250692,-0.039341343,0.1982792937377988,0.1118783733154779,-0.265107161,0.6435938479383387,-0.457070573,-0.493586917,0.2159488372221004,0.3830493926423624,-0.062192692,0.2840982196581503,-0.66827936,0.1443873294839347,-0.078060831,0.1212743272465399,-0.342254218,-0.279700649,0.3636924255516044,0.8194734594882165,0.2895332778398671,0.4697284227570686,-0.714224973,-0.002419838,-0.085651501,-0.003747622,0.072446255224668,-0.207956723,0.3472296597058729,-0.223694373,-0.425507281,-0.203891277,-0.328811429,0.083769478460786,0.4529849670607485,-0.447987732,-0.791746409,-0.104621433,0.1438000540005374,0.1758913903646515,-0.228867207,0.130837989012342,0.0989536161660365,-0.198055857,-0.094993282,-0.820337461,0.275465663141739,0.0304466107755349,0.0017684205466189,0.749545069891544,-0.3990092,-0.712505427,0.2289163520008556,-0.068603063,-0.433541371,0.0346227450929428,0.7447128427095487,-0.097792138,-0.148979612,0.4694332576312954,0.1498432067627823,-0.786839278,-0.188256148,0.3448532848163519,0.404039828779964,-0.036362381,-0.175622827,0.7180138566313845,-0.164008319,-0.08363285,-0.074913329,-0.027837331,-0.254191028,0.1147637369761227,0.1644969448499841,0.2548941438770879,0.0439445267744086,0.0071871921642823,-0.337398674,-0.068253688,-0.645959333,0.2929500476329987,0.4818798679063538,-0.469375273,0.1190893008442931,0.1104195585374181,-0.526449805,-0.300418853,0.2580594483879068,-0.173410672,-0.163725052,0.741701984325162,0.3302143758750734,0.6080992357513108
p10,-0.136553272,0.4095836558439417,-0.041034463,0.0128022968972162,-0.674738411,0.6663223331238156,0.3217670616112729,0.3063634024466439,0.19781345174124,0.1609011951042884,-0.493102418,-0.684659691,0.8499831264155787,0.0731017792998256,-0.178486022,0.1502331277917178,-0.026857621,0.7506133335572066,-0.192408846,-0.242889386,-0.732964426,0.1613109555831315,0.3697590714838806,-0.41986494,0.1332634741400496,-0.016959805,0.4174709986894316,-0.023047171,0.0026995912543394,-0.355857652,0.0294861882357842,0.3310721366635717,-0.30166929,-0.004236758,0.1233441589666383,0.0999824712824678,0.0417515901900721,0.0814004547180468,-0.255218182,0.6363449896542086,-0.460845125,-0.483013555,0.1837206198980381,0.2842191384934663,-0.036557899,0.3490452130665417,-0.668610008,0.1040161201517329,-0.163740071,0.139642964473206,-0.340958504,0.0727345156274764,0.3594703324235967,0.8076251987907404,0.2785558668993751,0.458890191316223,-0.708371984,-0.032198557,-0.314908647,-0.038861214,0.0134825001547801,-0.185812865,0.3338642782229121,-0.218567666,-0.407779731,-0.192392903,-0.324389498,-0.021869816,0.4556741675754537,-0.430204977,-0.785043753,-0.039298261,0.2943475859898142,0.1465602585934444,-0.315724497,0.1219541220493301,0.1615929128751728,-0.191374611,-0.070439014,-0.820610084,0.2653219843457814,-0.002148223,0.1139737833127854,0.7556774234288185,-0.383242288,-0.701444238,0.2182809847393489,0.0496503825919544,-0.428459699,-0.090115945,0.7321892433268916,-0.069108264,-0.153155339,0.4716007348257327,0.2313286619437135,-0.782015319,-0.181570436,0.3449916815610875,0.4056522004367057,0.0701806385174606,0.0340957564832331,0.7243448248989186,-0.163201062,-0.000934668,0.0658120450566162,-0.224319096,-0.243064163,-0.030409643,0.1678537013183644,0.5061714717292247,-0.008949419,-0.139930949,0.0369711104239787,-0.070044933,-0.643449399,0.2596326898956096,0.4720371419915467,-0.445294848,0.0315649794438495,0.0681170342325305,-0.51853794,-0.475436759,0.2558796665359508,-0.173716238,-0.044720179,0.7432835434520475,0.3363930096811377,0.6004545943035421
p11,0.0371559311914301,0.2363406220465196,-0.054980451,0.0225245330586713,-0.673872162,0.6702646332799767,0.3380144811656635,0.3126731130952819,0.1499099247319754,0.1457289548114837,-0.48973139,-0.688967737,0.8639033865681487,-0.021677912,0.0424443502428423,0.160463406787382,-0.091595662,0.7521221959908255,-0.218424297,-0.275394263,-0.723794815,0.066391123190875,0.3666573151767037,-0.036148088,0.0466699352673867,0.064723190236306,0.4238596019369214,0.015475736886272,-0.099117446,0.0162830069564995,0.0401407077725409,0.3616557367953017,-0.311429781,0.0610885969099748,-0.142515003,0.0807367960725522,0.0565592991701621,-0.005604159,-0.279371648,0.6590855755210514,-0.456330125,-0.499218148,0.1788388453663221,0.1700039260404038,-0.093891283,0.3217545028347153,-0.676610284,0.0660806210373347,-0.017143719,0.021916686410808,-0.344350093,-0.004184697,0.3607202798320137,0.823539543179721,0.2886735745729419,0.458010990843905,-0.721398408,0.0420941474453857,-0.269886613,-0.003312327,0.0722775433750547,-0.197840129,0.3420833009346792,-0.217004191,-0.410161207,-0.196932627,-0.316053752,0.062586976277514,0.4592404312209907,-0.44622056,-0.789036286,-0.006649537,0.1789043831250864,0.1026308190938044,-0.241334724,0.0101461382309902,-0.059230004,-0.1973747,-0.05604303,-0.82584133,0.1799534875474698,0.0193367274095731,0.2204002022520252,0.7549589598259496,-0.404877921,-0.719557773,0.2301277277190628,0.0302156358597702,-0.429664511,0.0673540988559117,0.745477440523479,0.1061988498833753,-0.147144081,0.4643971114587576,0.1608816579283707,-0.792313976,-0.187792597,0.3386361435763577,0.412794168736118,-0.023195028,0.0547512281330557,0.7260109152254711,-0.175643842,0.0347693585814001,0.0799617524494991,-0.091946485,-0.262262464,-0.035741678,0.1669687880462437,0.2577196539702468,-0.021541017,-0.130972814,-0.120708923,0.0091788200121357,-0.642776127,0.2696625812566673,0.4745481133113445,-0.460159758,-0.006386521,0.1125948030804098,-0.532929467,-0.457669408,0.2116936342386437,-0.1779266,-0.146537225,0.7497720297607935,0.3334331427214729,0.60514734701852
p12,0.0360696293292564,0.2926200870891686,-0.166239391,0.061837752795297,-0.677241207,0.6597780554850307,0.3275475690304334,0.2904422433167589,0.2044806131743244,0.1422300629791152,-0.497175995,-0.686449373,0.8470041174393234,-0.083583773,0.084479624916372,0.1464845792022481,-0.143579853,0.7430625599448389,-0.229950424,-0.24728643,-0.737439731,0.1741658272924968,0.3748067602741722,-0.255078331,0.0590954328988631,0.0329396527677862,0.4425625262648673,0.0334155024915042,-0.096413669,-0.171175406,-0.169790523,0.3442831889816312,-0.30995552,0.0471102630316803,-0.204158425,0.0569664312932969,0.0847250312563808,0.0386005537756729,-0.343765709,0.6606020817041209,-0.459145099,-0.503616899,0.1697556054950831,0.1099489186600463,-0.121134933,0.3636541304286515,-0.660522451,0.0829822383545849,-0.070616245,0.1260690598068715,-0.343708675,0.0219752553320128,0.3579885935854708,0.8104987033403592,0.2873838643268335,0.466954401820597,-0.732870498,0.0359485542663148,-0.286597131,-0.026440456,0.117727294168292,-0.194028005,0.3478406420208523,-0.216851316,-0.414028071,-0.181648084,-0.327582033,0.1100922275505285,0.4596311425242257,-0.445786851,-0.782512219,-0.01984211,0.1674800364483974,0.2014516906297115,-0.282329926,0.1433294963008531,-0.032089652,-0.157226971,-0.188502519,-0.811131006,0.1265124450529975,0.0876872218007151,0.1781142073772519,0.755509217072562,-0.400766071,-0.721128185,0.2270896037592224,-0.015079658,-0.440406064,0.0936011411119959,0.7305025097486665,0.1681230299657241,-0.144232216,0.460376103483652,0.1431839489449891,-0.783257237,-0.182214195,0.3362492356442547,0.4176208324349971,-0.075528177,0.0971651124676998,0.7212748689475936,-0.164682091,0.0031193087841205,0.071765523504159,-0.149691734,-0.251952631,-0.052220612,0.1670922375239565,0.2714958246550453,-0.008924703,-0.176964611,-0.029234232,-0.043256821,-0.646808327,0.2600888549630922,0.4817908438972803,-0.476421786,0.007082439576217,0.1051516104368605,-0.533531979,-0.566720676,0.2423049637607509,-0.17737453,-0.089080716,0.7361287307242039,0.3431907763373651,0.6128570470042697
p13,0.0339456423340871,0.2628328566868707,-0.123495258,0.0481057398418514,-0.681173348,0.6837403216422062,0.3601820031773117,0.3222491015433929,0.1736371591573653,0.1540441131201305,-0.48594071,-0.684373548,0.8737038935148852,-0.073729304,0.0530535846420586,0.172264865792897,-0.125814683,0.7642184365990669,-0.236466067,-0.250337184,-0.72669615,0.1358066503755573,0.3671986769613533,-0.186015395,0.0590323184223349,0.0536121783171025,0.4380599729941262,0.0441923017259773,-0.104113675,-0.10200127,-0.052881329,0.344001795106606,-0.312392887,0.0410808753601391,-0.192082136,0.049971296779579,0.061408365088513,0.0052504766356738,-0.327444975,0.6488502931178105,-0.461683921,-0.482163872,0.1973285089525203,0.21095955607089,-0.107989223,0.3621971517220587,-0.676811916,0.0537370514350112,-0.04195225,0.1098650833126951,-0.340897558,0.0307497281050842,0.3627310863019234,0.8271616917013624,0.2866486128956364,0.465923074043089,-0.704501153,0.044639769378666,-0.276707696,-0.02188497,0.0929884615223551,-0.193784403,0.3411196001780964,-0.217329578,-0.410477405,-0.199324818,-0.321325301,0.0959253619648487,0.45930053749414,-0.44174413,-0.809201819,-0.019206955,0.1668800563064351,0.1683822585735076,-0.270715029,0.0927508297052113,-0.02999406,-0.207602287,-0.15440194,-0.838593606,0.1249207862891181,0.0627842217006476,0.1878614863408982,0.7560353094721496,-0.400896944,-0.712541051,0.2227780554704885,0.0068394551676004,-0.431111505,0.0749232122219612,0.7406942172107995,0.171881750029395,-0.144565257,0.4659827101726399,0.1500402605979678,-0.800915908,-0.185634978,0.3416340375406079,0.4060966358277582,-0.066436311,0.0912133002470504,0.7271904393769119,-0.167039215,0.0046271886745546,0.0786316331321259,-0.135933683,-0.251256535,-0.063734084,0.1663549330891599,0.2447536909516918,-0.021909428,-0.167105365,-0.09509101,-0.020117746,-0.645195052,0.2781612544605877,0.4721638451656406,-0.463662307,-0.009491682,0.1059488801034299,-0.52944419,-0.542539847,0.2271899117068624,-0.169596798,-0.150010419,0.7559156420952118,0.332863807409134,0.596089929750894
p14,0.2139365083722124,0.2702029909688919,-0.538099881,0.015113923910559,-0.76385793,0.821716912870753,0.0219532036429094,0.2517197619777713,0.2319642682244718,0.0082659140071136,-0.166739006,-0.729056205,1.067722789053637,-0.183148819,0.3433493448101842,0.034114975990157,-0.261648873,0.9716780748882402,-0.230211499,-0.021599249,-0.215902444,0.245498575440107,0.0824521535739464,-0.361677381,0.062034366402125,0.0481357330918669,0.0305106968608585,0.0776780964007172,-0.22847706,-0.242494636,-0.419119849,0.0480008465846654,-0.093135308,0.3273385068921216,-0.546934509,0.2199110422661953,0.0490590339640819,0.0248315704689937,-0.412754372,0.6653326468114545,-0.11099664,-0.168446585,0.048606174453273,-0.350249847,-0.18101344,0.4576757642433001,-0.861889504,0.1224359505099821,-0.053701773,0.2237050137216428,-0.101492695,0.0271690928809359,0.4059853072092582,0.9754606101493818,0.0847928250850837,0.1484846611110432,-0.213553716,0.1576482215553126,-0.379141021,0.0252857353435894,0.1536810147681402,0.0214287816126343,-0.009642042,-0.062576988,-0.143868489,-0.003002822,-0.121124011,0.3445448440647662,0.5455297103282903,-0.128179722,-0.980505225,0.042758624841582,0.1513008294319959,0.2654536191683575,-0.308965477,0.2269880394647713,-0.041875058,0.0440969810941044,-0.292914763,-1.029563509,0.0415653646560421,0.1546292183933828,0.3143097066240331,0.9541751373359322,-0.395985615,-0.161985741,0.057293649176871,-0.053511365,-0.100804652,0.2197487632144727,0.9130233670159736,0.3135602057214608,-0.029725303,0.1088998614025871,0.1368621603988861,-0.913425908,-0.016163391,0.0508776076126383,0.1683283313761366,-0.137113131,0.019025022821271,0.8329992373733185,-0.051248384,0.0252606341499341,0.0189649875170439,-0.221424523,-0.060767126,0.0247424662073669,0.0285584230094172,0.1716329010965705,-0.024727609,-0.250338475,0.0509808169372461,-0.071959707,-0.129840676,0.2000899139392985,0.1502071118037249,-0.045239305,-0.038636678,0.1208911059122523,-0.144101997,-0.739481922,0.2635032346897415,-0.046233623,0.0922797376207978,0.9508596445087192,0.1788570455682968,0.1891245022918458
p15,-0.15002639,0.3856599498802763,0.0698764951834501,0.0610738810324019,-0.68114232,0.6568383012563332,0.339758854208649,0.3098738119137324,0.1769322640031619,0.1601888141013757,-0.515317187,-0.688100626,0.8395653330575851,-0.004367199,-0.165342917,0.161555582019627,-0.017637559,0.7432569958360976,-0.253334323,-0.259845463,-0.740542705,0.0554451902226488,0.3720867394403668,-0.149666456,0.0808012723462224,-0.006483489,0.4475887909562356,-0.062015039,0.0016200000447697,-0.126767276,0.0734279665206005,0.3518772496443766,-0.316386014,-0.112097744,0.0800678666147809,-0.05865695,0.0891114542768695,0.0206166122963402,-0.297676121,0.6441625334031722,-0.487366174,-0.506291891,0.1913827812956008,0.3563650375719741,-0.014775151,0.2853689387649409,-0.666703253,0.0465846967459877,-0.056090814,0.0486468165795369,-0.356693938,-0.05496899,0.3638490276464965,0.812575948771969,0.2947315888860006,0.4691819189609337,-0.731526174,-0.01769467,-0.24150767,-0.092998926,0.093039183751882,-0.191080756,0.3570387069754125,-0.227823171,-0.426133772,-0.197373468,-0.328744816,-0.121472238,0.4619614189192778,-0.455303784,-0.783836189,-0.0783614,0.2671657657980891,0.0958791787046545,-0.270064286,0.0768978028695858,0.0667530471926567,-0.198264709,-0.029609589,-0.811335227,0.2525532783187032,-0.033848001,0.1504202401908712,0.7403296792894087,-0.40520493,-0.730126813,0.2295272032157757,0.0362422536984071,-0.447296765,-0.060351078,0.7333871253070107,-0.013850189,-0.155466954,0.4832393261798719,0.2504367878995599,-0.779626005,-0.194668037,0.3599304443513018,0.4185644540543485,0.0194969390234677,0.102311665527762,0.7213692977213045,-0.169429888,-0.08817866,0.0444321928269474,-0.162231005,-0.261177334,-0.060638815,0.1760168819565309,0.3731822330722124,-0.004747221,-0.04150268,-0.07639491,-0.015374896,-0.666067628,0.2798302719778831,0.4945795527504734,-0.472713913,-0.01422995,0.1077414354017422,-0.547393218,-0.390808434,0.2470855937589207,-0.177038512,-0.205650908,0.7345277893273789,0.3434503048264413,0.6305340887203775
p16,-0.093227774,-0.061061799,0.0916352899853209,0.0397774619385415,-0.673628213,0.6703099557056227,0.3448483048768808,0.2865158455706109,-0.039405362,0.1668461267165185,-0.52026346,-0.679311766,0.8499385325008267,-0.026477322,-0.097685772,0.1567226274210285,0.0400369451155314,0.7337129641828946,0.0392658702086523,-0.27419542,-0.737529307,0.0127676365015702,0.3765171077980735,0.1163652971405084,0.0535721975033119,0.0548419056321893,0.4443410676130089,-0.096278602,0.0618003478536152,0.0922783433191661,-0.047704674,0.3557995110917361,-0.320096854,-0.104245,0.1323575543940271,-0.095669691,-0.039697454,0.0249277729082072,0.0528660428697428,0.653585511702515,-0.485729127,-0.520065537,0.175908040426354,0.0005752794338869,-0.015916696,-0.049239321,-0.656784976,-0.054905033,-0.046055093,-0.111952154,-0.365986087,0.0528241417951825,0.3547995590129573,0.8092101235590232,0.3053913285248558,0.4671555488060715,-0.74709672,-0.050150522,0.0272015471021713,-0.066531698,-0.022278763,-0.184423582,0.3622891208737852,-0.230368407,-0.428229386,-0.177016534,-0.330393661,-0.07424797,0.4606959539668482,-0.46225933,-0.800122179,-0.075614395,-0.019811081,0.0156349411704536,0.0384902357348012,0.0316038878972839,-0.091235373,-0.217048891,0.078671031627302,-0.813874023,-0.050507493,-0.05306401,-0.043251947,0.7434238850836942,-0.405260675,-0.745924447,0.2448597511534599,0.0674929131686038,-0.450365901,-0.050005427,0.745649899344254,-0.057369606,-0.150827514,0.4891486464040059,-0.03418451,-0.792155122,-0.190848946,0.3561604250680483,0.422085125414793,0.078562157737244,0.0711033428306285,0.7183153304330299,-0.177392123,-0.05212079,0.0628300176645454,-0.108116104,-0.263711326,-0.050057679,0.1733279290615786,-0.132134499,-0.004984164,-0.042699173,0.0388088919155813,0.066750920246569,-0.674853486,0.261137564651799,0.5000218306005518,-0.478712355,0.0496311796274822,-0.030106786,-0.558857632,0.0659344665637752,-0.045006723,-0.188531627,-0.001562135,0.7335029863101777,0.3422964906169455,0.6362585063005383
p17,-0.000916727,0.2567513757577241,-0.133473881,-0.026048468,-0.681082222,0.6742547851568614,0.3566597211703159,0.313595270382546,0.1106767214978128,0.1539695298063084,-0.50235112,-0.690192473,0.8677038797180574,-0.03312333,0.0317693216452629,0.1639688164280448,-0.057940018,0.7557541414847974,-0.240778245,-0.255357638,-0.734617351,0.181126420702186,0.3668565457730879,-0.281813482,0.0768963914161367,0.067054093494452,0.441029963695728,0.1146518057292619,-0.071501422,-0.148769617,-0.086788964,0.3523200181877481,-0.309482587,0.1397826285720724,-0.144085813,0.0309088888538255,0.0490295271878797,0.0409070048167337,-0.298584069,0.6622344391564359,-0.464384153,-0.48869152,0.2053441417089281,0.2713469826579515,-0.190410501,0.3811875565872684,-0.671136733,0.0714588652952983,-0.029097774,0.1937969584341617,-0.341234977,0.0679826973235485,0.3583178316807925,0.8187056218299749,0.2861155857219334,0.4666467999331506,-0.715066465,0.0255433160940329,-0.218965774,0.0017536406426123,0.0290137886228823,-0.200720524,0.3569980753259368,-0.219008156,-0.410575929,-0.198916883,-0.326865436,0.1179520872970074,0.4523186948663357,-0.436773397,-0.800498514,0.0084901482784073,0.1736288826934953,0.2463982883042161,-0.242693763,0.0576108085635482,0.0866421930397324,-0.191365913,-0.161826724,-0.826668866,0.1536088596955667,0.033715035044097,0.1736273772615374,0.7637861224017136,-0.399272868,-0.706544741,0.2283189811102517,-0.023226101,-0.429885192,0.1045271952222968,0.7447598695982288,0.1059298730515535,-0.151174272,0.4649185051414051,0.1583709509616898,-0.804175757,-0.1844587,0.3424874651728304,0.3993388214003083,-0.010199955,0.0710560399269669,0.723910704901925,-0.167945994,0.0821903309810558,0.0540548274729808,-0.159089183,-0.252304441,-0.018176126,0.1662709563882805,0.2954859664143555,-0.045661071,-0.23826396,-0.145782324,-0.024817784,-0.64305075,0.2786313005404959,0.4814688359452808,-0.470361668,0.0361060503629111,0.10814013491826,-0.531923153,-0.525495476,0.2340135970898499,-0.173581369,-0.080559083,0.7488850935003718,0.3338138029411576,0.6158953768047765
p18,-0.034110269,0.2878416027924952,0.1252397202219018,-0.002534093,-0.692908195,0.6777890895796412,0.2247042367357376,0.2848987304234715,0.1704336168769666,0.1398125204588796,-0.436567975,-0.703728099,0.8843780588063096,0.0654359526267995,-0.008076849,0.1367707377537067,-0.09128454,0.7707989003506267,-0.225601783,-0.182249648,-0.725812172,0.0050089260053315,0.3712303140694775,-0.072032153,0.0673900867603873,0.0557603245229933,0.3239797794435409,-0.198762293,-0.123517238,-0.115282581,0.3212094690490973,0.2572404515844274,-0.236869317,0.0515398916647931,-0.010348974,0.1755318136035102,0.0945905063383735,0.0214864064623222,-0.292417008,0.6462439864753213,-0.395323779,-0.413747316,0.1838868827193132,0.2004909070420201,-0.063886897,0.3158606676177842,-0.692514601,0.1797427693112068,-0.082772873,0.0685941322889611,-0.289887793,-0.136856366,0.3614040610523241,0.8330940126112644,0.233027325219205,0.4656790123685653,-0.613771106,0.1710619880001773,-0.37886605,0.0494532854980814,0.1551498072390374,-0.188561192,0.2533347644788384,-0.184051016,-0.413079625,-0.166753528,-0.33253257,-0.071783225,0.4757038514432065,-0.359495224,-0.805253052,-0.00651372,0.3389631954018317,0.0585470558576987,-0.257492851,-0.027284811,-0.005411491,-0.143446038,0.0461014032526827,-0.847368964,0.1686845440730735,0.0209585184873959,0.2755654665292402,0.7737426562441899,-0.380924245,-0.587772503,0.1833658681865976,-0.011501121,-0.368631152,0.0080902881258542,0.7560112965585882,0.0025606985708299,-0.126518817,0.4124574826721033,0.2538708017506876,-0.795353839,-0.156693389,0.286047662100088,0.3954302457384006,0.0620074639821719,0.0385706395991087,0.7421508268629203,-0.137318554,0.1109540215251352,0.0920551351603541,-0.137067302,-0.198498531,-0.099163571,0.1610454163612083,0.23067532706683,-0.045010413,-0.120743876,-0.101716573,0.0646260172002188,-0.564463237,0.2394599998471819,0.4164703249864894,-0.337550521,-0.069398253,0.1967975816534681,-0.46078057,-0.400658371,0.3008909524325602,-0.138500004,-0.236417786,0.7711168472814188,0.3336169997601439,0.541060326803816
p19,-0.025973456,0.3021478718581445,-0.094049716,-0.04906464,-0.69059772,0.6780441528918835,0.2813821198212115,0.3210953720512973,0.1215157345539996,0.1216823600435255,-0.413218818,-0.699584603,0.8680751430967016,0.1178296395495424,-0.034134596,0.1145660909299568,-0.056352222,0.771513877304552,-0.197643235,-0.209224457,-0.715145068,0.1872738177425932,0.3557830439560512,-0.415080117,0.1211271768775031,0.0505279187297185,0.3440823205411373,0.0538533884337979,-0.055406693,-0.302319034,0.2207663476551108,0.2824392269893005,-0.273970786,0.1401949570019597,-0.000682803,0.2762971005204043,0.0179044454946415,0.0843161067277624,-0.257671039,0.618330036747838,-0.379931291,-0.438788188,0.1635065704608408,0.2490715148244921,-0.14551768,0.4027184304499129,-0.686884548,0.1189295428779445,-0.105173168,0.1700214581382356,-0.288106936,0.1221037569804817,0.3582483459978645,0.8401122155328559,0.2365809501507322,0.4592816322091771,-0.652459635,0.0101960233582373,-0.317326055,0.082706903001561,0.0001033571608271,-0.177575672,0.2799107865807307,-0.180681371,-0.400792213,-0.187065703,-0.326485823,0.1259858796738582,0.4572657436775671,-0.372193423,-0.811535253,0.0578462437019926,0.2603308626849744,0.2237422840664339,-0.288750831,0.0191937169516316,0.1635297460734686,-0.178190811,-0.117028806,-0.841432258,0.2462852766366942,0.0142545713422727,0.1627220403116877,0.766392205312667,-0.363777571,-0.603479221,0.1874715169646782,0.0258794866426374,-0.369833766,0.0072937086006401,0.755730519745253,0.0030014739391112,-0.118792268,0.4064906611186678,0.2101185158577146,-0.79914414,-0.156758143,0.2911991608287179,0.3947161787020417,0.065698966433366,-0.068488306,0.7398843642832459,-0.148900198,0.1786934397067158,0.0847350190650903,-0.208596761,-0.20966079,0.0007250187205859,0.1436324664808441,0.4398500079311496,-0.037122787,-0.249645479,-0.013844865,-0.044107159,-0.544300339,0.2498867728780668,0.4022057079279647,-0.366847581,0.0462419886024382,0.0863210748574379,-0.445788026,-0.544877009,0.2455688289497133,-0.140535779,-0.024498525,0.755000129353487,0.3303409523163943,0.533509735954113
p20,0.0803638974617441,0.5401169958285935,-0.114982136,0.0917529661013922,-0.673125267,0.6542694901882954,0.3461573616262787,0.3713930763822092,0.2682170621281164,0.1531892855424073,-0.5058331,-0.689145123,0.8388694222198587,0.1011089537905694,0.0646273717349147,0.1952685985999717,-0.044710215,0.741741285650422,-0.264965261,-0.266581612,-0.74560979,0.1680221998595974,0.3725558887846349,-0.282519511,-0.019276355,-0.076860039,0.4430360861583288,-0.006610199,-0.075697734,-0.182958848,0.3124841624074465,0.3550990823673469,-0.318263147,0.0402848781848447,-0.114225255,-0.032402846,0.2116716694365914,0.1348375419235677,-0.293028467,0.6382285004598376,-0.469960852,-0.510131484,0.2233511889955139,0.3379287267417805,-0.067776239,0.2840081943155642,-0.652969773,0.0852127824369523,-0.094710506,0.1796653161317207,-0.351944731,-0.27686676,0.3588492040906154,0.7963510465476303,0.2942270017653726,0.4687682257070714,-0.736625927,0.0278206844898996,-0.103631697,0.0331554198354646,0.0926001694851049,-0.222976895,0.3529036993428456,-0.223712176,-0.416810331,-0.228476584,-0.330943807,0.0351921109486016,0.4500332458494714,-0.452885671,-0.766555723,-0.041475297,0.2669499071831755,0.1633117773389417,-0.275836205,0.1418795032063441,0.1192069041326101,-0.21120029,-0.114846914,-0.800031084,0.2990049294358418,0.0305413256035383,0.0833144609998402,0.7359966222257354,-0.396627164,-0.73365729,0.2310423707483334,-0.070713267,-0.442680071,0.0129470494314198,0.7282972398964812,-0.12786241,-0.147310503,0.4762570365686787,0.2091940011875507,-0.770089958,-0.187227546,0.355505048937803,0.4200500330639238,0.0048518307024168,-0.154468311,0.719925245943855,-0.169364123,-0.063601204,-0.068428899,-0.020164503,-0.265293673,0.0733245969220596,0.1673976125505042,0.3029116273483364,0.0127046282375772,-0.010970788,-0.212034609,-0.069568091,-0.655644725,0.3310930595829957,0.4838052787143692,-0.46705473,0.1430733636067075,0.0985832975618782,-0.541185716,-0.303888692,0.2941085701349007,-0.175150501,-0.180318032,0.7298097166200951,0.3379607040646194,0.6212311177766635
p21,0.0433934188985419,0.54952428020642,-0.161148149,0.0766272013244782,-0.684518169,0.678947746493333,0.2383535072954085,0.2921225775530864,0.2789037333065536,0.144144242862941,-0.482354266,-0.690051298,0.8730182535627226,0.0601544245101994,0.0315680882607122,0.1308942900269168,-0.038693758,0.7725795456478605,-0.247083532,-0.21159482,-0.696853112,0.2209764475869988,0.3623798146526703,-0.402349139,0.0154592160389205,-0.081113588,0.3646059284703571,0.0615997777836205,-0.055187856,-0.277440235,0.0909321265803665,0.2761376771169744,-0.262183052,0.0854494619442224,-0.069211463,0.0499964219313298,0.1913261381990516,0.1655216051387798,-0.285331481,0.6392668553029053,-0.435564802,-0.446923723,0.1713945821859479,0.1896424428535652,-0.11194796,0.3182099756102668,-0.675102071,0.0903993865769832,-0.131564638,0.2382510889708384,-0.321239329,-0.122532199,0.3443430564207319,0.8334094575600612,0.2565966898100746,0.4495052905801923,-0.667220159,-0.014834367,-0.130219248,0.0124780211518732,0.0562530475742474,-0.180489137,0.2542357210240634,-0.211670533,-0.403413387,-0.169450118,-0.318727756,0.0705961971035069,0.4641471399746909,-0.383723495,-0.796676365,-0.00797846,0.2525725996588719,0.2071026514921333,-0.315295284,0.207898810556811,0.1639133403438869,-0.1534273,-0.165091499,-0.840346118,0.3176326628189382,0.0505731413823943,0.0503646645498231,0.7568873528002112,-0.372175461,-0.634537861,0.2051412248537946,-0.068208661,-0.391202275,0.0310387832243083,0.7427060115360578,-0.121269151,-0.148275689,0.4387031480930385,0.1974525506370369,-0.802974992,-0.152821534,0.3053613541068569,0.3931168973269155,-0.003338716,-0.113673003,0.7416617131775445,-0.138961315,-0.062731412,-0.069103146,-0.019594451,-0.221328013,0.0599365425991872,0.1731886085524172,0.3146263118578202,0.0305382348945104,-0.049527886,-0.038842407,-0.117537296,-0.59399541,0.2553120103552452,0.4620668762319777,-0.387992019,0.1708788022738933,0.0458970562644679,-0.499502899,-0.357469403,0.3009320202628269,-0.159666338,-0.033124645,0.75894751956427,0.3266946938667563,0.5833681925222935
p22,0.0175350678151428,0.4026381247749302,-0.176955289,0.0736466544933985,-0.675577259,0.6737511846037686,0.3509368329951144,0.3052382021005686,0.1986206738592754,0.1564797319575692,-0.496657735,-0.693409576,0.849576527403519,0.0803629654818158,0.0066538309434484,0.1637224363563224,0.0090284646126876,0.7447732536019382,-0.224603857,-0.263056189,-0.724909981,0.17759366483645,0.3703996987334724,-0.320412108,0.0159529257496148,-0.038340644,0.4392436579424209,0.0279993806683933,-0.017340627,-0.209228494,0.2073872144960858,0.3463733840580806,-0.300174559,-0.037940599,-0.067196273,-0.04481533,0.1375103124316761,0.1183841036961271,-0.268738914,0.6470138995129083,-0.4599375,-0.48247039,0.1941074510657501,0.4311397352994286,-0.083564345,0.2744864845922754,-0.671808146,0.0497102419553272,-0.069702699,0.1689603939675064,-0.349227754,-0.188698016,0.3552206957548254,0.8141849533952461,0.2848509834672071,0.4515982725752251,-0.707967582,-0.028461165,-0.143725062,-0.005605183,0.0797642749779385,-0.191609101,0.3453234545210587,-0.218588267,-0.411170859,-0.19869522,-0.324800868,0.0279701217411398,0.4579492418543134,-0.432556066,-0.792713374,-0.037834463,0.232736445500705,0.2036970380917363,-0.240884551,0.129606682923405,0.1128953763210471,-0.199218919,-0.143824353,-0.819686928,0.2561293640907889,0.0248173053874413,0.0623343415155244,0.7570812638373119,-0.406692175,-0.716582733,0.2280381161146459,-0.047908365,-0.423089532,-0.011234199,0.739875530014588,-0.063535542,-0.14929895,0.4716939423786473,0.2075483417837109,-0.785638668,-0.186118312,0.3464742305157013,0.3935180231408644,0.0148835729361637,-0.076069145,0.7313273648191452,-0.16530152,-0.047289854,-0.000298328,-0.111610648,-0.25236516,0.0050780557375245,0.1755697612007454,0.3185890526220431,-0.008259957,-0.078164815,-0.189250816,-0.065534596,-0.653308605,0.2672581963237629,0.4762263247872942,-0.464548367,0.1175206147824366,0.082459409928916,-0.533351685,-0.327776352,0.2221855084104458,-0.181403416,-0.195239813,0.7385755105126708,0.3302772386560744,0.5964884293794596
p23,-0.102617102,0.3579518591478506,-0.043703982,0.1193409534830774,-0.693174048,0.688046246613129,0.3073065953328455,0.2709408805416918,0.1516545106184001,0.1427404496169156,-0.442281894,-0.681869801,0.8821970970130649,-0.013313746,-0.001749561,0.0947229713051421,0.020556471302863,0.7815706598182861,-0.334255176,-0.236532862,-0.658982005,0.0326543611410729,0.3196619987630622,-0.2213121,-0.011262563,0.0469806479586663,0.4065796614119666,-0.042069369,-0.037254627,-0.130743018,-0.021042536,0.3215326260597551,-0.298090818,-0.083497694,0.1640733281279193,-0.039932969,0.0934375387644045,0.0502699986854102,-0.348231397,0.671896792149536,-0.433614874,-0.443641122,0.1158575995027999,0.1473053403339843,-0.10349794,0.2689053549296876,-0.690439211,0.0026408562237673,0.0385744158306555,-0.030509369,-0.315218475,-0.063994402,0.3759845668078032,0.8363453319589728,0.267718339073794,0.4190799379908364,-0.647888856,0.0319408737921305,-0.192911793,-0.033455771,0.0052914390790456,-0.096306857,0.3066308473724429,-0.198586553,-0.36479315,-0.124754721,-0.283237682,-0.032929864,0.4789747868770465,-0.409245242,-0.818957072,0.0424158140229171,0.3037536810225261,0.1595226175397198,-0.298454304,0.055476894026255,0.1231238510521337,-0.171048416,-0.054166682,-0.845697629,0.3495140894703996,-0.059286443,0.1556420287012039,0.7776933652378516,-0.422900106,-0.66447688,0.1976206433993827,0.0193619607540061,-0.411740716,0.0290984119296458,0.7740774318160394,-0.054303866,-0.142824629,0.4333635622648234,0.3017461774441284,-0.798810556,-0.174950286,0.3330866964840263,0.3502687106403644,0.0171413114511777,-0.016124661,0.7319315684692664,-0.146545133,-0.103953325,-0.00779706,-0.144320146,-0.240175672,0.0423671855338025,0.1494319727128452,0.4187454150093601,0.0172348130530434,-0.054451165,0.0802105186891398,-0.048001559,-0.584192266,0.202056774768765,0.4373718455711299,-0.427001401,0.0439907931745849,0.1386590287965604,-0.475747088,-0.426543618,0.2804793249239163,-0.153867794,-0.132099999,0.7696853332874517,0.3022450086362219,0.5663469186720421
p24,0.0734551136160413,0.159740807104207,-0.398021834,-0.011540307,-0.6947533,0.6858379848539943,0.335307893077242,0.2830397028183962,0.1236777316985721,0.1345392984443651,-0.444777197,-0.696917237,0.8859890028835185,-0.077595653,0.1660508310546822,0.1314173907219025,-0.104835501,0.7661267193861766,-0.187114306,-0.246966928,-0.665159805,0.2215731290086816,0.327029316939285,-0.296446345,0.0527128343129722,0.0767468097195926,0.4048905092321103,0.1661782244057087,-0.082457505,-0.145469605,-0.089181897,0.3240729123274581,-0.298817258,0.1809033515512692,-0.390449471,0.0848682765149795,0.0297584784635134,0.0488003752502627,-0.280816571,0.6714335209943537,-0.41574693,-0.45938451,0.1468962081017933,0.2742508849087183,-0.179626414,0.3576242066229294,-0.682319867,0.1046393116932528,-0.023666192,0.1822228728398015,-0.311884242,-0.015942908,0.3610632193400727,0.8413213559191483,0.2742759422885443,0.4177489219327684,-0.66029722,0.0447101130502681,-0.233574917,0.007957414064339,0.0637975715399648,-0.146264648,0.3378010741690208,-0.201677282,-0.35805647,-0.161967881,-0.286595077,0.2253634136714715,0.4643096556908363,-0.408814264,-0.806552732,0.0437166148648701,0.1261099010533756,0.2705682015598279,-0.220649848,0.1101136679698928,0.0351351100373956,-0.190488881,-0.220796125,-0.842501244,0.0904592022295017,0.0639882237770691,0.1946103806228069,0.774024316949713,-0.407335497,-0.667207417,0.2109219192321313,-0.030270261,-0.395762966,0.1329356522057216,0.7589371450083638,0.156760603803168,-0.130282781,0.4192501652794284,0.1217203785042211,-0.812704488,-0.171893084,0.3241704199684883,0.3743453454152242,-0.041697652,0.0080470399187795,0.749170134826491,-0.16044182,0.0914343467340256,0.0375854439369387,-0.163312009,-0.24474176,-0.018575821,0.1403554831114149,0.2718143274870584,-0.052365882,-0.251554527,-0.21838463,-0.031395726,-0.582343508,0.2359129557982225,0.4273064173171739,-0.42657342,0.0415105083349188,0.099120986313416,-0.478758141,-0.527826387,0.1803943188482997,-0.156991991,-0.143361124,0.7600142753309053,0.3134362088472497,0.5491842561023311
p25,-0.223691735,0.3264828287394083,0.041217295323656,0.0240373483104266,-0.679789103,0.6659977649372292,0.3335757183081226,0.2962889064029133,0.1707680192347674,0.1568350967325414,-0.492673768,-0.682911395,0.8567057855259729,0.0230389395033701,-0.238981167,0.1491949230482992,-0.014536726,0.7475965981029282,-0.170344691,-0.243489014,-0.713796996,0.148646594054941,0.3595329953447543,-0.384969456,0.1545503177654642,0.0024992442515034,0.4205495968904062,-0.002923529,0.020507135076822,-0.325548066,-0.087654003,0.3333803861630293,-0.309069149,-0.088312719,0.2459487161821345,0.0499519162119803,0.0228927603388792,0.0638165966350658,-0.238304217,0.6426925926595869,-0.474104017,-0.483425808,0.1810791692620832,0.2506806693321878,-0.045434724,0.3064874204748513,-0.656765479,0.0904206368473868,-0.15339763,0.093127200265976,-0.345639808,0.1319624031250196,0.3503514509637868,0.828494715421324,0.286597523934872,0.4570911994237124,-0.698274114,-0.053625708,-0.319520246,-0.06621736,0.011690012962451,-0.185991572,0.3262375353087999,-0.226671816,-0.410439869,-0.182173235,-0.321054079,-0.078012362,0.4626934662189542,-0.427941415,-0.802362805,-0.019068562,0.2775090939794967,0.1276410051034797,-0.279901075,0.1126543038706579,0.1420603455325467,-0.198217781,-0.056693307,-0.831041848,0.261602500650211,-0.016786288,0.1143002076581364,0.7518633126889259,-0.392504825,-0.701037309,0.214351718747447,0.0743359190535225,-0.432827563,-0.115561453,0.7413506828294837,-0.047020455,-0.148758015,0.4766567602011977,0.2318310272375527,-0.785215244,-0.177673668,0.3547430980397109,0.4012641904329213,0.0882321122400009,0.1252274620454588,0.7174904292981383,-0.158046792,0.0005555446733557,0.08210634348651,-0.245239585,-0.24642485,-0.073334552,0.1635564519369482,0.5372990743016662,-0.016706438,-0.163091974,0.0786952840571705,-0.04540802,-0.637992672,0.2556884680477554,0.4688820400380794,-0.437418245,0.0250860656041396,0.0670390544468166,-0.52928967,-0.445702732,0.2010207120665413,-0.16567546,-0.05142328,0.7336035768462287,0.3194627885218993,0.6121887719794731
p26,0.0160555930054506,0.3335418839996639,-0.126698787,0.0602200698919682,-0.6744199,0.676864435570938,0.3253259039214483,0.3301336305015556,0.1492465569128162,0.163850235573263,-0.512567846,-0.67891365,0.8587820435078861,0.0366238185789437,0.0015348092155969,0.1701949258867407,-0.037765985,0.738932800103743,-0.180063364,-0.249455526,-0.718113247,0.0829762606540958,0.3637817302151072,-0.113369122,0.0509278389938466,-0.012064804,0.4270040016157406,-0.021329838,-0.034129655,-0.068982343,0.2274193254725941,0.3476472522969367,-0.305699887,0.0071356277054712,-0.207128461,-0.050168339,0.1218720421647102,0.0626647026440531,-0.227208466,0.641516775283083,-0.478652985,-0.490041312,0.2153218602777989,0.4525993787086274,-0.026329107,0.2273880000848046,-0.664152991,0.0113557675591211,-0.039481706,0.047357123332543,-0.354240184,-0.207728156,0.3458810041989117,0.8168336965026375,0.2908077096042578,0.4514284906825838,-0.716529211,0.0346239700487288,-0.14312518,-0.01973924,0.0956557340958076,-0.21746908,0.3307210197033967,-0.227010291,-0.428816029,-0.21267019,-0.326095856,-0.040098285,0.4535358559863643,-0.433337382,-0.797147738,-0.075595356,0.1964967087620701,0.1008506750360174,-0.222024375,0.0907501880910826,0.0425861136546424,-0.203217313,-0.046951659,-0.826927906,0.1812414202122377,-0.028269692,0.0585596629337137,0.7527613222859318,-0.394766229,-0.712998048,0.2253794661732505,0.0356520327483568,-0.436412662,-0.015527968,0.7476439401745045,-0.068203173,-0.154041878,0.4784345329007476,0.1568533941177463,-0.787319438,-0.185337366,0.3530794541504676,0.4087686935870777,0.01222328049548,-0.041150928,0.7209841638408089,-0.158744324,-0.063028352,-0.011016125,-0.128540122,-0.255113529,-0.003041684,0.1781401031701822,0.2205808176550867,-0.00941599,-0.032664908,-0.23837921,-0.014361676,-0.651326359,0.2911895016312634,0.4894542251306276,-0.445896683,0.065764112978383,0.0828731804745224,-0.53193324,-0.283827797,0.1943881354592176,-0.174250069,-0.273375014,0.7404437401581203,0.3354226135639003,0.6220502881310889
p27,0.033531067462989,0.4819694378929927,-0.147321271,0.0876391555628715,-0.655424733,0.6595585437107903,0.319183379686722,0.323058271229878,0.2491949571096094,0.1550687063198415,-0.494403192,-0.673457752,0.8501461128128124,0.0371509358026968,0.03839149408658,0.1622696424643744,-0.067751009,0.7364590650725603,-0.237730233,-0.256484619,-0.71591893,0.1311823682967094,0.3620431266148601,-0.208972761,0.0307642318954624,-0.056003651,0.4229640423377245,-0.037075619,-0.057242663,-0.144087863,0.0638907514278108,0.3457441940701833,-0.310738524,0.0024682860472656,-0.12258811,-0.018963453,0.184389477090504,0.0943628060676973,-0.266360968,0.6414195913798302,-0.459593572,-0.485714772,0.1983049975231999,0.1978963271186179,-0.078274006,0.2972682278467362,-0.657588064,0.0750787574214546,-0.09833181,0.1495588668119212,-0.337705795,-0.182675486,0.3603776351980521,0.8036756846114052,0.2863945707051858,0.4505796794232731,-0.709036931,0.0207212342698492,-0.175550185,-0.037972793,0.1056422224815076,-0.194042113,0.3399306792121435,-0.219664528,-0.407113314,-0.206763959,-0.317349444,0.0208467689655844,0.4556183927710016,-0.441370185,-0.77955702,-0.071719336,0.2283677670427059,0.1496097144322502,-0.292809593,0.13527036588849,0.0622364186073535,-0.183861279,-0.100140415,-0.80962645,0.2569163352735722,0.0380414501198202,0.1077113181291816,0.7478146146956995,-0.393817601,-0.716772886,0.2231716324632813,-0.027772758,-0.434252086,0.0087008135857335,0.7223976768241668,-0.063710908,-0.151630718,0.462332834768384,0.1839517805326543,-0.78020269,-0.183276931,0.3489347554839775,0.4007359778532138,-0.021080365,-0.056577455,0.7014613927638396,-0.170451944,-0.07785836,-0.010563532,-0.071909763,-0.251561086,0.0198846178166634,0.1677519511258125,0.2950537720813219,0.0063477097793705,-0.02065602,-0.101506991,-0.054674563,-0.651595977,0.2836526081968549,0.4757523608176023,-0.451927154,0.0957623603541379,0.0734514738070518,-0.523448543,-0.351291427,0.2975780087293171,-0.175732097,-0.10694334,0.7287140008840358,0.322417860067452,0.608781854445746
p28,-0.119226981,0.2846426228723148,-0.010869223,0.0527395662148498,-0.674099374,0.6886231599957932,0.2767589596786928,0.2858404267233815,0.1298811648503834,0.1635189627693153,-0.445143031,-0.671699901,0.8862232644878352,-0.00861197,-0.124037381,0.1335512189385463,-0.006571823,0.762336954920306,-0.193622691,-0.210399373,-0.663590471,0.0567707056553498,0.3347104132349711,-0.109986974,0.0699330807405613,0.0088814999853921,0.3794510809723205,-0.049816042,0.0296217601891629,-0.090536128,0.0333268560588188,0.2976083412677117,-0.2793407,-0.10877982,0.0327640276414041,-0.082589716,0.0610293367219174,0.0265163361763915,-0.223768283,0.6444058456700423,-0.437602979,-0.421706635,0.181939144664875,0.3070973383664213,-0.029866854,0.2173313983871218,-0.69082414,-0.002208256,-0.04506918,0.0255740232136298,-0.307743161,-0.067268464,0.3384693905349558,0.8545305682606135,0.2461789032231656,0.4261762581997066,-0.616851111,-0.021948875,-0.173514573,-0.078434074,0.0759278404612954,-0.17381476,0.2919578895966347,-0.206517838,-0.399429357,-0.169954958,-0.310442991,-0.0862089,0.4664277967572918,-0.375651039,-0.823648741,-0.064914971,0.2098076313846354,0.0790634714516273,-0.214138084,0.0696423024400397,0.0311891487505682,-0.156778132,-0.025456419,-0.844835102,0.1818151786500435,-0.035980417,0.091057397597737,0.7748233038870508,-0.370080039,-0.618159246,0.1920432231592574,0.0423248293664022,-0.396506584,-0.050751139,0.7652473734221888,-0.020580218,-0.151028711,0.4318316380724579,0.1927755321268262,-0.811541007,-0.157084687,0.3282993169128561,0.3740273469490874,0.0372876095365953,0.0782667191594175,0.7321793185933444,-0.127386071,-0.079681429,0.0395499655694913,-0.134851017,-0.221044663,-0.082524663,0.1603111227521993,0.2593411135671652,-0.024691715,-0.052420832,-0.039555516,-0.008969844,-0.573461902,0.2411480883829026,0.4334905299336302,-0.38434124,0.0120863501428998,0.0661617859673892,-0.471213579,-0.296780879,0.1867188585971765,-0.146085945,-0.156189675,0.767917699649098,0.3054817511131817,0.5527630615666368
p29,0.003585368872613,0.4992061466519051,-0.03269314,0.0892694093546768,-0.676325879,0.6740195751678263,0.3289833652322081,0.310873240969605,0.2464276191946549,0.1571199411505561,-0.506983574,-0.68594467,0.8517431484003934,0.0812562703909746,-0.023561149,0.1610984847095745,-0.031571745,0.7505977418370133,-0.241726523,-0.25489494,-0.741160719,0.1706427999913194,0.3763252945733997,-0.262576183,0.0207761058555371,-0.065591567,0.4427106311516958,-0.007708572,-0.0504731,-0.167973358,0.0861205904736034,0.3439310210855729,-0.305954646,-0.031705536,-0.035453151,-0.049485252,0.181622877991062,0.1183290980111478,-0.266822518,0.6558251790891393,-0.471330688,-0.504679592,0.1940646117335122,0.1831978941130577,-0.073493805,0.2848341859288911,-0.657838839,0.0785033120371736,-0.106969714,0.1793933426047902,-0.354650401,-0.126208944,0.3502163363566853,0.8166503290776423,0.289244138248418,0.46299252633765,-0.734147954,-0.002359184,-0.142843951,-0.012716936,0.083221515843045,-0.203754546,0.3380534590791952,-0.228062699,-0.415871947,-0.203844741,-0.331139576,-0.015170603,0.4565695536203356,-0.441106071,-0.795577456,-0.060156627,0.2463216487419832,0.1685689393937471,-0.284315815,0.1390399179360801,0.0878814963149475,-0.183699149,-0.101375354,-0.822254159,0.2500840582317104,0.0412762704935282,0.0694205227124855,0.757258696050491,-0.404725164,-0.728732403,0.2289380251807892,-0.050037434,-0.438131484,-0.003443684,0.7367049059579216,-0.095084389,-0.148808492,0.4738018728882516,0.1923993227030566,-0.791118564,-0.185173935,0.3414943267900042,0.4148878550522225,0.0124335265268742,-0.044885464,0.7281107306513659,-0.168184877,-0.073652645,-0.023111137,-0.040442978,-0.254929217,0.0141942100322403,0.1750411801834979,0.2887362296178567,0.0122931013347927,-0.030692021,-0.074335076,-0.048731092,-0.660190446,0.2851580160733786,0.4845021002642665,-0.465535787,0.1283190539003218,0.0815096087475157,-0.538349378,-0.312638405,0.2680302506307122,-0.177098971,-0.059179788,0.7409211332513364,0.3309636362166533,0.6297896096026909
p30,-0.000257737,0.5364398443613863,-0.055784847,0.1015359927052531,-0.683073936,0.685807099383333,0.3133485188231955,0.3262024266107621,0.2534441762112323,0.1519173685594573,-0.457180302,-0.701456768,0.8771429263586819,0.0926541393791371,-0.032528098,0.142726546010409,0.0008194363894772,0.7707409311178357,-0.252164671,-0.230585013,-0.714237874,0.1740877081772342,0.3437722999180934,-0.315666569,-0.001488061,-0.079216374,0.3967121381076243,0.0010999542387809,-0.040071614,-0.198691255,0.0921951120432113,0.3182403821799153,-0.295821322,-0.028210778,0.0290611161056445,-0.06542449,0.1892789813492901,0.1400435327643636,-0.282754678,0.6315396583699316,-0.444487511,-0.454441379,0.1801072023827638,0.2316206123595037,-0.073556511,0.2848516456498795,-0.686714881,0.0519083957044232,-0.09523243,0.202015226512626,-0.324406159,-0.13046585,0.3532892879855603,0.8380456130929363,0.2761722662463706,0.4555674379937652,-0.671066455,-0.017145618,-0.121635874,-0.019636518,0.0715711706098295,-0.193906138,0.3070357554582967,-0.212993732,-0.409759677,-0.191687894,-0.31930377,0.0163405027314338,0.4618315646960074,-0.410587493,-0.806140163,-0.056471179,0.2614361558175982,0.1736510200554199,-0.283825447,0.1568949498645882,0.1265436050043935,-0.17831378,-0.117323478,-0.841662144,0.2985450225820443,0.0339440354863058,0.0396904374800818,0.7640048195374428,-0.367255908,-0.673756712,0.1994807852385014,-0.058953499,-0.415704179,-0.009054794,0.7435704262628015,-0.133208867,-0.147925591,0.4472723562062019,0.2200279804848261,-0.795420549,-0.165701113,0.3339385127448798,0.3926000890190161,0.0103029148166708,-0.071425867,0.7407225747895292,-0.142748036,-0.098370592,-0.022376942,-0.022945287,-0.236020304,0.0459375146926093,0.1499160298445739,0.3303175236710194,-0.010917865,-0.007623603,-0.069286356,-0.075132321,-0.596443225,0.2583871225073841,0.4451178715378749,-0.42167005,0.1509230788801657,0.0823714239791411,-0.48951416,-0.290682575,0.2720060564367458,-0.154934164,-0.063667839,0.7537115548167754,0.3238528739050317,0.579431726094632
p31,-0.153028166,0.2689599195564124,0.0687482967382138,0.0400360311843635,-0.683046866,0.6653950703079239,0.3030495022811104,0.2912202859221151,0.1261497729608363,0.1677204103021732,-0.493827869,-0.685938041,0.8581561041709467,-0.001953628,-0.151238834,0.1433751208523307,-9.27E-06,0.7567110936638963,-0.182316179,-0.252333047,-0.704766519,0.0559815795578435,0.3658121694963855,-0.127566903,0.0814909333327705,0.0076483156600079,0.40788568670102,-0.064662541,0.0326807531505534,-0.11623953,0.0738938479059796,0.3319518915971599,-0.283275095,-0.101931716,0.0673674699753029,-0.078740527,0.0530666728943663,0.0301839927876959,-0.221523624,0.6340599440506318,-0.464126931,-0.472210288,0.1815018551709253,0.3492687409231647,-0.018761255,0.2276283124083126,-0.67657421,0.0111741622815016,-0.058202338,0.029320323349375,-0.336264966,-0.009148683,0.3568275860439582,0.8198842016425526,0.2711702925630304,0.4497399134475067,-0.687944458,-0.026576619,-0.21000932,-0.072519875,0.0726922039790726,-0.185167824,0.32495516257264,-0.215635952,-0.4139904,-0.180620734,-0.327958026,-0.122325225,0.4602332256932625,-0.421112953,-0.793710502,-0.077718913,0.2249932806356221,0.0783433453262027,-0.220255188,0.0505428851094086,0.0363651549876505,-0.191038639,-0.0272247,-0.826906506,0.1880712712885945,-0.028640682,0.0871352485906394,0.7513191772459433,-0.373657658,-0.683052365,0.2232216943322542,0.0553298796759915,-0.423396337,-0.047947897,0.7397034238834617,-0.01655685,-0.148924677,0.4644352342174472,0.2002479726485509,-0.786195612,-0.183488885,0.3344926806652287,0.4074443799035507,0.0391274015650306,0.0955421539935439,0.7235704041493315,-0.155609474,-0.046974874,0.0553820911880835,-0.181607662,-0.234633167,-0.076465032,0.1870623186311072,0.2954828503687318,0.0028770940912369,-0.056695756,-0.035090902,-0.008299749,-0.638618937,0.2485523348482627,0.4764308936646301,-0.427955036,0.0091357492304218,0.0775343536186326,-0.530487982,-0.313671656,0.1837855029141334,-0.165866326,-0.182559436,0.7456246911700153,0.3286610677513548,0.5973762939901713
p32,0.0536827413468859,0.2652405580417531,-0.287497325,-0.046629685,-0.716751855,0.7270016836512379,0.1633770129298545,0.3605406377102357,0.1159663608859451,0.1346064746935887,-0.405687698,-0.693423642,0.929557244242968,-0.044041678,0.1236781169180517,0.1232700163418815,-0.103245679,0.8365574634048798,-0.257999847,-0.146844703,-0.571177075,0.2077116934126041,0.2751157165976154,-0.347169302,0.0568243211037557,0.0770715345907642,0.2654722991707117,0.1635738678002724,-0.098697439,-0.173997073,-0.196665391,0.2120873589238798,-0.223170786,0.2510575469927644,-0.281710214,0.0956022831791472,0.0550278295801332,0.0602387614278242,-0.320376651,0.6613871862634093,-0.361921238,-0.358571745,0.1809612476570668,0.098779137761265,-0.204326489,0.4217903300244777,-0.733254499,0.0898813848080786,-0.013492607,0.2107034469233159,-0.260201745,0.0661937748153969,0.3720153419826764,0.8666766641131647,0.2012951982210018,0.3630443006849091,-0.534874853,0.053242836085749,-0.226435235,0.0083751854409406,0.0381920988865643,-0.172199641,0.1781861577690074,-0.182877626,-0.338103976,-0.185908542,-0.256433344,0.2439263797166268,0.4932713391603618,-0.310411435,-0.850265238,0.0261013393287401,0.1775324991222956,0.2850905470236881,-0.265604789,0.0819320043926365,0.1045972713714487,-0.093726595,-0.222875404,-0.8844305,0.1654788479580201,0.0570890857311279,0.2105628294907182,0.8114251260446242,-0.391781636,-0.501583768,0.1506394681204642,-0.037198286,-0.31987081,0.1467943187199468,0.7895654987718271,0.1165831700520289,-0.122931447,0.3572662251106028,0.1578155931291037,-0.832581876,-0.117955035,0.2553305622365584,0.3247862672479464,-0.022251914,0.0074395697271677,0.7651454957200869,-0.105554557,0.109494921834676,0.0306978499694068,-0.179557663,-0.170707471,0.0186200648543056,0.1333412468137848,0.2999757456243129,-0.056193178,-0.264084785,-0.129613973,-0.048890433,-0.480734635,0.2758859088931524,0.3826474237871918,-0.274570691,0.0564316462329426,0.1100961223188359,-0.401739161,-0.596239826,0.2422965345738783,-0.122027761,-0.001883308,0.8147978197426976,0.2723101575083915,0.4856826528649932
p33,-0.146188261,0.3275706309511208,0.047821750579925,0.0410414348094483,-0.67828613,0.6581251644487351,0.3521077548373295,0.3034526208730794,0.1785547420277012,0.154929146905077,-0.511187857,-0.685884134,0.8478803104286349,-0.024304518,-0.125628315,0.1685183374367172,-0.047608035,0.7459865875055998,-0.244473661,-0.273343442,-0.742713424,0.0257499727748347,0.3748416646408052,-0.110532643,0.094712751672814,0.0212780784744094,0.4446755844761461,-0.119547686,-0.041561008,-0.114798467,0.0211275992356991,0.361773807017725,-0.315715465,-0.141947684,-0.006689222,-0.03350801,0.0625356741687789,-0.012259495,-0.301302711,0.6444382301921977,-0.478104588,-0.512951964,0.1867123363848112,0.2871536059524462,-0.015929806,0.3180437738967722,-0.657500062,0.0940438898488413,-0.074960143,0.0213854390526007,-0.350539415,-0.040273306,0.3604490153000699,0.8074754123878891,0.2988836483127318,0.4779699280548742,-0.738769184,0.0144391415364068,-0.32779519,-0.108952046,0.1178099453386535,-0.201405264,0.3528648994491922,-0.224877336,-0.420839197,-0.191516824,-0.336297528,-0.14162741,0.4581040764789754,-0.451946487,-0.787489673,-0.078303767,0.2928358423803708,0.0446248960647271,-0.2985317,0.0255219300824471,0.0350350816141866,-0.206483875,0.0015361000346672,-0.808887812,0.1956160644496533,-0.003219517,0.2198465166345699,0.7438377994422706,-0.401093003,-0.740104136,0.2370107951270262,0.0498288153883936,-0.439131054,-0.077997547,0.7335626134535103,0.0118409801298508,-0.152539785,0.4794242416935392,0.2604889865253883,-0.785019816,-0.191363642,0.3534373139696364,0.4197620386797313,0.0417505170191856,0.1306427194685628,0.7199975981247381,-0.171423517,-0.025218565,0.1110957027302046,-0.151603288,-0.262725219,-0.088002022,0.1769658622350077,0.3311869994690347,-0.00610748,-0.074385514,-0.058336016,0.0149945870874604,-0.667504937,0.2618144944261343,0.4883289420270884,-0.485433134,-0.055917571,0.1480411907116539,-0.555065732,-0.436683973,0.2717905323704654,-0.186281245,-0.189658356,0.7366601443529328,0.3375353862316024,0.6261208128881975
p34,-0.10425779,0.4309054281044227,0.0560040070251574,0.1049109418876693,-0.677664792,0.6618774253258332,0.2929541664887474,0.2833305028007948,0.2025399361319636,0.163811231157497,-0.499845051,-0.678604438,0.8613756558534489,0.1085105499186374,-0.100159197,0.1316197333678555,0.0264877386946703,0.7379821226825332,-0.312640329,-0.228943309,-0.719398732,0.0904583921134634,0.3641025431349539,-0.274473626,0.005906249974777,-0.001300124,0.3976213493151326,-0.022611693,-0.046925993,-0.172367653,0.105950409682786,0.3164289286057676,-0.29198049,-0.057320178,0.2361401035165942,-0.010832252,0.1201508337321995,0.0835798091956673,-0.3397674,0.6300379655957954,-0.460841898,-0.465412906,0.1841079381950912,0.2863644305701682,-0.093396637,0.3134108250725305,-0.673364457,0.0105215417030686,-0.038509507,0.061029928386181,-0.33836257,-0.037199368,0.3458793212513293,0.8263770121232025,0.2744683051879189,0.4602755649497349,-0.696801376,-0.007700141,-0.198733215,-0.005338677,0.0245107726171518,-0.184177059,0.305314840657013,-0.217431521,-0.430048977,-0.172510946,-0.327445219,-0.044332027,0.4566422008026649,-0.419705044,-0.788121544,-0.001668819,0.3142971803137898,0.1750007017068612,-0.333371253,0.0695169973498999,0.1426512177697835,-0.179751331,-0.076442749,-0.827321178,0.376709652968798,-0.024037592,0.1113394116962754,0.7566237561015253,-0.382555921,-0.670426455,0.2140561151841643,0.0017473352767152,-0.423198271,0.0082178171077635,0.7420146735326075,-0.088492455,-0.158184601,0.4723093924376578,0.2848689404231075,-0.777319664,-0.180481552,0.3346330200028141,0.4041492624498555,0.038326390848222,-0.006804007,0.7214637552989986,-0.149843465,-0.032262413,0.0204337102974822,-0.120329939,-0.243055024,0.021178353061365,0.1740291603042855,0.4512070484934318,0.0206760047659004,-0.073475616,0.0238980627665437,-0.068221155,-0.630359552,0.2454111719305374,0.4762291149384565,-0.414483142,0.1014249272214759,0.1140347873165368,-0.518367368,-0.415671218,0.2976607638750479,-0.168195812,-0.125853815,0.7394028894728115,0.3363183152807335,0.6129313389496681
p35,-0.134920501,0.2779773368319567,-0.204782742,0.0038064572068269,-0.677282675,0.6669149098203071,0.3480085100449209,0.3304622176720678,0.1338123466737678,0.1585764503169424,-0.493129964,-0.675720172,0.856340039081771,0.0506765489451079,-0.149652992,0.1678893158993189,0.0073038994598268,0.7448635421797195,-0.108666671,-0.259074938,-0.72639293,0.1299528671085536,0.3717534970866414,-0.362353052,0.1569730638116604,-0.012704474,0.4240143132169214,-0.017514509,0.0396211763735731,-0.313849321,0.1124173684530144,0.3461654457286073,-0.309443486,-0.051592075,0.039763972147606,0.0237712224657932,0.0260759173850963,0.0723530719331167,-0.17118145,0.6559466341872839,-0.465810562,-0.494919414,0.1986597927228448,0.565922266852942,-0.011404247,0.2573481847371794,-0.656956717,0.0442989168305136,-0.146959396,0.0965055767688778,-0.342038769,-0.004304386,0.3586337070054973,0.8280571968899004,0.2863036511290415,0.4567009845742558,-0.720858583,-0.059857281,-0.272332781,-0.041907835,0.0182692027797708,-0.189000247,0.3338664245217392,-0.22016837,-0.412903097,-0.200076183,-0.326105674,-0.035041711,0.4590989237626093,-0.441794128,-0.796522695,-0.045166764,0.2331350432669748,0.0881361805699442,-0.240488314,0.0889944497164668,0.1283294150964819,-0.202733023,-0.044045734,-0.824010632,0.2204093449208077,-0.018288698,0.0348569137987102,0.7491400486214117,-0.406111639,-0.718269144,0.2283725769470138,0.0953512094951172,-0.43421044,-0.114117687,0.7454177438421751,-0.06963663,-0.152965334,0.4674026285744712,0.1819675198052273,-0.791049362,-0.187440447,0.3438842040918975,0.4108606874894929,0.0898888517604518,0.0196316357921611,0.7193998712808723,-0.167391348,0.0205797046042316,0.0683080285401733,-0.255511184,-0.250650184,-0.050353114,0.1717802721586063,0.456679171591958,-0.016504027,-0.131013691,-0.080975406,-0.047405807,-0.65028602,0.2791009375414648,0.4802724108692258,-0.447667057,0.0450017181845202,0.0357365087107154,-0.529515239,-0.367771849,0.1647244809853456,-0.171495606,-0.186692655,0.7379559293837766,0.3278575309026261,0.606002408826295
p36,-0.025791805,0.0558722346952951,-0.012441681,0.0365051341401849,-0.685487042,0.6696150526643453,0.363983092892344,0.3021002604582543,0.0367587895077141,0.144546410152326,-0.493982198,-0.693331736,0.8681917505053482,0.0005445376366137,-0.023344032,0.1846723659100138,0.0006007587035356,0.7565357730535086,-0.064645245,-0.240631004,-0.709078551,-0.0232279,0.3817382330932534,0.1778656202422091,0.0508440981435978,0.0608907920370613,0.4089041454647806,-0.090742987,-0.015755316,0.141844830091696,0.1264845282977807,0.3340224009453855,-0.272051931,0.033063722841364,-0.08174962,-0.050277347,0.0159016582716025,-0.007266919,-0.068348481,0.6060679310774847,-0.439128332,-0.49558772,0.2050730006504422,0.2012592665621064,-0.039031456,0.0832251999002206,-0.6820309,-0.049341099,-0.016004764,-0.103427675,-0.346402809,-0.06075642,0.3542293298795226,0.8243667799983547,0.282884282191255,0.4583664671358728,-0.68631842,-0.009286562,-0.100705191,-0.016796689,0.0374474146777737,-0.198841981,0.3378705729419373,-0.216700529,-0.422201443,-0.190431056,-0.332500205,-0.057131365,0.4640318416989359,-0.419060059,-0.802174851,-0.064776366,0.0764082849199079,-0.017068971,-0.080650969,-0.017748408,-0.101150297,-0.187956733,0.091744032185681,-0.830371259,0.0763289092765861,-0.056219597,0.0726631808291352,0.7524527806332955,-0.383191428,-0.656140658,0.2323152596297734,0.0805474966333957,-0.385467086,0.0122264907068032,0.7470573247461708,-0.019787686,-0.146099476,0.439402061639294,0.0678002957180522,-0.790341782,-0.164252552,0.3141660753571783,0.4189218230010167,0.0457408115329591,0.0221362972241808,0.7362384512139077,-0.165976185,-0.030291426,0.0651940252277001,-0.03278167,-0.247819811,0.0094702911009741,0.1585210678296303,-0.077311052,-0.001502973,-0.035781394,-0.098647016,0.0623265259612671,-0.594463943,0.2858111957207852,0.4665618676030406,-0.442693115,0.0035732238991782,0.0454035590124718,-0.526307453,-0.107167886,0.0610070166640971,-0.18234523,-0.160295699,0.7490009897650501,0.3388514633173087,0.5986469803734481
p37,-0.171961749,0.3235723720969163,0.0695625459436971,0.1267899399720908,-0.695669395,0.6765209369073367,0.3380438780997808,0.2916086620925718,0.1404810699717338,0.1627806313094528,-0.483311218,-0.700062808,0.8655448371487506,0.0202035175636892,-0.112904039,0.1294381983282345,0.0344055826802635,0.7647619436561853,-0.322510924,-0.223905209,-0.724177951,0.0065901495800979,0.366584313444063,-0.190601358,-0.000586641,0.0600172831587217,0.4297542684851798,-0.054146547,0.007367834476873,-0.111751772,-0.003225913,0.3258023813538162,-0.305259476,-0.092403207,0.2790647043286735,-0.108369513,0.0869491767404417,0.0377784260627298,-0.353109196,0.6357031740958177,-0.466989346,-0.476876546,0.1663730291323023,0.2284539326956115,-0.090915633,0.2588966548824808,-0.672318242,-0.025667828,0.0346466309940288,-0.04364337,-0.34022863,-0.012484889,0.354629946458912,0.8293961867007072,0.2831949630416038,0.4567387872691654,-0.698979104,-0.012987879,-0.200651149,-0.026404921,0.0167275442119323,-0.169257939,0.3259126101290329,-0.213345325,-0.413333638,-0.1793356,-0.324913638,-0.072009877,0.4611480208318318,-0.432585089,-0.804838295,0.0140002347615244,0.3224302252697555,0.1408654216039335,-0.305795762,0.0100949319762047,0.1052134770649286,-0.194277497,-0.039389148,-0.834272254,0.354496171831604,-0.05850862,0.1037464137286089,0.7543286259861254,-0.382986182,-0.703042053,0.2107305996361157,0.0336416218808981,-0.438641326,0.0150128278494329,0.7572434186079431,-0.052764235,-0.147695937,0.470576529787571,0.2843869613362076,-0.789549705,-0.177298181,0.3569350339424844,0.4108677386822323,0.0371596981340456,0.0560783473882212,0.7384076895895807,-0.14888718,-0.077601128,0.0218944999964245,-0.143946738,-0.24516078,0.017204160774192,0.1578500844452815,0.4598553465268078,0.0153372608008579,-0.063727484,0.0613084980658985,-0.032787869,-0.625058088,0.2348789481044532,0.4605946611416592,-0.444194389,0.0443584427563102,0.1334216510972261,-0.519537425,-0.43083794,0.2657337791714954,-0.15780231,-0.165126249,0.7490356937552272,0.3353853490874425,0.606500263646763
p38,0.0060747373592854,0.2125288249011736,-0.134013924,0.028935948969147,-0.687567967,0.6731098788520422,0.3427097346408568,0.3054887748751446,0.1611213291683665,0.1551246774151592,-0.509715984,-0.696747084,0.8602918084216055,-0.05554842,0.0357933237786487,0.1542964563916387,-0.130094368,0.7573447184040797,-0.206191787,-0.246675803,-0.749992993,0.1466605628125806,0.3748199471659143,-0.214927445,0.0599580122293161,0.0493799037861804,0.4201660540341301,0.03751876947593,-0.085677793,-0.132938911,-0.068353063,0.3378416162080604,-0.300264465,0.0638353581999039,-0.202220046,0.042417911377642,0.0635264921132773,0.0102222055091944,-0.296090211,0.653259608126627,-0.464060267,-0.498690131,0.1894956337866989,0.2698997271151916,-0.107779469,0.3333285932748374,-0.66471086,0.0758702095847067,-0.049157861,0.1222006550362443,-0.350675678,-0.012168819,0.3509028904887684,0.8364641968294745,0.2931955977021122,0.4701550782607284,-0.715499342,0.0470768742102647,-0.279071911,-0.029153943,0.1121817498122062,-0.202396545,0.3278242524359734,-0.229499365,-0.418568322,-0.179131356,-0.329115962,0.0862040422951146,0.4601678064310303,-0.44180475,-0.796591411,-0.019571808,0.155623145379855,0.1775404205501232,-0.24029589,0.107030530332463,-0.032514059,-0.196112874,-0.16157661,-0.828176292,0.1006349132388047,0.0804695859413363,0.198136218214823,0.761157329980821,-0.398860971,-0.73239942,0.2347352225657871,-0.002440663,-0.430297782,0.0846482441161604,0.7444685835822121,0.1806174827773179,-0.148340474,0.4747424577447065,0.1366357701431743,-0.804853864,-0.179899398,0.3491609001945234,0.4164042798492336,-0.058911174,0.1187157601187378,0.7281767572095293,-0.170380924,0.0287143722488546,0.0839222857311292,-0.169437333,-0.259999804,-0.068148779,0.1655320694550304,0.2254275425272411,-0.013909388,-0.18083668,-0.130219537,-0.022037682,-0.658217202,0.2606131085804906,0.4821251914148043,-0.451406513,-0.015252553,0.1099551015622681,-0.541825462,-0.503524306,0.2031576890104185,-0.175817331,-0.188782155,0.752777467822523,0.3326727461414882,0.6282544182506106
p39,-0.107153584,0.2218124541361077,0.0393680266845698,0.0098251026532301,-0.681437113,0.6766026966902492,0.3167747717954362,0.3113452273260618,0.1291669667109031,0.163662231615556,-0.511425515,-0.691274528,0.8638514067381659,0.0120315143708914,-0.107555735,0.1700791196755478,-0.030627409,0.7515154652344379,-0.163734857,-0.254885216,-0.713956699,0.0228561422141944,0.3676252376356521,-0.027363971,0.0963736746815601,0.0285718123236687,0.4281564334532575,-0.122356458,-0.002020874,-0.076710734,0.1833996944051359,0.3355920791133013,-0.295083002,-0.068476412,-0.074491928,-0.073480064,0.0534554028553589,-0.004458128,-0.208041855,0.6343659369230836,-0.465972421,-0.480484372,0.2084209585339515,0.3646782524335377,0.0175002935588354,0.2031073895788905,-0.678958945,0.0552622641844668,-0.07488374,-0.017024108,-0.347866589,-0.074068576,0.3398376865531302,0.826102465762786,0.2815579579003341,0.4605927739943891,-0.700559787,-0.001768103,-0.250239258,-0.054934507,0.0995728569327459,-0.215746999,0.3423262841411912,-0.224577235,-0.423290328,-0.203087473,-0.326659663,-0.141111418,0.4594984678532573,-0.430665089,-0.799257352,-0.103021075,0.2100797859966672,0.0085158055918435,-0.201932932,0.005874561006325,0.0062066731118255,-0.188615778,0.0379417416270751,-0.83037068,0.1289058831510554,-0.024079412,0.1136361217920041,0.7532627209402024,-0.384398121,-0.701955489,0.2198530896768949,0.0783703556682411,-0.421463604,-0.068036045,0.7472136592094369,-0.026636989,-0.15454022,0.4721352259104405,0.1673599982679565,-0.787400949,-0.179721757,0.3344574217133857,0.4158138456598464,0.0658865264612869,0.0710168932005416,0.7253042100632817,-0.163962691,-0.015166473,0.0570654702043746,-0.177302778,-0.243986854,-0.059381087,0.1768966663676732,0.18259529916952,0.0084173748187597,-0.059183517,-0.144538676,0.0345745496700441,-0.638310472,0.293473279584467,0.4803229503200051,-0.450287629,-0.035798459,0.1122426317628409,-0.538248841,-0.295700053,0.1906666303242935,-0.176266263,-0.232434634,0.7521198822807732,0.3286127973053809,0.6151005895641045
p40,-0.012601681,0.5344040215062129,-0.035277418,0.1078949776295247,-0.67981017,0.6718216896315712,0.353136799791769,0.3102296014690703,0.2609380674828906,0.1590152994934804,-0.48829222,-0.687783787,0.8534765407066067,0.0633526546601598,-0.015817384,0.1485117868849942,-0.053958217,0.7509335919000671,-0.291339869,-0.250402307,-0.725736771,0.191633223834437,0.3698858511233425,-0.360035547,0.0112558331768744,-0.065823912,0.4292999000072635,-0.002288045,-0.097282633,-0.225908509,0.0690108372750824,0.3402354925063011,-0.309997976,-0.003841242,-0.010649215,0.0565696841626493,0.1626146459686932,0.1264498480686151,-0.318355226,0.6481322119152092,-0.46661357,-0.499521233,0.1965214200566857,0.1446125126196147,-0.08750986,0.3267228076155683,-0.666425016,0.0838971944199316,-0.100887733,0.191778536953546,-0.345548543,-0.159138269,0.3623725845500703,0.8279122572042759,0.2885561425217524,0.4648834147797193,-0.718185421,0.0291883593529292,-0.150649314,-0.018162931,0.056864472191769,-0.173661702,0.3501314132025499,-0.219240585,-0.421100196,-0.195774253,-0.32739226,0.0211244657995959,0.4590516393345011,-0.436832382,-0.801171733,-0.031430388,0.2751271181882659,0.2092917809447674,-0.29756477,0.1594146710648354,0.1440430471809454,-0.203728479,-0.127648392,-0.823236037,0.3120107816341444,0.0209978938669421,0.1542872192274628,0.7521516055539497,-0.399929343,-0.719172733,0.2205459903543133,-0.050608588,-0.443841045,0.0121786897432444,0.7476695056258292,-0.115234903,-0.152832303,0.478921608332886,0.2629243667024097,-0.78645481,-0.188995864,0.3557603447243895,0.4092509928361315,0.0117094605090735,-0.066089934,0.7187193298407767,-0.168638035,-0.078639211,-0.01113728,-0.0719541,-0.25701073,0.0669165319441128,0.166660784819521,0.3283789711196022,0.0087249916026964,-0.054894277,-0.043581265,-0.077116441,-0.644265209,0.2718700031404608,0.4752405441194082,-0.45437926,0.1277398873945488,0.0983226369781254,-0.523268913,-0.366503154,0.3029667445463833,-0.17582325,-0.075907116,0.7394247046047223,0.337831434534254,0.6120202665484342
p41,-0.158040136,0.2799426740183429,0.0739272985886192,0.0186654555822394,-0.672255513,0.6621033226381394,0.3594246525301899,0.2810743626186747,0.1498081579466653,0.1599524541508911,-0.506959292,-0.674980781,0.8475232986618053,-0.009594297,-0.164292407,0.1408540249009143,-0.024080012,0.730065934160297,-0.203501424,-0.268300162,-0.73042103,0.0444187534902035,0.3693453729315588,-0.108859012,0.1103024473058104,0.0338967054256832,0.4607124652493942,-0.088305847,0.0036673572195293,-0.124752344,0.0021730391476245,0.3644901995454511,-0.316047657,-0.12364105,0.0736574739570769,-0.013108175,0.0529952447933249,-0.00283039,-0.254835451,0.6509668326650191,-0.477434902,-0.504680618,0.1683804230660879,0.2368288854011036,-0.007603384,0.2583417185123062,-0.656534474,0.1012824645040874,-0.082583556,0.0269035290962247,-0.357837673,0.0080698200908267,0.3615773230707412,0.8041124464175246,0.2969784663421295,0.4658006719960358,-0.731200296,-0.012218391,-0.292148467,-0.08422865,0.0941783615832465,-0.180220874,0.3658647878508311,-0.229297428,-0.42284688,-0.182192907,-0.322755827,-0.134398459,0.4539820189290494,-0.455225442,-0.787862121,-0.067638147,0.2532764025870325,0.0573970049694027,-0.239800248,0.0296946552758171,0.0406738586712294,-0.21669426,0.0211486431333123,-0.813447659,0.1761880997142825,-0.025566904,0.1669248703460865,0.7451002994718067,-0.404434777,-0.74418498,0.2368527688865895,0.0668244381302721,-0.446724867,-0.073074874,0.7348715778741379,-0.02039961,-0.149606181,0.4806651154403397,0.2136208480878881,-0.776815222,-0.188356967,0.3595030313752617,0.4058236632403477,0.0634317339301088,0.1167338057136008,0.7184194189236265,-0.1744477,-0.021227121,0.0980178221630121,-0.137146857,-0.264101649,-0.084975296,0.1811444730483079,0.3153436895045093,-0.01991374,-0.084665718,-0.017559252,0.0266814743369297,-0.664703545,0.2450213339343287,0.4905751219250985,-0.487893243,-0.041268939,0.130604153334143,-0.554797684,-0.355970874,0.2381733463783346,-0.179975241,-0.13438198,0.7286590724854682,0.3318380287133657,0.6294733057833565
p42,-0.078559458,0.4723802179116027,-0.082423594,0.0680577472329176,-0.687141625,0.6561174169035099,0.1874895707721898,0.3218211774304277,0.2346691730768922,0.1722221181744259,-0.525271231,-0.690598341,0.8521981565089348,-0.01329429,-0.048718209,0.1952482848390484,-0.042519605,0.7584750869564314,-0.233928168,-0.194808401,-0.731301506,0.1119365418589544,0.3831487686301927,-0.249956532,0.0546192348105155,-0.034465142,0.3431686443065849,-0.025277173,-0.026312369,-0.176616163,-0.029173596,0.2666625487932564,-0.225584071,0.016840143652541,0.001086802638752,0.0412563815154282,0.1301876228059015,0.0842269408190935,-0.274307278,0.6357919559127215,-0.450949194,-0.437511014,0.2609066200223451,0.222421194792513,-0.104553678,0.3233605349259335,-0.671603418,0.0638172412956531,-0.102853587,0.1257867422240014,-0.328059429,-0.048552693,0.3534074630357616,0.8100609520830874,0.2443390315921258,0.4707263049435128,-0.67623339,-0.009347367,-0.21425826,-0.056977241,0.0330315932334721,-0.213451584,0.2403677563298075,-0.223528513,-0.437610273,-0.198557853,-0.332548035,-0.034570568,0.4637415728045281,-0.379262563,-0.782177343,-0.068369754,0.2479106022247916,0.1309149453421968,-0.318617186,0.1584772918537567,0.0954275437896132,-0.121054427,-0.097036361,-0.823153581,0.2823319273488067,0.0147648548461758,0.0907418833021579,0.7534117961055322,-0.372661909,-0.614722108,0.2069051021899226,-0.003975772,-0.374446005,0.0161332347221381,0.7323805189389256,-0.051103973,-0.158082552,0.4700893123523932,0.1928834923532506,-0.777410665,-0.154738256,0.2834448226531136,0.4109423723773244,-0.015989683,0.0173459405282142,0.7205357223247574,-0.130988549,-0.063347352,-0.009190087,-0.097183407,-0.203267825,-0.022932122,0.2139840410602903,0.3795955865771148,0.0374090667612988,-0.060068353,0.0114577870693718,-0.081047598,-0.639589186,0.3002265905982923,0.4906872254858177,-0.357436254,0.0758111398627458,0.0461181570305135,-0.529656413,-0.417939111,0.3141842126117271,-0.173188175,-0.06729421,0.7527117554339836,0.3175612123561934,0.6057935664522964
p43,-0.024144791,0.5684855428325118,-0.000204863,0.1219219170390781,-0.685063316,0.666077306275392,0.2893468853080065,0.2851905581013196,0.2744854314617898,0.1604722593237727,-0.508383491,-0.692184266,0.8507314654362026,0.0981491102316703,-0.056260053,0.1412889228401811,0.0122733983385657,0.7511818221687939,-0.279934883,-0.236756497,-0.721064934,0.1598750112548931,0.3696607874318935,-0.30685712,-0.006729621,-0.082465188,0.4071192400813335,-0.028983945,-0.045497917,-0.19953902,0.0492765518810725,0.3198874815576943,-0.296958936,-0.043293925,0.134502124533954,-0.063691071,0.2005345718559661,0.1296609995659527,-0.307057812,0.6512235283200132,-0.473851065,-0.479693474,0.1853086722868209,0.1716579792243615,-0.073387812,0.3036588986815151,-0.675142617,0.0634574923936871,-0.105592913,0.1943851321766017,-0.345978134,-0.109110502,0.3578965224129251,0.8176713726502056,0.2804832652835914,0.4690351773982218,-0.704759966,-0.00750898,-0.14020599,-0.042328835,0.0693797727169763,-0.172533644,0.3066022445337309,-0.227948902,-0.424041253,-0.177135304,-0.331308926,-0.014023201,0.460669858390682,-0.42717043,-0.806563537,-0.055471901,0.2940909502725166,0.1664272650734725,-0.320768589,0.1527377808959796,0.1481938617527354,-0.165476749,-0.102393437,-0.824427094,0.3323516981582729,0.0249927713637759,0.0561328853700346,0.754572565371268,-0.397088482,-0.689354139,0.2201197355777185,-0.055252484,-0.430242583,-0.010289301,0.7443736721701611,-0.145331106,-0.157389951,0.4777578953473811,0.248524892475647,-0.784455833,-0.178907026,0.3378027624316048,0.4057808005000818,0.0200281829412927,-0.050433399,0.717661535431498,-0.156303289,-0.109071249,-0.014089478,-0.027468307,-0.241924019,0.0477845630590057,0.1777192900792175,0.3951905154977232,0.0224519208541048,0.0068540248770207,-0.005927331,-0.075435412,-0.649048362,0.2536899977139895,0.4881511048927569,-0.428072449,0.1498094389852145,0.0952818701553374,-0.538282507,-0.304551401,0.3127043712453523,-0.168326003,-0.031852156,0.744534147793683,0.3346443877107327,0.6232471671480069
p44,-0.115013211,0.3662814485784726,0.0750603593003236,0.081113190261689,-0.668057156,0.6664784377893297,0.3114612681726004,0.3085095035962861,0.1980998117481485,0.1568453343750599,-0.490265731,-0.666583106,0.8527087354888396,0.0078958636806906,-0.092554122,0.1570786135475806,-0.059899751,0.7428627304028079,-0.247945186,-0.249225779,-0.703378114,0.0537322972029398,0.352566378139897,-0.145550874,0.0644914810387594,0.0027034152790631,0.4160178943972268,-0.069286371,-0.077689086,-0.09824679,0.0077680527389413,0.3348967562468847,-0.309059294,-0.116451917,0.0405270920840806,-0.013763992,0.0913045038742525,0.0302105708211652,-0.281181086,0.6470762893150868,-0.464462841,-0.476524686,0.1854304620534631,0.1817676205438428,-0.054775871,0.3168004641478238,-0.6637867,0.0599828336028376,-0.082653526,0.0432153783363074,-0.342147745,-0.0379256,0.3579775710983521,0.8062909149717816,0.2830509320441983,0.4549681387743207,-0.690256412,0.0204166058692178,-0.236848091,-0.082129291,0.0755378875243989,-0.197697163,0.3305899024747773,-0.223029798,-0.40972562,-0.193861375,-0.311955715,-0.09900706,0.4551194223781499,-0.430702165,-0.802240077,-0.048258962,0.270200333332201,0.0687743752780706,-0.294815867,0.0485363370362287,0.0409083745181837,-0.190608753,-0.022654745,-0.815053237,0.2516487252664856,-0.005008591,0.1980905792959054,0.7491978155123152,-0.409345296,-0.701307668,0.2274638923496866,0.0274912338248403,-0.420576424,-0.049690517,0.7408341295529256,-0.024789678,-0.152787024,0.4646851025742755,0.2507407232119824,-0.772587364,-0.186886656,0.3446171214602906,0.3891997298114642,0.0336201570281894,0.0754329567525323,0.7075917191549789,-0.162996054,-0.049179765,0.0625197697401503,-0.127206177,-0.257181906,-0.042022925,0.171387670099944,0.3354518926234442,0.0086934127863179,-0.051327133,-0.024334518,-0.013031947,-0.639137412,0.2778359146732114,0.4737374185805148,-0.438844289,0.0253861639707458,0.1178897806436558,-0.528171038,-0.397908869,0.2602542268987959,-0.175149231,-0.14622524,0.7456302262616601,0.3226650575781856,0.6039670042844701
p45,-0.156791311,0.3987384875350835,-0.064297182,0.0083714269199972,-0.690086586,0.6990034832706974,0.2351449612485291,0.2860707352620066,0.2001841087477432,0.1511726238556568,-0.445318091,-0.687894506,0.885474398094836,0.0548454721287482,-0.169752384,0.1134839147047436,-0.02108831,0.7863879535168365,-0.200234952,-0.196397159,-0.670087462,0.1494941098063909,0.3393414636701263,-0.387725882,0.1360524160464181,0.0004079507373632,0.3494772835282549,0.0010290906281298,-0.005420917,-0.315399739,0.0024141696527651,0.2699474243310208,-0.276600901,-0.020618882,0.1515858412243319,0.1208089667534868,0.0407878203864835,0.0673391531861334,-0.293051304,0.6442570674973915,-0.426851834,-0.419808383,0.1574113107617298,0.2472892616141049,-0.051431777,0.3783340600187265,-0.696252551,0.1028364496648371,-0.132532416,0.1153580792312507,-0.305541174,0.1068081155164493,0.3616801303186068,0.8473577872461654,0.2456698813419226,0.4260937670209114,-0.632983336,-0.03858295,-0.359436636,-0.029272618,0.0146690913770051,-0.154643546,0.2498409560324895,-0.201024357,-0.39802556,-0.160576037,-0.303780123,0.008704314265736,0.4809669635016276,-0.382353512,-0.835500456,-0.002218241,0.3071547395705336,0.1470613471536545,-0.32870176,0.0963603448928092,0.1424657577046472,-0.14528525,-0.064541719,-0.857018262,0.297842199567022,-0.005662843,0.1371343924106534,0.7842433280135374,-0.38767533,-0.615249745,0.1878441474529412,0.0579409453263713,-0.393743063,-0.078034583,0.7727095085880281,-0.033447566,-0.132859372,0.4396555854265078,0.2639109991699847,-0.802799486,-0.158563986,0.3115611717907314,0.3836498558544899,0.073604934343686,0.0462703936712057,0.7338216678159407,-0.134011264,0.0300021056445075,0.0811253998720979,-0.211199424,-0.2179436,-0.03549759,0.1610310457017048,0.5488664570474052,-0.021922004,-0.153236896,0.085746025727246,-0.05376403,-0.5767608,0.2297398171703825,0.4361481696835569,-0.353373295,0.0244115942415744,0.079478205857498,-0.469452861,-0.528718364,0.2573894920166537,-0.147338331,-0.030925826,0.7749864676290436,0.3114397440913674,0.5552483431739424
p46,-0.199287123,0.3843017574320794,0.0459320048776337,0.0313707931902011,-0.702322744,0.6887082539607496,0.2151202583470375,0.259514818206404,0.1920625668973976,0.1552545641998103,-0.434271752,-0.694397357,0.8879982946021208,0.0225916568616082,-0.220342342,0.0808925048958137,-0.005957027,0.7839291830959653,-0.212827956,-0.174555343,-0.634436861,0.140956511162368,0.2951708105251451,-0.403174913,0.1582628126319619,-0.004439155,0.350872288113473,-0.014809629,-0.042809662,-0.330233318,-0.057204259,0.2565202419340717,-0.273996211,-0.078954554,0.279848482139189,0.1140806649624421,0.0288834049863149,0.0649244469040538,-0.269967013,0.66239544840818,-0.425797458,-0.395355895,0.1194034179751829,0.1792394026648725,-0.043369762,0.3455726164252034,-0.679073142,0.0760456647000905,-0.147533631,0.103846166111356,-0.297098328,0.1693890725042796,0.3753921204474794,0.8391483543422545,0.2347530314920398,0.4072414741328864,-0.601927882,-0.009865787,-0.328990814,-0.025760999,0.0057046891586147,-0.067958559,0.2438843532047138,-0.19473776,-0.360935825,-0.091491836,-0.268270662,-0.057851246,0.4735328934084707,-0.359268141,-0.810595442,0.0221313383240479,0.3017463318116263,0.1359539699121302,-0.308084941,0.1194430864044367,0.1507837910812802,-0.115165353,-0.052358068,-0.855933191,0.2865080228507234,-0.027992509,0.1124684879760843,0.7859809393348366,-0.405518625,-0.594215551,0.1707994054847791,0.0820725367254759,-0.386428289,-0.111620553,0.7620532389392357,-0.060988068,-0.141982113,0.4205829565728837,0.2509519566108401,-0.806948276,-0.143571987,0.3162518419581427,0.3294135375114416,0.082802159921247,0.0699531715036484,0.7572782344505442,-0.124251266,-0.01838491,0.0324766016982215,-0.23469748,-0.201146196,-0.064377941,0.1563364324873094,0.5434908826514796,-0.028306467,-0.135213459,0.1669756298202552,-0.045486869,-0.548476956,0.1978997468725273,0.4123461171807769,-0.351061805,0.0335324500312242,0.0735898117652835,-0.446207949,-0.493505891,0.2400863423198296,-0.132325525,0.0154417950003165,0.7813870190822064,0.2876147958971281,0.5408429052812933
p47,-0.077023851,0.1425232410639457,-0.085487449,0.0230399428190511,-0.692233559,0.6958302967077311,0.281171331613435,0.2883970318825115,0.0745831446808889,0.1510471470073023,-0.448809679,-0.690267754,0.9015426663447138,-0.030411905,-0.061448413,0.1393551105337166,0.001582374124874,0.7838623789624684,-0.10385046,-0.186396958,-0.651068086,0.0067570912833928,0.3284525328288929,0.0193932753995978,0.0696343265336415,0.0297912822122595,0.3535556057550386,-0.067781604,0.0107996828829777,-0.012443409,0.155493975532778,0.2673704470993978,-0.257194489,0.0218645855027787,-0.132422241,-0.059212718,0.0254832413026438,0.0167842102466877,-0.130961889,0.6024004266309773,-0.413948836,-0.407081975,0.1752258574631391,0.4164768286449698,-0.00496668,0.1325031707069072,-0.71040997,0.0039687545890129,-0.02986843,-0.051419977,-0.309403778,-0.11453875,0.353878541830857,0.8568600383008468,0.2591963788856682,0.4121364833433383,-0.576819995,-0.001078644,-0.140042109,-0.064495625,0.0462311592972084,-0.175640104,0.2601184149604504,-0.206090513,-0.394292782,-0.176300188,-0.296789617,-0.058223632,0.4774757707046635,-0.368502088,-0.819847597,-0.049325666,0.13651549884205,0.0157924071694204,-0.129962005,0.0425158074284053,-0.015896298,-0.135685595,0.0339896647992652,-0.866077613,0.1025316755553663,-0.044792928,0.0558901338330066,0.792950974248621,-0.34567018,-0.5598154,0.1890685249406294,0.0538570605780631,-0.355645045,-0.042648568,0.7627112452626101,-0.030627199,-0.149943821,0.4027571046416638,0.1198435776165264,-0.805243568,-0.130033566,0.3002961560523641,0.3831666402274483,0.0458343353212825,0.0360035281057049,0.7412706857148589,-0.140990302,-0.050758794,0.0342033522625316,-0.127110778,-0.225094578,-0.025483892,0.1388260583914794,0.1175158250903098,-0.010164723,-0.029654336,-0.166033982,0.0283161948122014,-0.501674212,0.240095158733817,0.416802938001321,-0.364066387,0.0064380560661493,0.0463822873066465,-0.45309026,-0.180243375,0.1056172003861389,-0.142034713,-0.246417525,0.7936348956850108,0.3192532344207626,0.5511213941380699
