disease,feature_1,feature_2,feature_3,feature_4,feature_5,feature_6,feature_7,feature_8,feature_9,feature_10,feature_11,feature_12,feature_13,feature_14,feature_15,feature_16,feature_17,feature_18,feature_19,feature_20,feature_21,feature_22,feature_23,feature_24,feature_25,feature_26,feature_27,feature_28,feature_29,feature_30,feature_31,feature_32,feature_33,feature_34,feature_35,feature_36,feature_37,feature_38,feature_39,feature_40,feature_41,feature_42,feature_43,feature_44,feature_45,feature_46,feature_47,feature_48,feature_49,feature_50,feature_51,feature_52,feature_53,feature_54,feature_55,feature_56,feature_57,feature_58,feature_59,feature_60,feature_61,feature_62,feature_63,feature_64,feature_65,feature_66,feature_67,feature_68,feature_69,feature_70,feature_71,feature_72,feature_73,feature_74,feature_75,feature_76,feature_77,feature_78,feature_79,feature_80,feature_81,feature_82,feature_83,feature_84,feature_85,feature_86,feature_87,feature_88,feature_89,feature_90,feature_91,feature_92,feature_93,feature_94,feature_95,feature_96,feature_97,feature_98,feature_99,feature_100,feature_101,feature_102,feature_103,feature_104,feature_105,feature_106,feature_107,feature_108,feature_109,feature_110,feature_111,feature_112,feature_113,feature_114,feature_115,feature_116,feature_117,feature_118,feature_119,feature_120,feature_121,feature_122,feature_123,feature_124,feature_125,feature_126,feature_127,feature_128,feature_129,feature_130,feature_131,feature_132,feature_133,feature_134,feature_135,feature_136,feature_137,feature_138,feature_139,feature_140,feature_141,feature_142,feature_143,feature_144,feature_145,feature_146,feature_147,feature_148,feature_149,feature_150,feature_151,feature_152,feature_153,feature_154,feature_155,feature_156,feature_157,feature_158,feature_159,feature_160,feature_161,feature_162,feature_163,feature_164,feature_165,feature_166,feature_167,feature_168,feature_169,feature_170,feature_171,feature_172,feature_173,feature_174,feature_175,feature_176,feature_177,feature_178,feature_179,feature_180,feature_181,feature_182,feature_183,feature_184,feature_185,feature_186,feature_187,feature_188,feature_189,feature_190,feature_191,feature_192,feature_193,feature_194,feature_195,feature_196,feature_197,feature_198,feature_199,feature_200
DiabetesMellitusNon-Insulin-Dependent,0.035720423,-0.013226114,-0.13820092,0.0769557,0.17320164,0.019861951,0.12743683,0.32001683,-0.0836149,-0.03773458,-0.04806777,-0.21309003,0.039067414,0.120888494,-0.038503475,-0.015330026,-0.014666824,0.17213129,0.044018004,-0.36197537,0.1567696,-0.044317376,0.105581865,0.13512439,0.022132758,0.010032916,0.008965109,-0.019683627,-0.15235926,-0.02379537,0.16704321,-0.01959716,0.16251375,-0.20017533,-0.022465479,-0.031238431,0.07937838,-0.01727451,-0.053126186,-0.16924194,-0.051437348,-0.047478724,-0.1368207,0.025510153,0.13924742,-0.089875296,-0.039158948,-0.10436215,0.09179686,0.046580303,0.060368992,-0.11972026,-0.022370769,-0.14274557,0.07425016,-0.11917087,-0.06355933,-0.24191138,-0.092449285,-0.03555195,-0.035531547,-0.16253658,0.24034652,0.024398316,-0.33554992,0.20779064,-0.061781764,0.21390319,-0.2548896,0.25719002,-0.060231946,0.115935996,0.1377015,0.056418367,0.116804644,0.01186779,0.1392288,0.048992902,-0.15515928,-0.14715084,-0.13689086,-0.15331654,-0.1845727,0.15210952,-0.19523844,-0.124268666,0.24079914,-0.08993296,-0.05077804,0.005813948,0.11517942,-0.008172659,0.19278167,0.16149914,0.26813215,0.015001359,0.10774565,-0.022488168,0.080952026,-0.014615962,-0.15238519,0.2030007,0.075644016,-0.08272753,-0.1119948,-0.27168638,-0.015373586,0.11911696,-0.11678431,-0.24178407,-0.023234619,-0.13257891,-0.03929148,-0.0243929,0.17704968,-0.110733345,0.16826656,-0.29481602,-0.055029374,-0.15799707,-0.10362699,0.098436594,0.14664368,-0.112505175,-0.12772755,0.07916245,-0.23569186,0.0377173,0.08143596,0.11573595,0.13600722,-0.11112376,-0.06439141,-0.2167168,-0.041018505,0.2777671,0.08473805,-0.016335687,-0.100014016,-0.025075803,0.12695846,-0.15842175,0.06376756,0.03356507,0.027983591,-0.07586312,-0.16889434,0.017381731,0.025545811,0.020126041,0.08433399,-0.031651862,0.06282815,0.11169479,-0.21204403,0.077724874,0.20786253,0.09157635,-0.030770218,-0.030838719,0.16500281,0.0230993,0.07560264,0.12140646,0.18820636,0.12064512,0.079984084,0.0552183,-0.13006306,-0.06216865,0.018314764,0.07540695,0.054093502,0.07936706,0.14829348,0.051155318,-0.17008469,0.14734995,0.09595475,0.09279303,-0.10273112,0.015282773,-0.013702646,-0.003691154,0.060106106,-0.03539372,0.04447969,0.21613185,0.2107965,0.14694525,0.23026907,0.11439575,-0.1982776,-0.14058523,0.12622888,0.100662924,-0.028451353,-0.073249705,-0.038721148,-0.06356537
PulmonaryEdema,0.034430966,-0.01243125,-0.1345727,0.074496984,0.16720642,0.017933706,0.1238358,0.30870014,-0.08146088,-0.036807086,-0.04604503,-0.20592132,0.03792219,0.115758196,-0.036354758,-0.013392967,-0.014818663,0.16634439,0.043002043,-0.34927383,0.15076031,-0.043244943,0.10178868,0.13097309,0.021062022,0.009987954,0.008016841,-0.019343462,-0.14586219,-0.023421736,0.16230294,-0.01851999,0.15740617,-0.19385006,-0.019692894,-0.030295637,0.07723076,-0.016185831,-0.051500116,-0.16256697,-0.049164876,-0.046829972,-0.13261141,0.025080431,0.1343846,-0.08836607,-0.03713839,-0.100358926,0.08858453,0.04446476,0.059498724,-0.11501317,-0.020436129,-0.13725431,0.07163463,-0.11405986,-0.06163901,-0.23323885,-0.088459544,-0.033363067,-0.034708038,-0.15791589,0.23198234,0.02429473,-0.32353964,0.20075382,-0.060877047,0.20649295,-0.24615946,0.2491577,-0.06031594,0.11125317,0.13307601,0.05496439,0.11224156,0.011390874,0.13309456,0.047655802,-0.14893904,-0.14268197,-0.13333398,-0.1476937,-0.17685992,0.14592998,-0.18898119,-0.11981285,0.23303698,-0.085998744,-0.048471175,0.005065666,0.1111828,-0.009096617,0.18545954,0.15663354,0.25899056,0.012157061,0.10578432,-0.021680532,0.078645945,-0.015092235,-0.14744128,0.19487213,0.073123194,-0.080461346,-0.1094842,-0.2626618,-0.016346829,0.116405584,-0.11304942,-0.2342514,-0.023279618,-0.12893146,-0.038555767,-0.022765411,0.16957013,-0.10662451,0.16212748,-0.28671256,-0.05239302,-0.1537552,-0.10230855,0.09439429,0.14079663,-0.10953,-0.124180175,0.0762944,-0.22821012,0.036791075,0.0792037,0.111134015,0.13155471,-0.108339496,-0.062851295,-0.20949401,-0.041015826,0.2686542,0.083226226,-0.016395394,-0.09686274,-0.02470093,0.122733824,-0.15276083,0.06172638,0.031803526,0.026774226,-0.074817896,-0.16332671,0.017580684,0.023453379,0.019853802,0.081533164,-0.030268453,0.06170039,0.110532634,-0.20586534,0.07459088,0.20174171,0.087462515,-0.029952396,-0.031329785,0.1598621,0.021507975,0.074380614,0.1183465,0.18093419,0.11650653,0.07791722,0.05217028,-0.12602124,-0.059478328,0.01827508,0.073886,0.051797327,0.076038904,0.14462928,0.049247134,-0.16528517,0.14241597,0.09292301,0.09039807,-0.09820871,0.014999274,-0.012412318,-0.004391686,0.057922557,-0.034318294,0.041214187,0.20999776,0.20322871,0.14406343,0.22254309,0.11100335,-0.19213866,-0.13547924,0.12274815,0.09821609,-0.029227525,-0.07063265,-0.03688496,-0.060015164
AutoimmuneDiseases,0.036216944,-0.012055695,-0.13978776,0.07827427,0.17361198,0.020170474,0.12944253,0.32171056,-0.08476833,-0.03747992,-0.047957163,-0.21541925,0.04041186,0.122076295,-0.038986474,-0.015228707,-0.014255281,0.17424993,0.043872524,-0.3652743,0.15784197,-0.044430442,0.106666476,0.13734353,0.022416811,0.010262084,0.008795545,-0.02019324,-0.15319566,-0.024317794,0.16816406,-0.018994382,0.16437352,-0.20255458,-0.023016497,-0.030858422,0.08041863,-0.017321857,-0.05469744,-0.1699158,-0.051556323,-0.047391817,-0.13797869,0.02490868,0.14038526,-0.09051202,-0.039602425,-0.105394505,0.09174975,0.04669445,0.061255813,-0.12054294,-0.023330582,-0.14378554,0.07425545,-0.12104014,-0.0643734,-0.24440086,-0.093512915,-0.036133338,-0.036466688,-0.16554192,0.24205619,0.02473024,-0.3378233,0.20917532,-0.0631488,0.21492343,-0.25732428,0.25929552,-0.061353277,0.11725932,0.13862324,0.057355165,0.11730775,0.012376774,0.14043143,0.04952928,-0.1559741,-0.14711079,-0.13863894,-0.15492927,-0.18501243,0.15226084,-0.19759944,-0.12608144,0.2438473,-0.09049588,-0.050920773,0.006285764,0.1148931,-0.008099434,0.19372003,0.16210206,0.27088577,0.01385971,0.10948787,-0.022764679,0.08191299,-0.013809424,-0.15419327,0.20300534,0.07730522,-0.08318033,-0.11331173,-0.27393466,-0.0165801,0.12031751,-0.118334144,-0.2442986,-0.023780625,-0.13425569,-0.040014952,-0.024297468,0.17808156,-0.110592745,0.1702058,-0.29769668,-0.05551824,-0.16012004,-0.1049681,0.09951262,0.14869842,-0.114747904,-0.12910974,0.08105594,-0.23782694,0.039850563,0.081510216,0.116641685,0.1374368,-0.11195034,-0.06525689,-0.21926014,-0.041672982,0.27908936,0.086418495,-0.017114291,-0.10157136,-0.023698766,0.1290642,-0.15977499,0.064294875,0.033119433,0.02896249,-0.077353,-0.17015614,0.017748097,0.025710858,0.020200089,0.08532855,-0.03188161,0.06422798,0.114064634,-0.21531865,0.07858423,0.20972915,0.09335812,-0.03075163,-0.031547964,0.16683957,0.023639163,0.07678531,0.12368379,0.18929166,0.12166478,0.08019771,0.0552874,-0.1311335,-0.062109873,0.018609088,0.07661316,0.05441839,0.07928159,0.14981262,0.051043633,-0.17156515,0.14820299,0.09662098,0.093844175,-0.104273096,0.015284223,-0.01444878,-0.003391364,0.059562933,-0.035855256,0.044057183,0.21929209,0.21207018,0.14830995,0.23158315,0.11533563,-0.20026541,-0.1415592,0.12784255,0.10225453,-0.028153103,-0.0742615,-0.039406806,-0.06344798
CondylomataAcuminata,0.033940982,-0.012320556,-0.1357721,0.07568607,0.16976693,0.01931805,0.12591997,0.31348318,-0.08165881,-0.036928743,-0.047553845,-0.20916986,0.03741755,0.11792484,-0.03789937,-0.014642905,-0.016150901,0.16886842,0.043961197,-0.35499936,0.15347834,-0.043328684,0.10389245,0.13444741,0.021167072,0.010744478,0.008007217,-0.019169416,-0.14933354,-0.023894733,0.16431087,-0.018970132,0.16028585,-0.19714983,-0.02032943,-0.03110288,0.07839128,-0.015795484,-0.052174546,-0.16499346,-0.050250523,-0.0468974,-0.13587275,0.025417373,0.13645037,-0.09089532,-0.03752038,-0.10194924,0.090714715,0.04529999,0.06064946,-0.11686685,-0.020377116,-0.13992757,0.07369031,-0.11625964,-0.06313745,-0.23725292,-0.09005182,-0.034650035,-0.035940994,-0.1601845,0.23563573,0.024121676,-0.32879147,0.20288341,-0.06088393,0.2103274,-0.2501393,0.25326997,-0.06034591,0.11395691,0.13527377,0.055680048,0.114084445,0.011737626,0.13531744,0.048020557,-0.15101181,-0.14508364,-0.13618776,-0.15046148,-0.1794829,0.14829047,-0.1922067,-0.12211877,0.23737781,-0.08721711,-0.050683834,0.005817954,0.11286708,-0.008885516,0.18939666,0.15821497,0.26382452,0.012808539,0.10725027,-0.021003315,0.079440415,-0.014251308,-0.15047051,0.19859414,0.074071065,-0.08211702,-0.111378655,-0.2666126,-0.01623903,0.117410965,-0.11558775,-0.23749238,-0.02445397,-0.13068864,-0.03960832,-0.02383468,0.17242712,-0.10831694,0.1650554,-0.29029855,-0.053149324,-0.15650027,-0.10331231,0.096583046,0.14343807,-0.11108589,-0.12460756,0.07794367,-0.23211332,0.036250394,0.079896614,0.11378303,0.13489784,-0.10967667,-0.063080914,-0.2137263,-0.04152879,0.27271807,0.0832415,-0.015219824,-0.097102426,-0.025572833,0.12531146,-0.15613124,0.06247385,0.032256465,0.026554102,-0.07619011,-0.16570337,0.017590305,0.024187807,0.019995557,0.08325668,-0.030778212,0.06244312,0.1127298,-0.20921524,0.075442195,0.20498016,0.08856417,-0.031521812,-0.031379707,0.16272245,0.022621121,0.07520106,0.11985777,0.18450359,0.11837894,0.07910289,0.052382357,-0.12802778,-0.060462464,0.018161139,0.075166434,0.0526199,0.07692353,0.14716138,0.0504241,-0.16788885,0.14512555,0.09503117,0.09204933,-0.09897189,0.014039421,-0.01252404,-0.00452876,0.05868228,-0.034967702,0.04198583,0.21353075,0.2058526,0.14553857,0.22686979,0.11308107,-0.19451639,-0.1382696,0.12397487,0.09919189,-0.029097768,-0.0717721,-0.03742054,-0.06105621
Endometritis,0.034085028,-0.013171499,-0.13186023,0.07461817,0.16611645,0.01819084,0.122991174,0.3088945,-0.08093176,-0.037465032,-0.045329448,-0.20623018,0.037333313,0.11565497,-0.036427647,-0.014734685,-0.014859099,0.16560821,0.04193626,-0.34957102,0.149905,-0.041739363,0.102465175,0.1305734,0.021853752,0.010897986,0.007347865,-0.01866666,-0.14656024,-0.022147475,0.15954106,-0.018734239,0.15768553,-0.19265352,-0.021277258,-0.030017903,0.07579962,-0.017787673,-0.051591586,-0.16310573,-0.049928755,-0.04542759,-0.13325696,0.024149274,0.13267551,-0.08847379,-0.036857445,-0.10041851,0.0869449,0.04562703,0.058988407,-0.11610016,-0.021540588,-0.13719852,0.07199114,-0.11510721,-0.06146574,-0.23315696,-0.088463925,-0.032680728,-0.03630446,-0.15757717,0.23156928,0.023020701,-0.32332936,0.20037621,-0.06004059,0.20597927,-0.24652214,0.24757122,-0.05838984,0.11299002,0.13241065,0.053566277,0.11176884,0.011352084,0.1341904,0.0458331,-0.14966238,-0.14198573,-0.13232274,-0.14663093,-0.17602229,0.14697109,-0.18915713,-0.11902922,0.23258512,-0.087105475,-0.048583046,0.006890114,0.11062791,-0.008543458,0.18565083,0.15530372,0.25904432,0.014433298,0.10577341,-0.021716198,0.07897258,-0.014352265,-0.1476822,0.19551812,0.07284661,-0.078731775,-0.10827615,-0.26298183,-0.016379096,0.115510665,-0.1131584,-0.23441857,-0.02280502,-0.12821163,-0.039438356,-0.022896318,0.17075305,-0.104690515,0.16289361,-0.28476274,-0.05242521,-0.15331605,-0.10028551,0.09402596,0.14219092,-0.10942235,-0.122090034,0.07712831,-0.2287458,0.03727138,0.07802079,0.11186399,0.13246308,-0.10727955,-0.061470333,-0.20922665,-0.039788004,0.2669734,0.08167865,-0.014441159,-0.09583562,-0.024076814,0.12222395,-0.15308265,0.061457153,0.03197272,0.026743434,-0.0743028,-0.16201487,0.017108064,0.024599759,0.020558024,0.081720024,-0.0298019,0.06096698,0.10905725,-0.20514806,0.07500639,0.2004925,0.08817459,-0.030624667,-0.029525282,0.1589023,0.023337984,0.073275,0.1186576,0.18086493,0.11623775,0.07883311,0.052665863,-0.12390798,-0.058644474,0.018312728,0.072248265,0.05109772,0.07685473,0.1450433,0.049242448,-0.1650246,0.14178817,0.09396026,0.08893763,-0.098387145,0.014920817,-0.011759747,-0.004199319,0.05851881,-0.03435914,0.042791504,0.20858331,0.20327191,0.14181744,0.22221483,0.11002033,-0.19035774,-0.13559736,0.12132611,0.097171515,-0.027763344,-0.071195446,-0.03805225,-0.0595319
UlcerativeColitis,0.034429453,-0.012746071,-0.13334805,0.074348554,0.16723382,0.018450927,0.124261126,0.3104912,-0.081022754,-0.03671589,-0.046333708,-0.20673724,0.03795478,0.11616112,-0.03690601,-0.016023215,-0.014411639,0.1671572,0.04253903,-0.3506885,0.15160407,-0.04294271,0.10285294,0.13086396,0.021487465,0.009557965,0.00793308,-0.01819461,-0.14764735,-0.023474734,0.16167097,-0.01917169,0.15824845,-0.19373272,-0.021331722,-0.031414323,0.0770108,-0.015876075,-0.050466046,-0.16384313,-0.050021335,-0.045421205,-0.13386852,0.02533671,0.13401915,-0.08846225,-0.037832767,-0.10024832,0.08913206,0.04495333,0.059420064,-0.11625845,-0.021490823,-0.1388185,0.07198656,-0.11509962,-0.06169671,-0.23484929,-0.0891625,-0.03363875,-0.03591233,-0.15775472,0.23314969,0.023050403,-0.3253458,0.20189714,-0.059614044,0.20747624,-0.24755724,0.24935058,-0.05861152,0.113320045,0.13366647,0.054738246,0.11357837,0.011909012,0.1356389,0.047083724,-0.15123945,-0.14355811,-0.13440555,-0.1475289,-0.17757152,0.1482907,-0.18974924,-0.120871425,0.23441254,-0.08685716,-0.04943837,0.006167234,0.112036124,-0.008701459,0.18787552,0.1566698,0.26184884,0.014001762,0.10591508,-0.021648161,0.07838063,-0.014381407,-0.14898531,0.19806312,0.07359704,-0.079176754,-0.109042,-0.2636069,-0.015949178,0.116148524,-0.11353412,-0.23503369,-0.022376223,-0.12930907,-0.038592078,-0.023241267,0.17127241,-0.106530346,0.16395353,-0.28601715,-0.05399346,-0.15377273,-0.101361826,0.09495049,0.14271158,-0.110369764,-0.12369662,0.077796124,-0.22922246,0.03679888,0.078589976,0.11308122,0.13294339,-0.10857698,-0.061562553,-0.21040648,-0.040947452,0.26918554,0.082497306,-0.015498187,-0.09649409,-0.024580201,0.12378608,-0.15348944,0.06166074,0.032477066,0.026133068,-0.07395091,-0.1625977,0.016183808,0.024812607,0.019618306,0.081436776,-0.031743217,0.060944684,0.11005253,-0.20688643,0.075564414,0.20255545,0.0888716,-0.03044335,-0.029846916,0.16084488,0.023115678,0.07377873,0.11787233,0.18251891,0.11723031,0.078054525,0.05293502,-0.12646534,-0.05958493,0.017976832,0.07336489,0.05291681,0.07674763,0.14414889,0.049336117,-0.16592424,0.14299607,0.093497604,0.08912267,-0.09918271,0.014809635,-0.012426334,-0.004262185,0.057962444,-0.035010204,0.04246272,0.20930909,0.20403849,0.14223993,0.22360696,0.11079859,-0.19336466,-0.13654266,0.1216265,0.09673388,-0.028355323,-0.07120029,-0.037893012,-0.059992407
Onychomycosis,0.03297745,-0.011220564,-0.13004214,0.074739434,0.16346923,0.017729936,0.123087674,0.30261472,-0.07980491,-0.036167853,-0.044271145,-0.20255865,0.038234506,0.1146144,-0.03654105,-0.014039083,-0.015395502,0.16364796,0.03982893,-0.3444073,0.14775372,-0.040933672,0.099738635,0.12944525,0.019784996,0.009710569,0.008357814,-0.02102073,-0.1445434,-0.02466596,0.16018087,-0.018424891,0.15517452,-0.18859197,-0.02007124,-0.028994106,0.07636548,-0.015710838,-0.049963295,-0.16050197,-0.048300207,-0.045993865,-0.13038637,0.02380375,0.13199958,-0.08703588,-0.036378656,-0.09885144,0.08779473,0.043216016,0.058813665,-0.11351854,-0.020763319,-0.13374926,0.069992,-0.111035824,-0.059481226,-0.22970714,-0.08809131,-0.033927575,-0.033527236,-0.15455927,0.22836822,0.022775756,-0.31842276,0.19691989,-0.06083749,0.20124549,-0.24187674,0.24352452,-0.05890832,0.10974384,0.1305425,0.054016873,0.11059524,0.011829088,0.13101529,0.04674873,-0.14688045,-0.13957158,-0.12961301,-0.14536573,-0.17446287,0.14352709,-0.1859965,-0.11715334,0.22902897,-0.08511276,-0.047923915,0.007613834,0.10782022,-0.008133233,0.18219699,0.15420869,0.25635174,0.012686212,0.10363218,-0.021920362,0.07618229,-0.015580944,-0.14345258,0.19162846,0.073207445,-0.076785445,-0.10720654,-0.2573553,-0.016627388,0.11287963,-0.11011408,-0.2284924,-0.022889793,-0.12629066,-0.035949454,-0.022491647,0.1653587,-0.10348724,0.16055855,-0.28062075,-0.051354364,-0.15145864,-0.09951984,0.093683444,0.13794781,-0.109614596,-0.1205718,0.0757599,-0.22559346,0.037188325,0.07726567,0.11032532,0.1303807,-0.10507595,-0.06049007,-0.20605901,-0.040898904,0.2632346,0.08051367,-0.016222568,-0.09432502,-0.024657903,0.12152806,-0.15102682,0.061349478,0.03013928,0.025444018,-0.07379602,-0.16064224,0.016435524,0.02314456,0.01916195,0.08075932,-0.028713249,0.060548976,0.107592136,-0.20208322,0.072677664,0.19557807,0.08666432,-0.030975087,-0.02975177,0.15751444,0.022754034,0.07134646,0.11721298,0.1789888,0.1142532,0.07668202,0.05043494,-0.12373739,-0.058768947,0.017608238,0.07203141,0.05001914,0.07330912,0.14206804,0.04727079,-0.16178791,0.13924189,0.09324104,0.0894486,-0.09678134,0.013880544,-0.013234104,-0.003090958,0.055859566,-0.034091793,0.041309927,0.20603926,0.19992949,0.14122774,0.21848361,0.107726164,-0.18763813,-0.13348487,0.11966003,0.09413541,-0.030144088,-0.06747692,-0.036482725,-0.059071653
Bronchitis,0.03390766,-0.012255561,-0.13088654,0.07503657,0.16560969,0.018498253,0.12418159,0.30827555,-0.08104952,-0.03613185,-0.04484888,-0.20663221,0.037863962,0.11519231,-0.037100945,-0.01579993,-0.015104818,0.16493346,0.041351628,-0.35027063,0.15158035,-0.041920416,0.10240777,0.13098103,0.020119611,0.010068696,0.008155614,-0.019703787,-0.1474313,-0.023945544,0.16088292,-0.019433936,0.15863468,-0.19233981,-0.02113141,-0.030201871,0.07742051,-0.016050104,-0.051491506,-0.16321906,-0.050228458,-0.046190914,-0.13342866,0.02553239,0.13258556,-0.08882287,-0.037390947,-0.099656984,0.08766745,0.04605341,0.058567654,-0.11568745,-0.0209983,-0.13690701,0.07170478,-0.11417736,-0.061091583,-0.23428881,-0.0897802,-0.033518486,-0.035782896,-0.15655239,0.23181608,0.021921488,-0.32370582,0.20021856,-0.060697563,0.20622699,-0.24577293,0.24636164,-0.058074515,0.11308123,0.13228424,0.054052442,0.113101825,0.012349335,0.1340222,0.04667215,-0.14935286,-0.14245462,-0.1324427,-0.14724319,-0.17666116,0.14707266,-0.19044468,-0.11864476,0.23229292,-0.08727859,-0.048911832,0.007561097,0.11060818,-0.00752568,0.18616305,0.15584345,0.26015905,0.014100308,0.104240105,-0.022315394,0.07755791,-0.014979827,-0.14680792,0.19515394,0.07379288,-0.078260764,-0.108129404,-0.2627138,-0.016342679,0.11489596,-0.11298908,-0.23316951,-0.022537779,-0.12834683,-0.0378628,-0.023335066,0.16975014,-0.10533494,0.16262653,-0.28456149,-0.05281226,-0.15398628,-0.10054258,0.094395995,0.14113653,-0.11077893,-0.12135519,0.07663567,-0.22980729,0.038213346,0.078017734,0.11249608,0.1318142,-0.10668083,-0.060934484,-0.20954128,-0.040269546,0.26699314,0.08134016,-0.015134098,-0.095020406,-0.024838313,0.12252251,-0.15427133,0.06161032,0.032526337,0.026684552,-0.07341163,-0.16201182,0.017476039,0.023711395,0.020248812,0.082444,-0.0297696,0.062123466,0.10957043,-0.20565322,0.07454226,0.19991472,0.08893992,-0.031060105,-0.028836424,0.1589875,0.023051258,0.072119236,0.11778685,0.18166189,0.11668203,0.078999154,0.05291743,-0.12464633,-0.058736227,0.018004823,0.073492296,0.05222579,0.07676764,0.14435382,0.04910981,-0.16522838,0.14216812,0.09492842,0.08947654,-0.09866294,0.015164861,-0.012478232,-0.004064058,0.05826459,-0.034152813,0.042324163,0.2076203,0.2040331,0.14265609,0.22349593,0.110345736,-0.19160852,-0.13573709,0.121628664,0.09616651,-0.029327556,-0.07048826,-0.038194813,-0.059915833
AnginaPectoris,0.03414881,-0.012217839,-0.1329854,0.07426098,0.16673055,0.019200893,0.123941764,0.30841312,-0.08025161,-0.035755202,-0.044928003,-0.20622851,0.036910478,0.11565876,-0.038067356,-0.014884488,-0.015055995,0.16659261,0.041599073,-0.34979028,0.15115951,-0.042782303,0.10279406,0.13093244,0.02055823,0.010100999,0.009415152,-0.020353172,-0.14684981,-0.023602616,0.16082492,-0.019299414,0.15854202,-0.19315414,-0.02046312,-0.03010381,0.07715001,-0.015542418,-0.051449995,-0.16335979,-0.049556542,-0.045837533,-0.1328344,0.025311595,0.13402171,-0.08819134,-0.038190532,-0.10008785,0.088817425,0.04543597,0.058775317,-0.11471293,-0.020771584,-0.1378145,0.071168095,-0.11499526,-0.06125546,-0.23369776,-0.08921395,-0.03387452,-0.03513844,-0.15757997,0.23171963,0.02295411,-0.32363987,0.20020124,-0.06062292,0.20669769,-0.24614148,0.24788547,-0.05852075,0.1128426,0.13206607,0.055090897,0.11265586,0.011708092,0.13544913,0.04669524,-0.14856924,-0.14233485,-0.13319424,-0.14777708,-0.17670278,0.14537184,-0.18983923,-0.12005226,0.2329021,-0.087087005,-0.04950036,0.006224124,0.11013448,-0.008221794,0.18616638,0.15650241,0.2592554,0.013737048,0.10481076,-0.021509431,0.07714703,-0.014261143,-0.14761314,0.19593766,0.0730628,-0.07975361,-0.10829919,-0.26289752,-0.015600073,0.1157965,-0.11340216,-0.23373622,-0.022266746,-0.12959889,-0.038686942,-0.023492128,0.16990186,-0.106457755,0.16244248,-0.284515,-0.0523532,-0.15363722,-0.10114304,0.094302446,0.14191952,-0.110091835,-0.123171955,0.07638695,-0.2289398,0.036767058,0.07856127,0.11106913,0.1315559,-0.10777195,-0.060736716,-0.20936818,-0.040302295,0.2681034,0.08182254,-0.015731089,-0.09663255,-0.024343366,0.12321838,-0.15369783,0.060754817,0.03283589,0.02662855,-0.07410411,-0.16161233,0.016481342,0.023576554,0.019961592,0.08211846,-0.030195868,0.062412705,0.11056148,-0.20522623,0.07430796,0.2011418,0.087698534,-0.030511793,-0.030263063,0.15952587,0.022787726,0.072978266,0.11792538,0.18105434,0.11658711,0.07782618,0.053183798,-0.12519808,-0.05960146,0.018012058,0.07279537,0.053234104,0.07691388,0.14411558,0.0497307,-0.16515495,0.14249136,0.09297751,0.08989342,-0.09926958,0.015159677,-0.012492569,-0.004332144,0.0582239,-0.033739455,0.042643394,0.20859632,0.20369135,0.14244166,0.22278659,0.11073686,-0.19179462,-0.13579825,0.12303246,0.097789206,-0.029032491,-0.07030099,-0.03782285,-0.060652252
Hypopituitarism,0.032730892,-0.011958052,-0.13200863,0.07484959,0.16461676,0.018593866,0.123923935,0.3064764,-0.08154031,-0.03578582,-0.045717698,-0.2037745,0.038024228,0.11517111,-0.037745528,-0.014935335,-0.013567479,0.16400997,0.04201088,-0.3482369,0.14993358,-0.04213005,0.102877185,0.13048103,0.020074334,0.00892092,0.006714417,-0.01849683,-0.14589243,-0.022594478,0.16020122,-0.017433396,0.15737696,-0.19107841,-0.020537669,-0.029895123,0.07582168,-0.017204734,-0.050737787,-0.16196275,-0.049665507,-0.04463474,-0.1327382,0.023755964,0.13227978,-0.08808353,-0.036221337,-0.099633574,0.08805058,0.044853766,0.058669277,-0.11360325,-0.021155937,-0.1359618,0.07215301,-0.11386574,-0.061072793,-0.2316961,-0.0885174,-0.033209782,-0.03556404,-0.15735745,0.22937988,0.022622434,-0.32183012,0.19806202,-0.059840742,0.20340005,-0.2451077,0.24673271,-0.05848547,0.111330904,0.13176048,0.053872045,0.11100604,0.011111607,0.1335968,0.04629523,-0.1487605,-0.1406657,-0.13179728,-0.14508711,-0.17488343,0.14679617,-0.1887775,-0.11936474,0.23175693,-0.08513865,-0.048520736,0.007233088,0.11078832,-0.009165482,0.18362965,0.1537684,0.25738758,0.012263206,0.10485349,-0.02155341,0.07915583,-0.013888278,-0.1466723,0.19440596,0.07232693,-0.07892926,-0.106784984,-0.2606437,-0.01633505,0.11399505,-0.11263934,-0.23136824,-0.023243137,-0.12851381,-0.03916565,-0.022874812,0.16841069,-0.104809366,0.16230275,-0.28329453,-0.053053666,-0.1525886,-0.10065923,0.09442346,0.14136209,-0.109558955,-0.12124475,0.07589672,-0.22825919,0.036743734,0.077469476,0.111073785,0.13239163,-0.10691594,-0.061649095,-0.20872785,-0.040326998,0.26487026,0.08168503,-0.014056622,-0.0943322,-0.024490781,0.12143626,-0.15296999,0.06010367,0.031251606,0.025037656,-0.07358925,-0.16186257,0.017226731,0.024011493,0.020230798,0.081411086,-0.031877276,0.060975272,0.109629184,-0.20404866,0.07431758,0.20064299,0.088010356,-0.030964967,-0.02898411,0.15833235,0.022171643,0.07355792,0.11695752,0.18003651,0.11624306,0.077707596,0.051276166,-0.124725886,-0.05873446,0.017009081,0.07319942,0.0514598,0.07484095,0.14284925,0.047523405,-0.16486548,0.14066498,0.092736386,0.088164695,-0.09836243,0.014173901,-0.012562606,-0.003938109,0.05774249,-0.034830846,0.04122684,0.20808205,0.20224266,0.14144275,0.22082683,0.11030474,-0.18999873,-0.13513337,0.12150524,0.09669626,-0.027622653,-0.06987564,-0.038650997,-0.05928861
Pemphigus,0.03345288,-0.012067858,-0.13236855,0.07488077,0.16302393,0.018966325,0.1224848,0.3013541,-0.07963837,-0.03394254,-0.044982042,-0.20129347,0.038028944,0.11372381,-0.037550658,-0.015295648,-0.013275684,0.1627848,0.04189299,-0.34280044,0.14949909,-0.04341364,0.10079071,0.12805289,0.021007694,0.008239672,0.008402374,-0.018657645,-0.1434518,-0.022736616,0.1595237,-0.017420026,0.15522517,-0.1895225,-0.02008996,-0.029327683,0.075326286,-0.0157241,-0.050848506,-0.15942203,-0.04832857,-0.04526244,-0.12931532,0.022869969,0.13061422,-0.0859111,-0.036517747,-0.09867488,0.0870501,0.04421103,0.05779026,-0.11214892,-0.021344252,-0.13337491,0.068642415,-0.11168851,-0.05968,-0.2295554,-0.08937835,-0.03292387,-0.03339228,-0.15571438,0.22735415,0.022724353,-0.31781805,0.19599803,-0.05970175,0.20190506,-0.24216056,0.24360193,-0.058380213,0.108973436,0.13005863,0.05358824,0.11007205,0.010802775,0.13180932,0.047619328,-0.14637329,-0.1385135,-0.13055456,-0.14461975,-0.1740374,0.14381172,-0.18661372,-0.118944496,0.22918981,-0.0851554,-0.04701143,0.00548784,0.107703924,-0.008691937,0.18064171,0.15234458,0.25375664,0.012219555,0.101894915,-0.022608193,0.076318175,-0.013709585,-0.14485858,0.1902292,0.07190972,-0.078783154,-0.10546252,-0.25748503,-0.016629253,0.11187126,-0.109777346,-0.22922812,-0.02089692,-0.12792534,-0.036904074,-0.021403568,0.16689347,-0.10444708,0.16086394,-0.28072366,-0.051605567,-0.14937176,-0.09907946,0.093672365,0.13994879,-0.10810082,-0.12103103,0.07569401,-0.22451149,0.037434164,0.077336945,0.10875189,0.12887208,-0.10506102,-0.061188783,-0.20602916,-0.03970845,0.26176095,0.08151568,-0.016072894,-0.09520556,-0.022811914,0.11985976,-0.15006979,0.060299747,0.0307404,0.026502378,-0.072253466,-0.16000322,0.01742701,0.022983678,0.018832887,0.08046868,-0.029615246,0.061572917,0.10767452,-0.20158435,0.07378783,0.19742289,0.08739779,-0.028672477,-0.029196203,0.15637115,0.021147769,0.072066866,0.11692136,0.1775024,0.113666244,0.074855566,0.051188413,-0.12273452,-0.057403285,0.01829745,0.07169357,0.05126252,0.07464267,0.1401601,0.04660895,-0.16196495,0.13872565,0.09059294,0.08760578,-0.09826828,0.01437997,-0.012770603,-0.003988146,0.05692821,-0.032956656,0.04050783,0.20565361,0.19994015,0.14049083,0.21820548,0.10809583,-0.18916743,-0.13365741,0.12048621,0.09638229,-0.027926065,-0.06937105,-0.03805433,-0.059947696
ChoroidalNeovascularization,0.033505302,-0.011961519,-0.13247173,0.074277945,0.16541792,0.018787136,0.123393126,0.30633074,-0.0809072,-0.03565285,-0.04579938,-0.20437081,0.037377607,0.11468989,-0.036477596,-0.014908682,-0.015003597,0.16466026,0.042185534,-0.34729686,0.15023842,-0.042685542,0.1030008,0.12986909,0.020767285,0.009873978,0.008216888,-0.019085096,-0.1459674,-0.023780186,0.16086583,-0.018908957,0.1573579,-0.19152978,-0.019831115,-0.030447554,0.07635884,-0.01510449,-0.05047672,-0.16202971,-0.04956203,-0.045632515,-0.13252601,0.024897922,0.13250948,-0.087884605,-0.03729949,-0.09883989,0.08814295,0.04407337,0.05821795,-0.114194356,-0.020079961,-0.13683982,0.07160753,-0.11394649,-0.061430227,-0.2320097,-0.088119276,-0.033893086,-0.035068892,-0.156422,0.23049365,0.023012545,-0.3222646,0.19842874,-0.059778713,0.20578778,-0.24450544,0.24688935,-0.058961984,0.111533605,0.13221684,0.054747157,0.111831725,0.011573569,0.132657,0.046847284,-0.14848392,-0.14203767,-0.132287,-0.14715214,-0.17528538,0.1459914,-0.18804605,-0.119403005,0.23155986,-0.08568458,-0.049340017,0.005930109,0.11050054,-0.008310158,0.18532601,0.15483995,0.25830835,0.013654044,0.10449206,-0.02123879,0.07761676,-0.014858577,-0.14702275,0.19416018,0.0722134,-0.07836421,-0.10826672,-0.26105353,-0.015311035,0.115005784,-0.11272668,-0.23258564,-0.022507312,-0.12820835,-0.038066886,-0.023149375,0.1685396,-0.106051266,0.16072984,-0.2838796,-0.05233157,-0.15266576,-0.100845866,0.09406366,0.14036812,-0.10850637,-0.121825226,0.07537754,-0.22692566,0.03663253,0.0778727,0.1111842,0.13125642,-0.10739083,-0.06107058,-0.20746605,-0.04080861,0.26672053,0.08205885,-0.015295418,-0.094705895,-0.024524018,0.12226472,-0.15213871,0.06032691,0.031899475,0.025995845,-0.07287435,-0.16120815,0.017442826,0.024243461,0.0201188,0.08135187,-0.030470103,0.06139643,0.10933222,-0.20450361,0.073891945,0.199962,0.087075666,-0.030303005,-0.030083045,0.15881895,0.022673741,0.07371416,0.115739115,0.17948042,0.11574684,0.07676399,0.05177351,-0.12557895,-0.059076693,0.017718202,0.07391065,0.052215803,0.07555883,0.14275312,0.048876166,-0.1643579,0.14129448,0.09305965,0.089076445,-0.09700972,0.014455439,-0.012920982,-0.004690348,0.057333887,-0.034730624,0.04041054,0.20707335,0.20250951,0.1420634,0.22093956,0.110483386,-0.19096482,-0.13444778,0.121698566,0.09606196,-0.029288782,-0.070298,-0.036300268,-0.060622424
Heartburn,0.033305284,-0.011711204,-0.12835936,0.07019096,0.16076075,0.018605508,0.117101446,0.29755273,-0.078582056,-0.034387026,-0.04521512,-0.19888791,0.03760346,0.11192034,-0.03552087,-0.013902826,-0.013757064,0.15944915,0.041638914,-0.33837736,0.14489824,-0.04251294,0.09955931,0.1264574,0.018924762,0.009440148,0.007411094,-0.018490562,-0.1420871,-0.021783113,0.15658775,-0.017879901,0.15262884,-0.18645874,-0.019431083,-0.029578911,0.0739006,-0.015527427,-0.050464496,-0.15752706,-0.04869677,-0.04315146,-0.129703,0.0253542,0.12863606,-0.085080564,-0.035356328,-0.097150534,0.08405633,0.043986402,0.056221988,-0.11152734,-0.020862494,-0.13282584,0.0700542,-0.111015886,-0.06138863,-0.22476858,-0.086385764,-0.032589603,-0.033973526,-0.15227209,0.2230354,0.023802176,-0.31220165,0.19226581,-0.05854833,0.19779295,-0.23587735,0.23966959,-0.056069884,0.10882931,0.12813585,0.054285057,0.107905,0.012522456,0.12988581,0.043632634,-0.14382428,-0.13713071,-0.1274136,-0.14226668,-0.1714452,0.14160241,-0.18500395,-0.11599365,0.2241295,-0.08322393,-0.046598274,0.005800018,0.108330406,-0.007752743,0.17869486,0.15125501,0.24845433,0.013223124,0.10165705,-0.020511858,0.07634172,-0.015405044,-0.14206307,0.1894865,0.069978565,-0.07836819,-0.10405187,-0.25334984,-0.015405363,0.11186712,-0.10996267,-0.22519165,-0.022521649,-0.12360096,-0.037469275,-0.024078725,0.1652224,-0.10441407,0.1556623,-0.27676105,-0.051852174,-0.1484777,-0.09761329,0.08998352,0.13784087,-0.10598853,-0.11922271,0.07269511,-0.22042736,0.034409586,0.07658489,0.10697044,0.12560064,-0.10324154,-0.06032983,-0.20221998,-0.038058147,0.25868097,0.07809712,-0.015443646,-0.09388018,-0.024696935,0.117002405,-0.14873613,0.060503736,0.03200536,0.025706572,-0.07160349,-0.1562931,0.016608862,0.02206435,0.019773034,0.08011201,-0.02978855,0.05924301,0.10627716,-0.19896667,0.070415415,0.19481324,0.08528566,-0.029911557,-0.029696746,0.15525557,0.021258147,0.07189068,0.11278251,0.17543742,0.11282417,0.0761277,0.05248564,-0.12248996,-0.05786757,0.016823718,0.07177833,0.049955353,0.074724324,0.13880856,0.048383243,-0.15927029,0.13839231,0.08951161,0.08705003,-0.09509436,0.01520949,-0.013482329,-0.004916372,0.056677938,-0.033146963,0.041534577,0.20280315,0.19616014,0.13799223,0.21551631,0.10720973,-0.18613926,-0.13021238,0.12012407,0.0944907,-0.027831545,-0.06933454,-0.03701589,-0.059682216
Amenorrhea,0.03474983,-0.011032268,-0.13581418,0.0757128,0.16948155,0.019603405,0.12574358,0.31393987,-0.083511874,-0.035945345,-0.046881694,-0.2108868,0.04050643,0.11683263,-0.03631786,-0.014750168,-0.015685413,0.16927555,0.043100562,-0.35661817,0.15311421,-0.04478185,0.10355401,0.1328762,0.020608436,0.010921263,0.009019155,-0.020507589,-0.14957976,-0.024129856,0.16445476,-0.019711565,0.16096874,-0.19684814,-0.02031935,-0.029870385,0.07940866,-0.014815065,-0.05398032,-0.16479431,-0.051232405,-0.047286876,-0.13600926,0.027284274,0.13609023,-0.09080745,-0.037232775,-0.101717055,0.089244306,0.044901606,0.05978787,-0.116895124,-0.022187449,-0.13998488,0.07230736,-0.11720793,-0.06350908,-0.23875776,-0.09042725,-0.03520287,-0.03561398,-0.16124195,0.23639262,0.024295744,-0.33013946,0.20386724,-0.06192686,0.21087924,-0.25030535,0.2523055,-0.060152195,0.11520275,0.1349778,0.057468794,0.11427449,0.014019187,0.13661197,0.047578968,-0.15080354,-0.14411458,-0.13527568,-0.15100034,-0.1797204,0.14785635,-0.19361189,-0.12288246,0.23572056,-0.087784514,-0.04794901,0.0061949,0.11260359,-0.00754321,0.18998757,0.15934302,0.26467276,0.014033524,0.10786085,-0.021250274,0.07977282,-0.01666907,-0.14986269,0.19868389,0.07529741,-0.08179255,-0.11054529,-0.26820478,-0.015775613,0.11854088,-0.114296935,-0.23898038,-0.022144247,-0.13093783,-0.038716193,-0.025065005,0.1740554,-0.10915168,0.16497114,-0.29176846,-0.05328847,-0.15626256,-0.103446685,0.09581423,0.14516428,-0.11193857,-0.12663823,0.077206574,-0.23248518,0.03834559,0.08002348,0.11354504,0.13393997,-0.110023715,-0.06327435,-0.21349812,-0.04188294,0.27402446,0.08456826,-0.01676708,-0.099661194,-0.024885062,0.12529318,-0.15576355,0.06346236,0.03270034,0.028355837,-0.07571959,-0.16415787,0.01763782,0.023663688,0.020814836,0.08446659,-0.030629892,0.06384724,0.1118117,-0.21121684,0.07541995,0.20386598,0.09115088,-0.03053393,-0.03234323,0.16331646,0.023554657,0.07592165,0.11929636,0.18405303,0.118346356,0.07901008,0.054091007,-0.12879995,-0.061009128,0.017952891,0.076540545,0.05321874,0.078319415,0.14752838,0.05095669,-0.1692091,0.14603733,0.09409108,0.093051106,-0.099335626,0.01597425,-0.013857337,-0.00458724,0.05892081,-0.035368484,0.042086653,0.21262276,0.20701082,0.1457096,0.22655658,0.11250955,-0.19630116,-0.1383533,0.12735991,0.098505124,-0.029576028,-0.07241391,-0.038418215,-0.063317165
Edema,0.031800035,-0.012241755,-0.12780795,0.07113796,0.15742913,0.017298762,0.114522085,0.29027355,-0.07719101,-0.034639556,-0.043920357,-0.19308083,0.035331745,0.10896206,-0.032211337,-0.013439914,-0.014524154,0.15669447,0.040461175,-0.32776266,0.14026645,-0.04117462,0.094420604,0.12308528,0.02147069,0.009622758,0.007271813,-0.016226862,-0.13866405,-0.020055227,0.15100095,-0.017708119,0.14647807,-0.18364084,-0.019264512,-0.028240893,0.070722565,-0.015923627,-0.048969068,-0.1516812,-0.04615452,-0.04453646,-0.1258215,0.023335537,0.1262825,-0.08345214,-0.03312636,-0.09472715,0.08206329,0.0416973,0.057105303,-0.109308586,-0.018818554,-0.1293817,0.06651308,-0.10859577,-0.05851367,-0.21968842,-0.084256336,-0.03167145,-0.032587163,-0.14854302,0.21754315,0.022102669,-0.3034722,0.18917301,-0.05509106,0.19537532,-0.2321027,0.23419967,-0.056609146,0.10483023,0.12448381,0.050067168,0.104976274,0.011661937,0.124217585,0.046043955,-0.13909979,-0.13454743,-0.12531711,-0.13938478,-0.16585281,0.13645215,-0.17700705,-0.11260518,0.21895576,-0.081058055,-0.044461753,0.005080032,0.103771105,-0.008888597,0.17437997,0.14620551,0.24358085,0.012249309,0.100666344,-0.020029176,0.07467774,-0.014493602,-0.1398355,0.18274644,0.069353886,-0.07566105,-0.10398543,-0.24688649,-0.015189719,0.109777644,-0.10571176,-0.22181201,-0.021537911,-0.12038882,-0.03741593,-0.02152557,0.15971489,-0.09990325,0.15199493,-0.2703727,-0.04931798,-0.14165518,-0.09634601,0.08820783,0.13465634,-0.100319006,-0.11685493,0.07285993,-0.2127134,0.034438096,0.07382707,0.10511637,0.124334216,-0.10266753,-0.060094737,-0.19760767,-0.03792598,0.25228715,0.07907742,-0.015102218,-0.09102729,-0.02267019,0.11485417,-0.14303872,0.05802194,0.028510248,0.026248833,-0.07042672,-0.1529936,0.017082645,0.022003854,0.018783823,0.07664989,-0.027749756,0.057161547,0.10199823,-0.1947324,0.070272,0.18914223,0.081874065,-0.029209763,-0.030832972,0.15024483,0.021192523,0.07024511,0.11175475,0.16990848,0.10871796,0.07379747,0.049499013,-0.11748606,-0.05527841,0.018732194,0.06899099,0.047973193,0.07266267,0.13700059,0.046537694,-0.15672657,0.13320021,0.087659836,0.085196994,-0.09095137,0.013167447,-0.009947795,-0.005752653,0.05407507,-0.033808976,0.039647274,0.19774699,0.1893542,0.13465694,0.20908189,0.103148386,-0.1796322,-0.12866552,0.11483204,0.093518056,-0.02572507,-0.0681295,-0.03487936,-0.057311773
GenitalHerpes,0.03408605,-0.01198298,-0.1341939,0.07403108,0.16809523,0.01960513,0.12300495,0.3100643,-0.082131796,-0.035482626,-0.046993192,-0.20645069,0.037996847,0.11642687,-0.03662625,-0.015484275,-0.013748215,0.16694841,0.042569485,-0.35109726,0.15063126,-0.043679975,0.10265221,0.13052535,0.020504197,0.009206713,0.008317662,-0.018797273,-0.14738092,-0.022657452,0.1621969,-0.019495832,0.15666376,-0.1938677,-0.021412252,-0.031156208,0.07679852,-0.015696049,-0.050958745,-0.16377048,-0.04986956,-0.045793463,-0.13364257,0.026042277,0.13407393,-0.08713089,-0.037752993,-0.101097465,0.08897778,0.04480442,0.05885575,-0.11538685,-0.021207528,-0.1386237,0.0712874,-0.115282394,-0.061967235,-0.23449758,-0.089834966,-0.034662362,-0.035331126,-0.15792789,0.23244195,0.02383336,-0.3249631,0.20141439,-0.059467558,0.20678388,-0.24704567,0.24906744,-0.05808684,0.11252648,0.13309054,0.054951873,0.11247317,0.011774151,0.13636293,0.047813706,-0.14966528,-0.14230861,-0.1333885,-0.14834036,-0.17814311,0.14674546,-0.1900408,-0.1212392,0.23290198,-0.08622511,-0.04838392,0.005530625,0.11159902,-0.00819466,0.18712404,0.15646449,0.2600482,0.013620489,0.10616289,-0.021003127,0.079117194,-0.014650593,-0.1481366,0.19792442,0.07340402,-0.07980137,-0.10821782,-0.26329666,-0.014487065,0.11593375,-0.11290388,-0.23437068,-0.021981347,-0.12906514,-0.038249828,-0.024395304,0.17101891,-0.107118964,0.16313933,-0.28616884,-0.054057144,-0.1531329,-0.101795755,0.09494853,0.1428188,-0.10916662,-0.12491917,0.076470375,-0.22823285,0.0363423,0.07889289,0.11215878,0.13200156,-0.108597934,-0.06233429,-0.20998992,-0.041003052,0.26934308,0.082693934,-0.01594577,-0.09725217,-0.024523828,0.12382945,-0.15379103,0.06179255,0.0324829,0.026805656,-0.073643886,-0.16297987,0.015971947,0.023717556,0.019955188,0.081464805,-0.031395473,0.061331935,0.1092535,-0.20629576,0.07539593,0.20238818,0.0892226,-0.030431587,-0.03021115,0.16067019,0.02190126,0.07415021,0.11729564,0.18269506,0.11657659,0.07772397,0.053826537,-0.1263474,-0.060515054,0.017848363,0.073318526,0.052923102,0.07705806,0.14412992,0.049528085,-0.1661369,0.14309815,0.09233521,0.08969617,-0.09957453,0.015198698,-0.012607759,-0.004600867,0.05801722,-0.03509518,0.04269031,0.21018657,0.20422995,0.1417946,0.22285795,0.11093856,-0.19293988,-0.13620165,0.12364433,0.09786644,-0.02810363,-0.07127412,-0.03779272,-0.061163757
LeishmaniasisVisceral,0.035966095,-0.012458679,-0.13914192,0.07890304,0.17359081,0.019494811,0.12952709,0.32206887,-0.08544914,-0.038031302,-0.04739744,-0.21396808,0.03877874,0.12152055,-0.038905624,-0.016119545,-0.014445447,0.1739403,0.044310182,-0.36521554,0.1573541,-0.044949785,0.10699664,0.13660999,0.02230733,0.009862843,0.008170042,-0.019999811,-0.15370898,-0.024846077,0.16790754,-0.019146904,0.16416131,-0.20220354,-0.021886492,-0.031782698,0.080304004,-0.017146373,-0.053610258,-0.17015715,-0.051235665,-0.04881593,-0.13866474,0.026346777,0.13997927,-0.091125324,-0.040178034,-0.10450872,0.092523515,0.046274785,0.061332308,-0.12000664,-0.022598887,-0.14318542,0.07374802,-0.12043328,-0.06433947,-0.2447825,-0.09382678,-0.035757456,-0.03585046,-0.16396129,0.24194854,0.023915792,-0.33764657,0.20907862,-0.063046135,0.21552898,-0.2566299,0.2580074,-0.061196577,0.11812293,0.13792853,0.057105448,0.11861084,0.012589105,0.14015792,0.050356757,-0.15531912,-0.14897048,-0.13825405,-0.15449475,-0.18445668,0.15241121,-0.19800489,-0.1257507,0.24393292,-0.090228,-0.051431775,0.006222097,0.11579601,-0.008281969,0.19375925,0.16323133,0.2714211,0.013910094,0.10944163,-0.022867728,0.08073461,-0.014914626,-0.15338793,0.20386694,0.07796365,-0.08238849,-0.113308385,-0.27333927,-0.015716491,0.12060221,-0.117876045,-0.24417645,-0.023736015,-0.13477992,-0.039757702,-0.0246587,0.17759028,-0.11109864,0.1692752,-0.29733455,-0.05572505,-0.15982883,-0.105586074,0.09916594,0.14875099,-0.11474705,-0.12967998,0.079961225,-0.23769458,0.03922064,0.08134954,0.1175748,0.13759802,-0.11343492,-0.06422032,-0.21942808,-0.042476535,0.28010836,0.086668216,-0.016663367,-0.10067471,-0.02469496,0.12951232,-0.16023391,0.06336031,0.033624083,0.028250298,-0.07629053,-0.16936374,0.01733835,0.025141206,0.02020355,0.0849637,-0.032903578,0.06503803,0.113808796,-0.21538548,0.07902697,0.20961846,0.09289051,-0.031776823,-0.031113705,0.1670258,0.02344685,0.07577706,0.1225677,0.1892929,0.122126505,0.080916174,0.05572821,-0.13109419,-0.061833452,0.018466521,0.07631059,0.05538253,0.07998877,0.14971197,0.051262155,-0.17241122,0.14779183,0.09724034,0.093204156,-0.103603266,0.015372722,-0.013745341,-0.004836118,0.060027715,-0.036071196,0.043482687,0.21798946,0.21228434,0.1481769,0.23273742,0.11426807,-0.20111355,-0.14191851,0.12718683,0.10140306,-0.029710943,-0.07433572,-0.0391452,-0.0642889
RaynaudDisease,0.0350905,-0.01275197,-0.13709372,0.075176954,0.16981646,0.019697187,0.12619972,0.31447425,-0.082887255,-0.03674655,-0.04695646,-0.20875472,0.038130324,0.119359665,-0.03878258,-0.015006631,-0.014351974,0.17030562,0.043071322,-0.3569721,0.15397581,-0.04462314,0.10444681,0.13436733,0.021220174,0.009031136,0.009844462,-0.019953383,-0.15006018,-0.023499055,0.16497865,-0.018427486,0.16039926,-0.19829145,-0.021036929,-0.031188166,0.07815932,-0.016906556,-0.05233058,-0.16619654,-0.049925268,-0.04774366,-0.13473281,0.025499238,0.13857411,-0.088769786,-0.038433585,-0.10271494,0.090848304,0.044972233,0.05985243,-0.11677261,-0.021046285,-0.14020327,0.07231376,-0.11862911,-0.06307211,-0.23859474,-0.091886446,-0.035050374,-0.03443706,-0.16100174,0.23616551,0.02409783,-0.33031204,0.20409271,-0.060729813,0.21058117,-0.2511704,0.25400057,-0.0601766,0.114534065,0.13532157,0.055933397,0.11525357,0.012285396,0.13740137,0.0493263,-0.15133624,-0.14473735,-0.13449533,-0.15177917,-0.18136719,0.14854693,-0.19233154,-0.12351721,0.2381253,-0.08740766,-0.05027687,0.006100318,0.11239779,-0.008299833,0.18954457,0.15837052,0.26376444,0.012995873,0.10750023,-0.022295535,0.080124475,-0.014233308,-0.15022512,0.19905336,0.07532091,-0.0818658,-0.110907204,-0.26718658,-0.015201689,0.11805142,-0.115713075,-0.23844916,-0.023598375,-0.13089576,-0.039485987,-0.024070883,0.17223619,-0.10957001,0.16467361,-0.2903423,-0.054910026,-0.15601216,-0.10365171,0.09692874,0.14450178,-0.111328825,-0.12662512,0.07752176,-0.23112446,0.03728824,0.079277754,0.11443531,0.1340353,-0.11039802,-0.06450882,-0.2148153,-0.040787496,0.27399442,0.08415485,-0.016453331,-0.09775797,-0.025019266,0.1256965,-0.15670782,0.062186107,0.032551277,0.028043544,-0.07557658,-0.16623738,0.017625343,0.024895508,0.019093897,0.08334599,-0.03174944,0.06307058,0.1112044,-0.21010223,0.07688081,0.20447311,0.089564644,-0.03162954,-0.03150056,0.16321686,0.02265514,0.07523563,0.119139105,0.18520528,0.118704304,0.078307696,0.054408267,-0.12865373,-0.06211565,0.018733677,0.07461607,0.05354182,0.07833524,0.14603406,0.050757583,-0.16860224,0.14499493,0.094441965,0.0915088,-0.10079435,0.014898186,-0.013548296,-0.005022216,0.057995748,-0.035553332,0.043220777,0.21400914,0.20769669,0.1454994,0.2266498,0.11293922,-0.19570652,-0.13879591,0.124867745,0.09995375,-0.02880689,-0.072695784,-0.037596356,-0.062872104
Pneumonia,0.03439258,-0.012410248,-0.1364225,0.076703325,0.17032772,0.019514196,0.12622595,0.3137849,-0.08291037,-0.03545375,-0.047298506,-0.20982678,0.03849817,0.11867658,-0.038354144,-0.013996482,-0.015652804,0.16913322,0.042403243,-0.35632357,0.15455827,-0.04308249,0.10484305,0.13364476,0.02209603,0.010177087,0.009359888,-0.020393822,-0.14981356,-0.024374414,0.165572,-0.019744791,0.16080101,-0.19792394,-0.020246929,-0.030105978,0.07903217,-0.016528206,-0.053123653,-0.16671298,-0.050903063,-0.046982557,-0.1361004,0.025624504,0.13722092,-0.08911627,-0.039393727,-0.101531416,0.090476885,0.04586208,0.05933408,-0.11688455,-0.02142699,-0.1393259,0.07280816,-0.11641887,-0.06312324,-0.23908885,-0.091510266,-0.034402624,-0.03456904,-0.1607229,0.23589867,0.024177758,-0.32932755,0.20379004,-0.06256428,0.21112195,-0.25026524,0.25390828,-0.060694788,0.114895254,0.13503903,0.05570616,0.11393465,0.011051506,0.13643733,0.047418233,-0.15120843,-0.14568041,-0.13578966,-0.15145104,-0.18076614,0.14783293,-0.19386692,-0.12255499,0.23677045,-0.089097135,-0.050252657,0.005206814,0.11243042,-0.007923117,0.18933883,0.1588456,0.26383913,0.013450814,0.10503767,-0.022329839,0.07925907,-0.014462094,-0.15117288,0.19800872,0.074261025,-0.082896575,-0.10914888,-0.26799768,-0.015800836,0.118640594,-0.11516285,-0.23883322,-0.023299538,-0.13245183,-0.0384114,-0.023522362,0.17389317,-0.10859809,0.16573307,-0.2912818,-0.052634206,-0.15732001,-0.10251564,0.09542367,0.14390689,-0.11198984,-0.12540172,0.0771981,-0.23201166,0.037558056,0.08056358,0.11262635,0.13454373,-0.10892988,-0.0641925,-0.21356587,-0.040386338,0.2731678,0.084416635,-0.01570184,-0.097400464,-0.02380076,0.12643427,-0.15622103,0.062648274,0.032043144,0.02732568,-0.075720556,-0.16601324,0.018722787,0.023872243,0.020380322,0.08487007,-0.030151626,0.06348447,0.112779945,-0.20858516,0.0757467,0.20612781,0.09009907,-0.029837085,-0.031002985,0.16142061,0.022416573,0.0754051,0.12004609,0.18420537,0.11821648,0.079076625,0.05302031,-0.12687814,-0.061448567,0.019184584,0.07428404,0.053351693,0.078692764,0.14650422,0.049049854,-0.16711386,0.14501674,0.094869114,0.092904955,-0.101205,0.016055651,-0.012274238,-0.004235857,0.05937538,-0.034248583,0.04276633,0.21395354,0.20753402,0.14580576,0.22692278,0.11374435,-0.19481027,-0.13781701,0.12667233,0.10091838,-0.029069569,-0.07292951,-0.037912063,-0.062115476
Angioedema,0.033176772,-0.011585397,-0.13424398,0.07562302,0.16680422,0.020041252,0.12328503,0.30786005,-0.08138241,-0.03502441,-0.046024222,-0.20593496,0.03790796,0.11603427,-0.0362673,-0.014773962,-0.016069153,0.1669207,0.041611407,-0.34937003,0.15055415,-0.04328812,0.101873316,0.13056782,0.021981435,0.009829053,0.009704417,-0.019360315,-0.14707656,-0.022975687,0.16090539,-0.0196365,0.15782075,-0.19399463,-0.020360688,-0.029371012,0.077198856,-0.015008891,-0.05149846,-0.16248837,-0.0500759,-0.046110578,-0.13335209,0.024853429,0.13473575,-0.088351555,-0.036710363,-0.099762104,0.08890949,0.0445084,0.05903671,-0.11466956,-0.02112705,-0.13778366,0.071568236,-0.1152698,-0.061865617,-0.23361543,-0.08972538,-0.03448867,-0.0349069,-0.15758726,0.23168012,0.02333761,-0.32334405,0.19949771,-0.059203528,0.2082721,-0.24701066,0.24925227,-0.05848553,0.1123891,0.1327858,0.054967023,0.111276306,0.012528506,0.1341945,0.04745024,-0.14786558,-0.14214447,-0.13279788,-0.149404,-0.17638409,0.14457712,-0.18843089,-0.12057159,0.23212047,-0.08705623,-0.04786989,0.006642383,0.109214246,-0.008005498,0.18624243,0.15560946,0.2597577,0.014359226,0.10503632,-0.020931138,0.07853518,-0.01472835,-0.14807948,0.1950145,0.072816566,-0.08093296,-0.108547255,-0.2628436,-0.015070105,0.116341904,-0.113009796,-0.2347194,-0.02215992,-0.1287896,-0.039232187,-0.023560472,0.17062314,-0.1062032,0.16288576,-0.28579003,-0.052010704,-0.15185072,-0.1007874,0.09477061,0.14308329,-0.10868188,-0.12343214,0.07677208,-0.22741611,0.036310375,0.07834941,0.11135894,0.13236257,-0.10827941,-0.06223371,-0.20974259,-0.04055995,0.26885194,0.082684465,-0.015270276,-0.0966707,-0.02340109,0.12320383,-0.15265584,0.061487395,0.031605147,0.02768113,-0.07368942,-0.16121228,0.01687811,0.023096336,0.020009205,0.0822538,-0.029464003,0.061509658,0.109543696,-0.2053885,0.07395271,0.20031135,0.088268936,-0.030202413,-0.031908356,0.15895163,0.022976005,0.07374296,0.11783998,0.18100083,0.116136946,0.07705421,0.051666938,-0.1252839,-0.059661765,0.018448897,0.073069945,0.052147813,0.07659753,0.14434671,0.048856176,-0.16588373,0.14273782,0.0925992,0.09062815,-0.097907335,0.014468426,-0.012228419,-0.004740325,0.058095425,-0.034549423,0.04233415,0.20909467,0.2022892,0.14183892,0.22107339,0.10988419,-0.19097212,-0.13671651,0.12352387,0.09792604,-0.02822701,-0.071049854,-0.0371465,-0.061489414
OpticAtrophyHereditaryLeber,0.03334162,-0.011021174,-0.13077027,0.07258865,0.16424829,0.018352255,0.12189656,0.303927,-0.07962418,-0.036451567,-0.044655908,-0.20261224,0.037874922,0.11262647,-0.036424503,-0.014549783,-0.013721787,0.16312383,0.041295744,-0.34486336,0.14716686,-0.0423909,0.100304596,0.12788892,0.019347142,0.009293333,0.007893261,-0.018879889,-0.14460449,-0.022692228,0.15819456,-0.018819075,0.1552698,-0.18943079,-0.020844562,-0.030238627,0.07570445,-0.01541925,-0.049747895,-0.15972522,-0.04886714,-0.04472734,-0.13112873,0.024878688,0.13190107,-0.087550916,-0.03542446,-0.09899415,0.08695004,0.044381116,0.05841701,-0.11296519,-0.020945324,-0.13591415,0.0702874,-0.11297568,-0.060280565,-0.2290757,-0.08741447,-0.033104815,-0.03461392,-0.15552707,0.22836585,0.023254514,-0.31898007,0.19705875,-0.0591119,0.20227218,-0.24224216,0.24388552,-0.057701834,0.11032513,0.13144112,0.05434648,0.11058236,0.01250289,0.13253868,0.045682523,-0.14719917,-0.13972679,-0.13008282,-0.1447917,-0.17437826,0.14497834,-0.18642616,-0.11817159,0.22892514,-0.08448057,-0.047320414,0.00665312,0.109626226,-0.007857255,0.18351606,0.15395479,0.25602418,0.012816661,0.104401305,-0.020100968,0.07747582,-0.015818592,-0.14480558,0.19389659,0.071718626,-0.07811654,-0.10637879,-0.2586833,-0.016121168,0.11405888,-0.1105652,-0.22903761,-0.02235998,-0.1262266,-0.038262364,-0.02308203,0.16727497,-0.10505593,0.15940113,-0.2808493,-0.05240734,-0.14994586,-0.10022138,0.09348904,0.14018632,-0.107468896,-0.12144931,0.0743788,-0.22530858,0.03667055,0.07716709,0.10948468,0.12987886,-0.10692362,-0.060096398,-0.20601933,-0.040286418,0.26432484,0.08114351,-0.015935717,-0.09571799,-0.02408274,0.119757675,-0.15114611,0.06065811,0.03182296,0.025776546,-0.071985275,-0.1597616,0.016202692,0.022622764,0.019227084,0.08057094,-0.0310784,0.0599701,0.10744071,-0.20264645,0.072965845,0.19773865,0.087084696,-0.03055595,-0.029819185,0.15774654,0.022333447,0.07279864,0.115707055,0.17890117,0.11433013,0.077400915,0.05249415,-0.124527484,-0.05816507,0.01707441,0.07245403,0.051013518,0.07465932,0.14254281,0.04840118,-0.16395406,0.14012468,0.0916028,0.08810809,-0.09705766,0.014580562,-0.013212916,-0.003832052,0.05683882,-0.03391158,0.04149754,0.20528626,0.20048998,0.14037733,0.21871997,0.10834215,-0.18893492,-0.13454184,0.12027973,0.09502371,-0.028103348,-0.06895664,-0.037774574,-0.060003832
Gout,0.027921965,-0.008912482,-0.11371915,0.06395796,0.14390752,0.018228889,0.10660224,0.26564923,-0.06826876,-0.029857405,-0.041828275,-0.17850776,0.033138018,0.10033172,-0.031310298,-0.012867877,-0.01325407,0.14313081,0.036681056,-0.30117625,0.1292907,-0.035822652,0.08927784,0.11500324,0.017377906,0.008065156,0.005349463,-0.017040871,-0.12518252,-0.019370038,0.13967097,-0.0170567,0.13618708,-0.16548693,-0.019144408,-0.027488112,0.066015296,-0.013018135,-0.04315767,-0.14172983,-0.04382816,-0.035991587,-0.11482822,0.01910426,0.11350973,-0.07620305,-0.0325213,-0.08739168,0.07597102,0.03968611,0.049589712,-0.09873433,-0.017701974,-0.1209037,0.06329922,-0.09878309,-0.05262025,-0.20068613,-0.07486069,-0.029133487,-0.032361582,-0.13732493,0.20034476,0.020205982,-0.28184366,0.17002052,-0.05229251,0.17714396,-0.21274,0.21596228,-0.05082377,0.09453208,0.11489609,0.047805104,0.095305644,0.007654277,0.11582801,0.039132558,-0.13257071,-0.1213784,-0.115430795,-0.1287179,-0.15275604,0.1289321,-0.16441523,-0.10434869,0.20173278,-0.07475971,-0.042652536,0.004286321,0.09376977,-0.006977926,0.16038726,0.13302095,0.22440487,0.011467669,0.09079209,-0.01736136,0.06956333,-0.010974892,-0.12873578,0.16869047,0.060036443,-0.068360776,-0.0927944,-0.22755735,-0.014786635,0.09910531,-0.09850578,-0.2011474,-0.01912489,-0.11007582,-0.034034103,-0.019277787,0.1480889,-0.089834906,0.1416576,-0.2473651,-0.045745753,-0.13479078,-0.08793622,0.08238925,0.12116814,-0.09278805,-0.10298385,0.06713151,-0.19784716,0.032126814,0.0687106,0.0962372,0.11517829,-0.09055642,-0.052589286,-0.17953904,-0.035054646,0.22912124,0.07026951,-0.013119432,-0.08145073,-0.021156102,0.10475486,-0.13239212,0.054942176,0.027209159,0.021666292,-0.06404233,-0.14232178,0.01641846,0.020904602,0.018000526,0.06938882,-0.024373082,0.050652757,0.0975797,-0.17626673,0.06272746,0.17328449,0.07550471,-0.025878906,-0.025738787,0.13903183,0.018976552,0.06592152,0.10398592,0.1569507,0.09877929,0.06771542,0.043461375,-0.108642325,-0.049963456,0.016250197,0.06394738,0.04205134,0.062804356,0.12434301,0.042267285,-0.14268388,0.12383219,0.080854446,0.07817003,-0.084131315,0.01159407,-0.011673545,-0.002614156,0.049070753,-0.028496973,0.034535352,0.18330327,0.17644627,0.12287894,0.19253398,0.09738341,-0.16396819,-0.114800036,0.106788665,0.08347179,-0.024506807,-0.06173425,-0.033683013,-0.04980921
PolycysticKidneyAutosomalDominant,0.034118354,-0.012280843,-0.13424337,0.07521661,0.1683365,0.018597174,0.12546642,0.31131998,-0.08110058,-0.037174255,-0.046008557,-0.20781873,0.037816226,0.11680324,-0.037541885,-0.014413474,-0.015039716,0.16770728,0.04232093,-0.35266727,0.1520748,-0.042376626,0.102855206,0.13242663,0.020964116,0.010007374,0.008290509,-0.020027198,-0.14766382,-0.024376927,0.16272835,-0.018825289,0.15919343,-0.19446392,-0.02117025,-0.03082412,0.077803865,-0.016464183,-0.051168177,-0.16447604,-0.04972497,-0.046389498,-0.1335877,0.02460848,0.13554859,-0.089146756,-0.037666555,-0.10138278,0.08986999,0.04526338,0.059682272,-0.11604202,-0.020940872,-0.13887772,0.0727545,-0.11526788,-0.06147822,-0.23498468,-0.089041926,-0.03398945,-0.03538614,-0.158778,0.23422009,0.02370921,-0.3265581,0.20217243,-0.061295226,0.20807715,-0.24849956,0.25077984,-0.059661355,0.11256554,0.13439605,0.055295777,0.11346897,0.011297682,0.13518511,0.04728345,-0.15087084,-0.14342256,-0.13412985,-0.1489396,-0.17862469,0.14763863,-0.19011775,-0.120797984,0.23527393,-0.08723027,-0.049707852,0.006202507,0.11163583,-0.008544154,0.18785867,0.15771013,0.26224664,0.013286581,0.10620701,-0.021299073,0.07876432,-0.014443579,-0.14839628,0.19728665,0.07368167,-0.08027756,-0.11005872,-0.26462963,-0.016379083,0.11668673,-0.114048585,-0.23531388,-0.023543265,-0.12937891,-0.038739316,-0.023066372,0.17097771,-0.106801905,0.16427352,-0.28728244,-0.052785967,-0.15498707,-0.10204801,0.09602444,0.14198028,-0.1110472,-0.12365016,0.077216916,-0.23104876,0.03716953,0.07903316,0.11267532,0.13337941,-0.10863541,-0.06177888,-0.21137176,-0.0411813,0.27035534,0.08258893,-0.015793659,-0.09713625,-0.024700647,0.12419197,-0.15430872,0.061866485,0.032271333,0.026628718,-0.07481918,-0.16458991,0.016823845,0.024395972,0.019678406,0.08210701,-0.030462088,0.061278716,0.111017175,-0.20670737,0.07524792,0.20257357,0.08851537,-0.030601263,-0.03036141,0.16083917,0.022680681,0.07411234,0.11943724,0.18308228,0.11765466,0.078514256,0.052154936,-0.12652555,-0.0600729,0.0175343,0.07377188,0.052264486,0.075926565,0.14567044,0.049322844,-0.16599885,0.14335962,0.09438636,0.09089437,-0.09950716,0.014572364,-0.01283442,-0.003294335,0.057951495,-0.034313124,0.04243105,0.21117061,0.20517841,0.14415745,0.22409107,0.11180567,-0.19294973,-0.13695757,0.12255586,0.09774694,-0.029139996,-0.07011976,-0.03751471,-0.060219783
melanoma,0.035494894,-0.012585174,-0.14387207,0.08139174,0.1803052,0.020479247,0.13224241,0.3309159,-0.08871409,-0.038453143,-0.05154357,-0.22125037,0.041026928,0.12524968,-0.037991427,-0.015421025,-0.017492013,0.1792031,0.0468281,-0.374284,0.16224703,-0.04615701,0.10901215,0.14134091,0.023515273,0.01167519,0.008009991,-0.019731157,-0.15718383,-0.025499348,0.17404619,-0.020041468,0.16727918,-0.20838423,-0.020860944,-0.03179542,0.08302475,-0.016373893,-0.055696815,-0.17423072,-0.05249219,-0.050803285,-0.1439684,0.028089162,0.143816,-0.094732605,-0.039916728,-0.1074172,0.09528608,0.04574417,0.064391166,-0.12394069,-0.022231095,-0.14732179,0.076834574,-0.12209247,-0.06794408,-0.2519744,-0.09515039,-0.037870824,-0.03742144,-0.16869633,0.24960808,0.026322063,-0.34671694,0.21503714,-0.06370473,0.22312081,-0.26458395,0.26792708,-0.064521454,0.12081881,0.1422578,0.05889356,0.11969675,0.013658602,0.14189857,0.05142289,-0.15892157,-0.15310813,-0.1440648,-0.15972134,-0.1886195,0.1551094,-0.20289,-0.1290313,0.25000954,-0.092601344,-0.052261554,0.005315641,0.11940345,-0.009347421,0.19944055,0.16763487,0.27863696,0.013558749,0.11288085,-0.02211843,0.08403758,-0.015027774,-0.15896064,0.20907073,0.07889222,-0.08727974,-0.118402176,-0.28127712,-0.016297685,0.12428258,-0.12106498,-0.25182962,-0.025167039,-0.13803379,-0.04104993,-0.026178697,0.18318687,-0.11437356,0.17453077,-0.30822188,-0.05549223,-0.16461897,-0.10804175,0.10191537,0.1520863,-0.11705139,-0.13433687,0.08224865,-0.24407709,0.038233932,0.085207224,0.11997673,0.14269695,-0.116335854,-0.0679643,-0.2253063,-0.044114947,0.2881845,0.08931496,-0.016048236,-0.10371897,-0.025801947,0.1341775,-0.163221,0.066529796,0.032982163,0.028776083,-0.08030962,-0.1749533,0.018973053,0.025754819,0.021682326,0.087962,-0.032559577,0.06670452,0.118499614,-0.22107409,0.08073806,0.2167895,0.094799295,-0.031973545,-0.03425642,0.17122515,0.02382425,0.07986569,0.12578532,0.19451205,0.12518533,0.08291194,0.055228,-0.13481922,-0.06477713,0.019484758,0.07969317,0.055988874,0.081445605,0.15482312,0.05304975,-0.17626175,0.15331909,0.099466935,0.097539574,-0.10502491,0.015166822,-0.012882482,-0.004440989,0.062086854,-0.03803873,0.04363628,0.22611503,0.21652699,0.15343228,0.23904413,0.11900683,-0.20678937,-0.14573982,0.13210095,0.10507272,-0.030474152,-0.07601583,-0.038558513,-0.06487439
Supraventriculartachycardia,0.034828972,-0.012925637,-0.13558818,0.075013734,0.16812463,0.01912297,0.12535176,0.31339553,-0.08191337,-0.036597967,-0.04650276,-0.20805116,0.038269717,0.11730952,-0.038398117,-0.015215598,-0.01474957,0.16800073,0.04320382,-0.3551342,0.153151,-0.044419356,0.10405807,0.13383664,0.019978743,0.009242045,0.008641781,-0.019224444,-0.14908266,-0.023122024,0.16392677,-0.018890467,0.16120176,-0.19628559,-0.019993654,-0.031344045,0.07794173,-0.015604519,-0.052059658,-0.16457725,-0.050088767,-0.046947412,-0.13595235,0.026693765,0.13558674,-0.090910316,-0.037519008,-0.10186026,0.09029794,0.045561165,0.059723098,-0.1165743,-0.020585751,-0.13956183,0.07270472,-0.11621116,-0.06300758,-0.2368816,-0.090255775,-0.03368499,-0.035174925,-0.15999646,0.23505783,0.02333179,-0.32940054,0.202721,-0.060663998,0.20892791,-0.24898301,0.2516708,-0.059381656,0.11375652,0.13418813,0.056032818,0.1149277,0.01301646,0.13635097,0.048095543,-0.15149924,-0.14457977,-0.13491967,-0.14905833,-0.17937183,0.14883949,-0.19359493,-0.1218126,0.23633817,-0.086866215,-0.04992881,0.006463592,0.113107204,-0.008721347,0.18892607,0.15849862,0.2628915,0.012246432,0.10744897,-0.021903515,0.079366155,-0.015051022,-0.14917925,0.19928135,0.07458211,-0.08082344,-0.110503845,-0.2659537,-0.016452406,0.11732079,-0.11547142,-0.23679397,-0.023084676,-0.13008335,-0.039236236,-0.023846159,0.17206155,-0.10936092,0.16395974,-0.2897062,-0.0544386,-0.15544713,-0.10380141,0.09495036,0.14404266,-0.11080038,-0.12519349,0.0771244,-0.23194253,0.036765307,0.08034621,0.114112064,0.13367476,-0.11057071,-0.06259214,-0.21341248,-0.04049832,0.27168342,0.08328628,-0.015827268,-0.096768424,-0.026186628,0.12367698,-0.15634121,0.06233365,0.033090334,0.026166627,-0.07547724,-0.164314,0.017645216,0.023477226,0.019758342,0.08327936,-0.031726718,0.06237683,0.112078324,-0.20955911,0.07517491,0.20473227,0.08905437,-0.03156401,-0.031279404,0.16259181,0.02281472,0.074775174,0.11922821,0.18380573,0.118725374,0.07993024,0.05412436,-0.12872328,-0.060126852,0.01777364,0.07557779,0.05321559,0.07757068,0.14605744,0.050384764,-0.16894077,0.14538623,0.09496319,0.091491684,-0.099651456,0.014634172,-0.012709201,-0.00518068,0.058415405,-0.034974344,0.04182773,0.2116087,0.20651162,0.14541435,0.2267597,0.112112,-0.19526255,-0.13818897,0.12438432,0.098442145,-0.029818108,-0.072105154,-0.038920164,-0.06170461
Onchocerciasis,0.03424925,-0.011600466,-0.13192531,0.07521876,0.16541621,0.018782461,0.12308483,0.30614606,-0.08032833,-0.035728224,-0.04449543,-0.20454869,0.038309503,0.11586573,-0.037081063,-0.015299282,-0.015152566,0.16533318,0.040554278,-0.3483959,0.14972945,-0.04216859,0.10166187,0.13062115,0.020219812,0.009664364,0.008952795,-0.0199775,-0.14723115,-0.023890013,0.16083166,-0.01978096,0.15722203,-0.19163027,-0.020665778,-0.029487895,0.07648367,-0.015012899,-0.051127423,-0.16229102,-0.04911799,-0.046275165,-0.13331883,0.025785109,0.13297415,-0.08793726,-0.037915256,-0.0997888,0.088226736,0.044479005,0.058577146,-0.115141705,-0.021157926,-0.13587597,0.0700048,-0.11360214,-0.061020132,-0.23336601,-0.09006874,-0.034611378,-0.034055173,-0.15612772,0.23070507,0.022280496,-0.32250956,0.19954507,-0.06008569,0.2042941,-0.24384657,0.24531063,-0.058233406,0.11236017,0.13085242,0.05457878,0.11261971,0.01316862,0.13354139,0.04734668,-0.14837003,-0.14177239,-0.13165726,-0.14691713,-0.176168,0.1448711,-0.18945067,-0.11875512,0.23164149,-0.08631123,-0.0492281,0.007353132,0.10903915,-0.007369877,0.1848047,0.15585074,0.25894502,0.013506577,0.104399554,-0.022147449,0.07639993,-0.015329429,-0.14601679,0.19453095,0.07439138,-0.07722676,-0.10812008,-0.2601666,-0.01575907,0.1143357,-0.11166888,-0.23165892,-0.021948693,-0.12803307,-0.03664082,-0.023394078,0.16797908,-0.105912276,0.16142854,-0.28371337,-0.052716363,-0.1520149,-0.100876495,0.09357451,0.14111882,-0.109650716,-0.1223406,0.07624357,-0.22688104,0.037656993,0.07833493,0.11169587,0.13151169,-0.10734324,-0.060507856,-0.20853062,-0.040312972,0.26590487,0.08145219,-0.016699633,-0.095298015,-0.024436573,0.1226946,-0.15300621,0.061052978,0.031225903,0.026003126,-0.073545806,-0.16105857,0.01697526,0.022912132,0.01946758,0.08240757,-0.029829558,0.061557703,0.10871064,-0.2053846,0.07391665,0.198985,0.087942086,-0.031252664,-0.030351328,0.15892513,0.023576137,0.071766384,0.117215164,0.18046522,0.11545137,0.07775372,0.053153995,-0.12518367,-0.059208155,0.018430026,0.07333956,0.052172028,0.075952716,0.14300093,0.048510063,-0.16410486,0.14109935,0.09385586,0.090117104,-0.09880147,0.013942979,-0.012700825,-0.004462526,0.05680895,-0.034784626,0.041995227,0.20679128,0.20222378,0.14193745,0.22201358,0.108783185,-0.19079323,-0.13500755,0.1214442,0.09598571,-0.029710572,-0.06976233,-0.03748146,-0.060783368
Cryptorchidism,0.033913527,-0.012466407,-0.13284786,0.075035416,0.16580324,0.017612485,0.12455417,0.3093454,-0.081063434,-0.037310343,-0.045108445,-0.20584787,0.03842432,0.11542149,-0.03687004,-0.015069043,-0.01499818,0.16523466,0.04255956,-0.35131583,0.15116177,-0.04264569,0.10316062,0.13093412,0.020563724,0.009881819,0.007701614,-0.018926108,-0.14704797,-0.023370823,0.16182144,-0.018520636,0.15917647,-0.19233857,-0.020335738,-0.030245211,0.077096485,-0.016398007,-0.051393695,-0.16271849,-0.04986317,-0.046158127,-0.1340392,0.024208976,0.13311248,-0.09027475,-0.036849987,-0.10043525,0.088513546,0.045461264,0.059274398,-0.11532975,-0.021561816,-0.13659747,0.0727421,-0.11387398,-0.0609497,-0.23388784,-0.089564346,-0.033371422,-0.036276676,-0.15810035,0.23239337,0.022743393,-0.3255116,0.20081432,-0.061312985,0.20579945,-0.24701032,0.24839231,-0.059197713,0.1127191,0.13328941,0.054804865,0.112756625,0.011866397,0.13428068,0.046941686,-0.15027454,-0.14194483,-0.13262197,-0.14633895,-0.17697565,0.1486124,-0.18996255,-0.11970233,0.2335261,-0.08583038,-0.04854781,0.007487957,0.11140694,-0.008727628,0.18613061,0.15601812,0.26035696,0.013255755,0.10634116,-0.02213278,0.07866179,-0.01575767,-0.14689693,0.19636247,0.07372155,-0.07886493,-0.1084728,-0.26360077,-0.01689471,0.11564585,-0.112830125,-0.23418447,-0.022531822,-0.12878601,-0.038508613,-0.02223329,0.1699992,-0.106201544,0.16362871,-0.28624085,-0.05328006,-0.15393753,-0.1019954,0.0949231,0.1417217,-0.11135062,-0.122386314,0.0763218,-0.23013365,0.03783747,0.07843338,0.11255793,0.13330138,-0.10832977,-0.061867107,-0.2109917,-0.04133395,0.26803842,0.08224118,-0.014980173,-0.09612955,-0.025590912,0.12188851,-0.15404172,0.06146592,0.031541206,0.025921123,-0.07455311,-0.1625844,0.017049726,0.023678603,0.02053794,0.08242459,-0.030571684,0.061627634,0.11005876,-0.20673087,0.074829005,0.2008956,0.08861635,-0.0314801,-0.029710552,0.15999915,0.022814706,0.07341682,0.118485264,0.1814184,0.116865255,0.078533396,0.051740322,-0.12615667,-0.0583105,0.017880991,0.074007496,0.051439,0.07596789,0.14499077,0.048196085,-0.16642213,0.14238681,0.094136104,0.08945402,-0.09814291,0.014785961,-0.013066774,-0.004519977,0.05840836,-0.034590833,0.04093666,0.20894268,0.20445374,0.14417903,0.2234969,0.10968293,-0.19196431,-0.13682945,0.121484205,0.09645233,-0.029560832,-0.07045116,-0.038341373,-0.06047631
Osteomalacia,0.033795614,-0.01175315,-0.13470697,0.07546509,0.16907431,0.019351957,0.124721885,0.3109591,-0.08216778,-0.036388356,-0.04719117,-0.20716642,0.037776336,0.11782528,-0.03722993,-0.015685655,-0.015564278,0.16900162,0.042935725,-0.35249782,0.15138374,-0.04352361,0.10323567,0.13317157,0.02116136,0.010403655,0.00774313,-0.018236963,-0.14886372,-0.023265893,0.16330896,-0.019167911,0.15823145,-0.19536406,-0.020435886,-0.030727943,0.07669679,-0.015691798,-0.051164553,-0.16427757,-0.049347952,-0.046771556,-0.13543029,0.025882483,0.13516296,-0.08941423,-0.037163578,-0.10129031,0.089582026,0.043544814,0.060663193,-0.116647385,-0.020595321,-0.13882548,0.071576476,-0.11570283,-0.06356221,-0.23650287,-0.089464456,-0.035652112,-0.034911677,-0.15919574,0.23450013,0.023770588,-0.326454,0.20210494,-0.058496866,0.2083493,-0.24915202,0.25090605,-0.06007321,0.11404875,0.13339983,0.05510656,0.1135776,0.013641206,0.13414486,0.048454378,-0.15045428,-0.14448118,-0.13511173,-0.14936835,-0.17779185,0.1471776,-0.19132806,-0.12154313,0.23616727,-0.08712429,-0.050546706,0.006233247,0.11140361,-0.008732754,0.18768787,0.15688036,0.2628418,0.012482159,0.10712763,-0.021168469,0.079129994,-0.014290615,-0.14968155,0.19751222,0.07394029,-0.080296546,-0.11143493,-0.26391134,-0.01566791,0.115914054,-0.113867246,-0.23593627,-0.023609243,-0.1294856,-0.03921004,-0.024729496,0.17102325,-0.10670662,0.16359606,-0.28840303,-0.05338928,-0.15441917,-0.10264283,0.0960657,0.14405051,-0.10959353,-0.12532757,0.07773545,-0.2294293,0.03618608,0.07979733,0.11365589,0.13436832,-0.109573126,-0.06199046,-0.21176217,-0.041234683,0.27030733,0.08317807,-0.015802702,-0.09663728,-0.024541773,0.12548526,-0.15453957,0.06163611,0.031116595,0.026276829,-0.07509838,-0.16413215,0.017867228,0.024097977,0.019627769,0.08254176,-0.031676274,0.06209143,0.11111945,-0.20848149,0.07601733,0.20359762,0.08819338,-0.031556763,-0.031581853,0.16200097,0.023535589,0.07469965,0.118407905,0.18334931,0.11748028,0.07849252,0.053101916,-0.12753667,-0.061064858,0.018644204,0.07442819,0.052834604,0.07683948,0.14508276,0.05020785,-0.16685681,0.14345391,0.09427915,0.09069979,-0.09914196,0.013052863,-0.012176189,-0.004322512,0.0579605,-0.036270283,0.042051215,0.21187828,0.2036428,0.14315502,0.22517234,0.11180144,-0.19431515,-0.13681488,0.123154074,0.097919665,-0.02895619,-0.071717165,-0.037026297,-0.06065133
Endometriosis,0.034370024,-0.012762876,-0.13375852,0.07623451,0.16803811,0.018451072,0.12507936,0.3115805,-0.08264454,-0.037343614,-0.045336027,-0.2082461,0.03852095,0.11720698,-0.036452934,-0.014587481,-0.01488618,0.16744255,0.041928146,-0.3536245,0.15185766,-0.042129006,0.10419926,0.13145703,0.02215053,0.010749157,0.00764512,-0.01980899,-0.14804131,-0.023210755,0.16227,-0.018862214,0.15944046,-0.19425704,-0.021496553,-0.029733174,0.076617055,-0.017472168,-0.05226864,-0.16552418,-0.050193027,-0.046312075,-0.1341796,0.024224518,0.13463967,-0.08866267,-0.037875112,-0.10147744,0.087944135,0.045526274,0.05935983,-0.11724774,-0.022047523,-0.13857444,0.07246142,-0.11658004,-0.061977744,-0.23607156,-0.08984383,-0.034040328,-0.036392614,-0.15941954,0.23433305,0.023191273,-0.32720932,0.20264453,-0.061450742,0.2083123,-0.2493775,0.25015643,-0.05983407,0.114059955,0.13380504,0.05498133,0.11298767,0.010963033,0.13529035,0.046737492,-0.15139045,-0.14332835,-0.1332435,-0.14905162,-0.17798002,0.14820321,-0.19077866,-0.12060899,0.23516037,-0.08824626,-0.049234115,0.006922273,0.11140776,-0.008464121,0.18736401,0.15723199,0.26204702,0.014783367,0.1069017,-0.022043526,0.07966758,-0.014886854,-0.14875975,0.19676715,0.07399654,-0.078935705,-0.10948263,-0.26578382,-0.016165467,0.117061764,-0.11442888,-0.23714425,-0.022763047,-0.13000499,-0.03925109,-0.023033004,0.17197452,-0.10585354,0.16457579,-0.28843692,-0.05307683,-0.15524568,-0.101718396,0.09544187,0.14319591,-0.111136466,-0.12376459,0.07760603,-0.23117043,0.038489625,0.07851916,0.112869605,0.13361695,-0.10837589,-0.06233622,-0.21113962,-0.041050095,0.27024093,0.082906075,-0.014981015,-0.097175986,-0.024025353,0.124172464,-0.15437844,0.06175186,0.032007787,0.027397433,-0.07491182,-0.16410658,0.017493736,0.025062455,0.021154903,0.08233852,-0.030001618,0.062235318,0.11019512,-0.20741901,0.075654194,0.20194872,0.089174315,-0.030602677,-0.030055013,0.16077024,0.023433473,0.07421081,0.119753465,0.18238467,0.11753281,0.07863362,0.05301108,-0.1256683,-0.05969802,0.018761586,0.07359458,0.05206573,0.07694706,0.14602277,0.049230244,-0.16635148,0.14276935,0.09507891,0.08989745,-0.099570855,0.015090389,-0.012758127,-0.00405105,0.058986627,-0.035243053,0.042659316,0.21101764,0.2060372,0.14384429,0.22398679,0.11120244,-0.19273338,-0.13646191,0.12333521,0.09809251,-0.028878095,-0.07170093,-0.037669655,-0.060746107
Hypoglycemia,0.031704668,-0.011689905,-0.13262619,0.07528617,0.1644866,0.018692434,0.12270335,0.3041946,-0.08172023,-0.035174884,-0.046126857,-0.2023989,0.038336437,0.11487401,-0.035926387,-0.015235993,-0.014820583,0.16458668,0.041154645,-0.34462425,0.14851193,-0.042780295,0.09998688,0.12930004,0.020455161,0.007710377,0.008146904,-0.019352159,-0.14489289,-0.0236888,0.16096188,-0.018015021,0.15488918,-0.18975073,-0.019550327,-0.029818075,0.076385766,-0.015245167,-0.04892297,-0.16073693,-0.04918396,-0.045617014,-0.13105209,0.02456143,0.13228305,-0.08738462,-0.03564585,-0.09883672,0.089119874,0.043165307,0.05944882,-0.11258733,-0.02002692,-0.1354608,0.071066305,-0.11133788,-0.06018259,-0.22946395,-0.08825796,-0.033773277,-0.033918906,-0.15474461,0.22855861,0.022748314,-0.31973407,0.19731273,-0.05943498,0.20307237,-0.24345338,0.24610703,-0.058417816,0.109175295,0.13132371,0.054158267,0.1101993,0.012234501,0.13217764,0.04794662,-0.14696187,-0.1403677,-0.1311131,-0.14559345,-0.17422481,0.14415102,-0.1860113,-0.118294336,0.22954573,-0.0846514,-0.04695223,0.007112997,0.10932436,-0.00964557,0.18257803,0.15437435,0.25634134,0.012360658,0.104399025,-0.021493442,0.07793058,-0.01542391,-0.14500743,0.19379719,0.07221572,-0.079172306,-0.10750922,-0.2579573,-0.016079066,0.11365232,-0.11099646,-0.22953475,-0.022483043,-0.12700221,-0.03744537,-0.0232108,0.16630283,-0.1050045,0.16174395,-0.28252193,-0.052579667,-0.15029699,-0.100218765,0.09397677,0.13960789,-0.10840299,-0.121999,0.07560653,-0.22624254,0.0354156,0.0779826,0.11006537,0.13102333,-0.10688733,-0.061609507,-0.20710461,-0.040972564,0.26486424,0.08178609,-0.015469395,-0.09506803,-0.025251584,0.120920874,-0.15063736,0.060957503,0.030550728,0.024668759,-0.073452614,-0.16041017,0.01576465,0.022519423,0.01966092,0.08047891,-0.030512417,0.05937977,0.10857314,-0.20219763,0.072426446,0.19836007,0.086809784,-0.031178625,-0.031005574,0.15772907,0.021846795,0.072997145,0.116162956,0.17935361,0.11547082,0.076965995,0.049840838,-0.12511536,-0.059126895,0.017045904,0.07256681,0.0511032,0.073877774,0.1416324,0.04684047,-0.16381447,0.14056176,0.09138331,0.08901614,-0.097165555,0.014102607,-0.012289819,-0.003961106,0.056543972,-0.034859918,0.041227017,0.20742531,0.19943923,0.14089133,0.21836562,0.10883731,-0.18899573,-0.13449527,0.120903276,0.095334075,-0.029500602,-0.06762596,-0.037333302,-0.05927576
Hypoalphalipoproteinemias,0.03358633,-0.012311527,-0.13790704,0.07815486,0.17213076,0.019765252,0.12848684,0.31759328,-0.08553123,-0.036074046,-0.048089653,-0.21129517,0.039865915,0.11930048,-0.037979558,-0.015851747,-0.014833046,0.17051709,0.04355462,-0.3607138,0.15588865,-0.044607908,0.1063826,0.13405427,0.020974739,0.009157825,0.007593172,-0.019357778,-0.15151758,-0.024020802,0.1673669,-0.019069968,0.16236258,-0.19810739,-0.020955954,-0.030947091,0.07849833,-0.015967896,-0.052351814,-0.16815333,-0.051190626,-0.04769646,-0.13736166,0.026207056,0.13755992,-0.091141336,-0.037590884,-0.103130065,0.09193612,0.045409903,0.06078215,-0.11788578,-0.021428477,-0.1413245,0.07384487,-0.11764622,-0.063569166,-0.24091181,-0.09207587,-0.03582372,-0.03580971,-0.16255298,0.2388098,0.023730744,-0.334301,0.20610088,-0.06124933,0.21283741,-0.25441933,0.25603116,-0.061054148,0.115282156,0.13686898,0.05657973,0.11538926,0.011670517,0.13809524,0.049092423,-0.1538635,-0.14661257,-0.1369545,-0.15183866,-0.18175003,0.15139702,-0.19473015,-0.12434075,0.23942098,-0.08833864,-0.05016263,0.006461344,0.1148406,-0.009375974,0.19148676,0.15988706,0.26735902,0.013424412,0.1087542,-0.021607202,0.081556275,-0.015437932,-0.15195233,0.20157593,0.075158685,-0.081661314,-0.11132834,-0.2701977,-0.015553363,0.11851371,-0.11571168,-0.24063306,-0.02306341,-0.13334842,-0.03954456,-0.024288092,0.17430848,-0.10957813,0.16792278,-0.29474646,-0.054840464,-0.15730734,-0.10484153,0.09823722,0.1460744,-0.11266379,-0.12688486,0.07793878,-0.23588309,0.037678793,0.08036733,0.11518339,0.13706245,-0.111523606,-0.06412841,-0.21602105,-0.04290507,0.2761358,0.08497041,-0.01505724,-0.09810631,-0.02571794,0.12665364,-0.15771592,0.062319983,0.032166842,0.026710905,-0.07572221,-0.16786869,0.017875291,0.024884176,0.021147246,0.08426049,-0.032532994,0.06351951,0.11266531,-0.21137992,0.07702515,0.20759583,0.09098406,-0.031533245,-0.03095305,0.16407387,0.022756629,0.076800935,0.1200627,0.18647535,0.1198666,0.079230726,0.05325364,-0.12968509,-0.0621254,0.018319048,0.07628734,0.05415446,0.07771286,0.14773978,0.049529262,-0.17097029,0.14596644,0.09596672,0.092041686,-0.10135671,0.014758028,-0.012595785,-0.004435392,0.06013845,-0.03704102,0.04236176,0.21533026,0.20987408,0.14674856,0.22869949,0.114541836,-0.19753724,-0.1400742,0.12695464,0.09978839,-0.029810503,-0.07215282,-0.03882057,-0.06269902
Cystitis,0.034611914,-0.01399779,-0.13484694,0.0750574,0.16908726,0.018086854,0.12751193,0.31658113,-0.082006976,-0.038830865,-0.046791393,-0.21001649,0.03647071,0.11954045,-0.039784804,-0.016772479,-0.014039832,0.17076711,0.043276563,-0.35871202,0.15384339,-0.043133166,0.10590987,0.13500485,0.022204084,0.010636564,0.007661416,-0.018504893,-0.15109992,-0.023500565,0.16507214,-0.01725829,0.16143751,-0.19706585,-0.022580411,-0.032461934,0.077732176,-0.019310486,-0.051862027,-0.16743109,-0.0511378,-0.045756463,-0.13554293,0.022625135,0.13626134,-0.090722926,-0.03831526,-0.10351915,0.090282165,0.046694227,0.061080776,-0.11833522,-0.022276904,-0.14051723,0.07414117,-0.117794245,-0.06251853,-0.2389449,-0.09106559,-0.03378389,-0.036919937,-0.16188282,0.2372722,0.023063762,-0.33150446,0.2053466,-0.062033754,0.20965677,-0.25334355,0.25425702,-0.059790846,0.116540894,0.13628812,0.05487301,0.11606813,0.01101983,0.13854429,0.04824412,-0.15374324,-0.14517957,-0.13571496,-0.14958908,-0.18192258,0.15281211,-0.1938407,-0.1234537,0.24052262,-0.08879255,-0.05158928,0.007235227,0.11379768,-0.009491243,0.19067313,0.1578666,0.26614016,0.013933949,0.108987555,-0.023225997,0.08037923,-0.0138159,-0.15108365,0.20181529,0.07498921,-0.081024975,-0.11069302,-0.26911962,-0.017048914,0.11709091,-0.11623201,-0.2396746,-0.024280226,-0.1310959,-0.03992028,-0.02348025,0.17433742,-0.10685515,0.16838996,-0.28947982,-0.055819355,-0.15883,-0.103036344,0.09787929,0.14545241,-0.11388581,-0.12462284,0.080025434,-0.23524767,0.037625454,0.07919404,0.11623211,0.13584626,-0.10916747,-0.06284934,-0.21637304,-0.041041616,0.2738233,0.083109885,-0.014416337,-0.09811393,-0.025543658,0.12624994,-0.1581772,0.06272441,0.03257081,0.026408602,-0.07714131,-0.16661169,0.016247235,0.026247075,0.020072378,0.08296524,-0.03232552,0.062162206,0.11168509,-0.21089435,0.07779596,0.2056048,0.0900613,-0.032887537,-0.028346095,0.16502805,0.02356709,0.07478568,0.121964484,0.18683636,0.1199231,0.08023563,0.053413082,-0.12832081,-0.060434677,0.018187508,0.07269362,0.05275165,0.07877802,0.14739314,0.05012188,-0.1690193,0.14529003,0.09600118,0.08972973,-0.10097714,0.015315528,-0.013552967,-0.003977855,0.059300162,-0.03489378,0.044246327,0.21585642,0.20804387,0.14457294,0.22873628,0.11283906,-0.19558725,-0.13922541,0.12236324,0.09844892,-0.028528344,-0.07312552,-0.039531603,-0.06083728
MyocardialInfarction,0.03410357,-0.012514008,-0.13243927,0.074371085,0.16573957,0.01836912,0.12328686,0.30800536,-0.08060721,-0.03630083,-0.04553643,-0.20498687,0.037358187,0.11509943,-0.036712326,-0.014252625,-0.015747758,0.16507044,0.042126767,-0.3488504,0.15066603,-0.041955203,0.10237744,0.13094044,0.019797686,0.01032208,0.008348042,-0.019362528,-0.14648621,-0.023237964,0.1610587,-0.019679775,0.15800746,-0.19209659,-0.019532943,-0.030252513,0.07655077,-0.015607123,-0.05071904,-0.1625592,-0.049742155,-0.046561427,-0.13319443,0.026209768,0.13377945,-0.08862121,-0.037914544,-0.0998398,0.088387705,0.04421866,0.05916875,-0.11439932,-0.020267192,-0.13759723,0.07263333,-0.11411376,-0.060966007,-0.23281474,-0.088463604,-0.03347958,-0.03518695,-0.15656357,0.23066323,0.023038024,-0.32337105,0.19945058,-0.059806988,0.20593846,-0.24489376,0.24741724,-0.059256338,0.11146909,0.13185641,0.05466842,0.11238037,0.012168057,0.1337146,0.046916515,-0.1488608,-0.14258377,-0.13240674,-0.1465993,-0.17572948,0.14597729,-0.18890506,-0.1187315,0.23145281,-0.08574398,-0.049635768,0.006094519,0.110971145,-0.008633464,0.18533872,0.15602146,0.25869757,0.01308698,0.1049169,-0.020857986,0.07740361,-0.014888071,-0.14652371,0.19557814,0.0730409,-0.07897611,-0.10878535,-0.26150918,-0.015231495,0.1156978,-0.11296272,-0.23279987,-0.023047213,-0.1283157,-0.0392317,-0.023451056,0.16885349,-0.10646783,0.1609492,-0.28438097,-0.05277155,-0.15279509,-0.101591974,0.09392977,0.14002424,-0.10920741,-0.12217626,0.07524005,-0.22804348,0.036087718,0.0787362,0.11144885,0.13206032,-0.10799911,-0.06094566,-0.20848525,-0.040293124,0.26758102,0.08214916,-0.014967209,-0.09482316,-0.02567417,0.12219931,-0.15341775,0.060521536,0.032320023,0.025761018,-0.073934846,-0.16181937,0.01755078,0.023585698,0.020358032,0.08142604,-0.030774273,0.061648346,0.11011638,-0.20489089,0.07429933,0.20014751,0.08650719,-0.030920748,-0.030542098,0.15896034,0.022749964,0.07292558,0.11649381,0.1805974,0.11636575,0.078375705,0.052539807,-0.12590681,-0.05937508,0.017651163,0.07393424,0.05243482,0.075642005,0.14390533,0.049418457,-0.16464397,0.14178236,0.09359227,0.089997694,-0.09718744,0.014204719,-0.012302233,-0.004448426,0.057885353,-0.03447882,0.04134242,0.2074488,0.20251994,0.142889,0.22222687,0.11023324,-0.19073565,-0.13526279,0.12151893,0.09680823,-0.029676761,-0.06975763,-0.036484823,-0.0602732
EnterocolitisPseudomembranous,0.03484605,-0.012314253,-0.13548137,0.07641859,0.16995935,0.01917803,0.12596393,0.31340963,-0.08274625,-0.03704226,-0.046477206,-0.20961869,0.039386485,0.11794917,-0.03705839,-0.014630665,-0.01469943,0.16893703,0.042860463,-0.3558479,0.15324317,-0.04308383,0.10446187,0.13268836,0.021906206,0.010242846,0.0078949,-0.019709306,-0.14905484,-0.02389151,0.16447003,-0.019110804,0.16030753,-0.19590743,-0.021614475,-0.030371606,0.07764477,-0.016468506,-0.052401323,-0.16648631,-0.050310645,-0.046482153,-0.13511439,0.024897601,0.13600543,-0.08932888,-0.03826931,-0.10250603,0.0890061,0.045752138,0.059821334,-0.117820114,-0.02225897,-0.1400817,0.07263241,-0.11691132,-0.06282977,-0.23771913,-0.09059142,-0.034763806,-0.035923794,-0.16057582,0.2365933,0.024005108,-0.32992518,0.20397344,-0.06184636,0.20977077,-0.25055197,0.2525561,-0.060381502,0.114285655,0.13518617,0.056233387,0.11412921,0.011537836,0.1360363,0.04725919,-0.15278517,-0.14446485,-0.13470818,-0.15067643,-0.18009269,0.1492754,-0.19264847,-0.12202209,0.23716673,-0.08876442,-0.04991551,0.005966367,0.1123368,-0.008264234,0.18874945,0.15887749,0.26395884,0.014059287,0.10714363,-0.021732423,0.0797912,-0.015128128,-0.1499692,0.19846617,0.074135266,-0.08054728,-0.110460974,-0.26735416,-0.016590478,0.117920965,-0.115010925,-0.23808224,-0.0229733,-0.13065402,-0.038900714,-0.023356026,0.17337158,-0.10781831,0.16567338,-0.29120386,-0.053695127,-0.15621708,-0.10269102,0.09635314,0.14405265,-0.11147872,-0.1251936,0.0779317,-0.23266849,0.03843437,0.07997922,0.1131711,0.13403495,-0.109220885,-0.06282341,-0.21273547,-0.04115947,0.27236095,0.08362577,-0.016225962,-0.098700784,-0.024128497,0.12468165,-0.15515217,0.06280789,0.032429338,0.027381664,-0.07527176,-0.1658438,0.017833853,0.024515806,0.020575138,0.08317695,-0.03054439,0.06220968,0.11148452,-0.20905413,0.075648,0.20420305,0.08974844,-0.030239124,-0.030853845,0.1624396,0.0229315,0.07530659,0.120601766,0.18404396,0.11830687,0.07897954,0.053758815,-0.12768218,-0.06036306,0.018853243,0.07472652,0.052540988,0.07709819,0.14642067,0.04955196,-0.16715291,0.14441589,0.095116325,0.09122778,-0.100828946,0.015057026,-0.013364257,-0.003727893,0.059155878,-0.034970414,0.04281355,0.21321794,0.2071705,0.14535496,0.22612692,0.112462945,-0.1952043,-0.13739064,0.12458042,0.09894694,-0.029226845,-0.07194983,-0.038044896,-0.061426718
Autoimmunehemolyticanemia,0.03531553,-0.011713082,-0.13856176,0.07839298,0.17331022,0.019633856,0.12907645,0.32085463,-0.08429009,-0.03776266,-0.04833195,-0.21499951,0.03982804,0.12067288,-0.038390834,-0.014926372,-0.015403515,0.17293383,0.044058792,-0.36348793,0.1573504,-0.04403711,0.1053517,0.13704383,0.022077473,0.0105268,0.008260263,-0.019601403,-0.15250866,-0.024733825,0.1674401,-0.01951891,0.16371822,-0.20192096,-0.021748962,-0.031461112,0.08133944,-0.016267005,-0.053885534,-0.16842978,-0.05191825,-0.04752032,-0.13854402,0.02599466,0.13919318,-0.09179462,-0.038698386,-0.104039684,0.0922171,0.046623398,0.061664272,-0.11936491,-0.02215967,-0.14305688,0.07462908,-0.1190613,-0.06385988,-0.24303426,-0.0926344,-0.03476683,-0.03653265,-0.16416858,0.24110125,0.024732092,-0.33623615,0.20800409,-0.062681735,0.21462896,-0.25576347,0.25860262,-0.061485264,0.11622772,0.13836809,0.05648988,0.116382405,0.012661167,0.13922486,0.049139205,-0.15488556,-0.14772883,-0.13902852,-0.15374593,-0.18350631,0.15131587,-0.19703938,-0.12467572,0.24250326,-0.08980018,-0.050358966,0.006164337,0.11513042,-0.008410521,0.19332679,0.16223355,0.27048308,0.01330326,0.10871963,-0.022066982,0.08141165,-0.014336015,-0.15433228,0.20291522,0.07660576,-0.0833168,-0.113104254,-0.27293402,-0.0172466,0.120090336,-0.11734391,-0.24264306,-0.02424062,-0.13403551,-0.039927643,-0.023967298,0.17715722,-0.11029293,0.16966785,-0.29680258,-0.054425236,-0.15934372,-0.104643375,0.09868202,0.14742436,-0.114130735,-0.12790778,0.08050136,-0.2376332,0.03874959,0.08209985,0.1160128,0.13779928,-0.11191228,-0.06485706,-0.21807306,-0.04197347,0.2786583,0.08652267,-0.016564557,-0.100262746,-0.024278512,0.128608,-0.15926896,0.064469986,0.03279716,0.027727257,-0.07707845,-0.16941947,0.017671296,0.024673231,0.019955026,0.085653014,-0.031597123,0.06375931,0.114847034,-0.21433572,0.077782765,0.20969772,0.092484005,-0.030813055,-0.03159999,0.1658329,0.023503544,0.07658095,0.12286209,0.18915264,0.12073893,0.08114851,0.0539804,-0.1301968,-0.061236218,0.018027546,0.0764511,0.053535696,0.078765206,0.1503297,0.050861806,-0.17163931,0.14836352,0.09686356,0.09425529,-0.10290456,0.015014094,-0.013069115,-0.003836152,0.05933101,-0.03537258,0.04316841,0.21768516,0.21058029,0.14839461,0.23116615,0.1151271,-0.19925928,-0.14193845,0.12712587,0.101498365,-0.028639065,-0.07300319,-0.039275073,-0.06208679
SkinUlcer,0.033018406,-0.011682464,-0.12422018,0.06868344,0.15489614,0.01619327,0.114362456,0.28827423,-0.075566925,-0.034137525,-0.041308325,-0.19213091,0.035879083,0.10773065,-0.0345944,-0.013703135,-0.013207285,0.15335253,0.039169975,-0.32514924,0.14085798,-0.03982279,0.093909964,0.120772995,0.018681306,0.008681175,0.007651313,-0.018099044,-0.13557209,-0.02208549,0.15030105,-0.017572794,0.1464695,-0.18033066,-0.019136753,-0.02806642,0.07248717,-0.014019077,-0.046883963,-0.1528587,-0.045502022,-0.042821497,-0.124044634,0.025037596,0.124956764,-0.08137347,-0.035874855,-0.09245326,0.08285358,0.041766204,0.053501807,-0.10778177,-0.019278683,-0.12858337,0.06759211,-0.10603007,-0.057024844,-0.21686621,-0.08319217,-0.029962879,-0.03183915,-0.14607069,0.21648057,0.021064948,-0.30166152,0.18665928,-0.055512268,0.1924047,-0.22767374,0.23060122,-0.05437246,0.10395999,0.12267077,0.051437043,0.10475649,0.011373204,0.12575033,0.04324854,-0.13897383,-0.13318664,-0.12339203,-0.13592462,-0.16564785,0.13622294,-0.17593318,-0.11165027,0.21656664,-0.07991146,-0.04489765,0.006414695,0.1038355,-0.007615249,0.17464304,0.14746729,0.24163237,0.012260408,0.09722302,-0.020111572,0.07266843,-0.014390817,-0.13584808,0.18321496,0.068838626,-0.07392469,-0.09995043,-0.24346688,-0.014758667,0.10797713,-0.10552093,-0.21660209,-0.019880928,-0.12001479,-0.035112847,-0.021142447,0.15862319,-0.09932248,0.15116918,-0.26538348,-0.050227404,-0.1426391,-0.094181016,0.087234356,0.13073532,-0.10304465,-0.11563997,0.07141657,-0.2119859,0.034207515,0.07380209,0.10406826,0.12217037,-0.101659834,-0.057148058,-0.19506995,-0.03725809,0.25057748,0.076187536,-0.015170636,-0.08922577,-0.023563998,0.114641085,-0.14347479,0.057482887,0.031692065,0.024827195,-0.06810745,-0.1508261,0.014919008,0.021956874,0.0181535,0.07599544,-0.028747525,0.057198513,0.10282658,-0.1922191,0.07026003,0.18779747,0.08327968,-0.027738517,-0.02915655,0.1480024,0.021226384,0.06641626,0.109475136,0.16887279,0.109331384,0.07267526,0.050349247,-0.11664202,-0.05474016,0.01602486,0.06798727,0.049125955,0.07140379,0.13329922,0.04495453,-0.15357602,0.13357747,0.0871427,0.08430912,-0.09291123,0.013940623,-0.011907006,-0.003651031,0.053582393,-0.031063583,0.039332733,0.19239195,0.18981804,0.13341583,0.20645452,0.1018044,-0.17908086,-0.1269596,0.113054335,0.09062816,-0.026804024,-0.06565788,-0.035362963,-0.05577135
AngleClosureGlaucoma,0.035080984,-0.011927891,-0.13661717,0.075897545,0.17001592,0.01953997,0.12576024,0.31287482,-0.08227693,-0.03643461,-0.04742,-0.2095292,0.038948115,0.118352406,-0.036971077,-0.014718262,-0.015025187,0.16942948,0.043885555,-0.35421324,0.15399696,-0.044141725,0.103645116,0.13302523,0.021414055,0.009753922,0.008360643,-0.019632356,-0.14812733,-0.024038713,0.16501755,-0.019345038,0.15963367,-0.19653477,-0.021245105,-0.030818112,0.078776985,-0.014219166,-0.051962636,-0.1656608,-0.050316427,-0.046455517,-0.13430943,0.025631636,0.13595667,-0.088982545,-0.038869124,-0.102332644,0.090782546,0.045103844,0.0596714,-0.11684663,-0.021306574,-0.14065407,0.07268989,-0.116030954,-0.06279708,-0.23696738,-0.090259664,-0.035222013,-0.035761688,-0.15990661,0.23595127,0.024380816,-0.32960993,0.20335098,-0.06132193,0.21007414,-0.24955875,0.2528423,-0.059953343,0.112827055,0.13529293,0.05681981,0.114318274,0.011473076,0.13608162,0.04877168,-0.15197168,-0.14419065,-0.13584565,-0.15105502,-0.17988764,0.14822331,-0.19167756,-0.12263203,0.23692864,-0.08719391,-0.049791817,0.004849318,0.11256668,-0.008397481,0.18898998,0.15913266,0.26345623,0.013481506,0.106986165,-0.021653257,0.07928548,-0.014490088,-0.14978546,0.19883008,0.07426209,-0.08089791,-0.11098228,-0.26610205,-0.01561839,0.117152125,-0.11505154,-0.23726086,-0.02271132,-0.13090298,-0.038187843,-0.023488345,0.17263359,-0.108886294,0.16539608,-0.2909984,-0.054241505,-0.15598431,-0.10360107,0.09701694,0.14283071,-0.111036874,-0.12594838,0.07820505,-0.23166563,0.03740799,0.08027942,0.113050774,0.13311425,-0.10982902,-0.0629125,-0.21228606,-0.042350285,0.27302152,0.08365414,-0.017178083,-0.09876469,-0.024923213,0.124887794,-0.15484744,0.063144885,0.032912795,0.026995195,-0.07509627,-0.1655454,0.016724147,0.024057545,0.02015327,0.08211469,-0.030836148,0.06214623,0.11219522,-0.20907415,0.07535639,0.2045647,0.089412466,-0.030122213,-0.0316633,0.16307414,0.021852372,0.07509791,0.11970904,0.18406716,0.118033834,0.07764247,0.05311706,-0.12907892,-0.06002902,0.01831965,0.07561368,0.053305045,0.07627093,0.14574057,0.050300527,-0.16738848,0.14540331,0.09381273,0.09136948,-0.10045885,0.014709934,-0.013974157,-0.004143173,0.05844102,-0.03481777,0.04151597,0.21291637,0.20627733,0.14500396,0.22589932,0.112675816,-0.19567865,-0.13711315,0.12436166,0.09870693,-0.029704986,-0.07126761,-0.037336767,-0.061237976
Malignantlymphomalymphocyticintermediatedifferentiationdiffuse,0.034809608,-0.012567922,-0.1363473,0.07680671,0.170491,0.019273177,0.12707129,0.316437,-0.08299308,-0.037604775,-0.0473772,-0.21097653,0.038603775,0.11800837,-0.03840536,-0.015208837,-0.01501002,0.16990784,0.04343279,-0.35829756,0.15478045,-0.04319761,0.10462442,0.13412736,0.021594474,0.010254534,0.008243861,-0.019017108,-0.15023117,-0.023822121,0.16468993,-0.01951324,0.16149597,-0.19819602,-0.021130335,-0.031445153,0.07886614,-0.016701616,-0.052041627,-0.16668884,-0.051037304,-0.04740048,-0.13642226,0.025758704,0.13719809,-0.09051434,-0.03808522,-0.10309738,0.09076854,0.045803983,0.060715962,-0.11795631,-0.021668026,-0.1411772,0.073835105,-0.11741114,-0.06275729,-0.23931782,-0.091278836,-0.034034733,-0.035990015,-0.16142805,0.23751439,0.024039634,-0.33196798,0.2050925,-0.061274774,0.21170066,-0.25212935,0.25462094,-0.06023928,0.11458916,0.1364261,0.055595573,0.114936545,0.012102108,0.13779546,0.048059408,-0.1529328,-0.14579691,-0.13614798,-0.15083799,-0.18103689,0.1499439,-0.19399245,-0.12309032,0.23830359,-0.088597976,-0.050305054,0.006118117,0.11376416,-0.008677967,0.19082601,0.15987387,0.26634842,0.013385957,0.107660264,-0.021495596,0.07992409,-0.014858912,-0.15130489,0.20084715,0.07500505,-0.08152381,-0.11089024,-0.26920277,-0.01637324,0.11854032,-0.11539964,-0.23926775,-0.023506936,-0.13183933,-0.039877545,-0.023426536,0.17457922,-0.10881303,0.16645096,-0.29184327,-0.053940102,-0.15597968,-0.103632495,0.09738123,0.14500669,-0.11205971,-0.12596825,0.078235164,-0.23424266,0.037686665,0.080552086,0.11439355,0.13582374,-0.110882305,-0.06304746,-0.2144406,-0.041465573,0.27497643,0.084708996,-0.015512374,-0.098202586,-0.02492923,0.1258685,-0.15706553,0.06301018,0.032685727,0.026989955,-0.075192735,-0.16691044,0.017530026,0.024408208,0.019761728,0.08368393,-0.031528268,0.06289956,0.11231273,-0.21042894,0.07710155,0.2061285,0.090135686,-0.030892262,-0.03080992,0.16332783,0.023088668,0.074802436,0.12052912,0.18622336,0.11911166,0.080102004,0.053639144,-0.12856336,-0.06048035,0.018069457,0.07473011,0.053310223,0.07801153,0.14818756,0.050315965,-0.16913228,0.14569518,0.09572291,0.09189163,-0.10090232,0.014817908,-0.012552782,-0.004009738,0.059075538,-0.034730136,0.04290419,0.213646,0.20807058,0.14580002,0.22778678,0.11304868,-0.19610295,-0.13973455,0.12424725,0.099709116,-0.029187104,-0.07183794,-0.038330562,-0.061783206
Ascites,0.035474796,-0.012105392,-0.13403414,0.0752115,0.16685484,0.02014886,0.124867335,0.30980137,-0.080665775,-0.035998248,-0.04514606,-0.20681192,0.038135428,0.11743664,-0.037859473,-0.016193803,-0.013409376,0.16891308,0.041576546,-0.35181695,0.15035336,-0.043461908,0.10222311,0.132338,0.021224614,0.009805833,0.008570505,-0.01926181,-0.14859715,-0.023389462,0.16115095,-0.018540954,0.15833922,-0.19370775,-0.023128733,-0.030029178,0.07641196,-0.016568085,-0.05221442,-0.16385092,-0.04966745,-0.0454382,-0.13262318,0.024034914,0.13449386,-0.08824579,-0.038095832,-0.1018024,0.08819484,0.045757823,0.059627734,-0.11685552,-0.023086408,-0.13869289,0.070380144,-0.11692422,-0.06156667,-0.23537514,-0.09025465,-0.035453793,-0.035630077,-0.1586014,0.23334935,0.022535501,-0.3254947,0.20187445,-0.059985276,0.20652434,-0.2482175,0.2478421,-0.057675935,0.11392273,0.13226143,0.05524456,0.11442805,0.012556551,0.13648708,0.04809069,-0.15042089,-0.14152941,-0.13325436,-0.14870489,-0.17865942,0.14700024,-0.19039662,-0.121375866,0.23500958,-0.087756135,-0.049754538,0.00736262,0.109156065,-0.007825254,0.18681116,0.15622123,0.26179102,0.013861808,0.10737767,-0.021668157,0.07813906,-0.013844018,-0.14766641,0.19650404,0.07517685,-0.078497134,-0.10974377,-0.26310343,-0.015362233,0.115154184,-0.1135116,-0.235009,-0.022284236,-0.12828563,-0.03836588,-0.024257824,0.17093389,-0.105447754,0.16488566,-0.2849954,-0.054555833,-0.15404928,-0.10143022,0.09583889,0.14405982,-0.11053554,-0.123573445,0.07959771,-0.23004568,0.03772718,0.07781475,0.113878384,0.13228658,-0.10767533,-0.060546134,-0.2122519,-0.04046094,0.26763073,0.08140882,-0.016850842,-0.09827367,-0.02379051,0.123906836,-0.15383701,0.06153546,0.032716688,0.02781808,-0.07545749,-0.16265453,0.015579294,0.024598852,0.019611558,0.08147622,-0.031045016,0.06100719,0.10866993,-0.20822062,0.07560249,0.20020728,0.08956926,-0.030969921,-0.02988565,0.16150346,0.023685811,0.07309814,0.12031747,0.18234992,0.11785688,0.07752824,0.054454062,-0.12644164,-0.06001802,0.018134313,0.07333762,0.05279937,0.0763222,0.14424177,0.0493694,-0.16555904,0.14275317,0.093295895,0.08985375,-0.10025334,0.01411944,-0.013380015,-0.003608133,0.05747303,-0.034617197,0.044689797,0.21063077,0.20330207,0.14087062,0.22364913,0.10970384,-0.19287361,-0.13620262,0.12195349,0.09714026,-0.027375242,-0.0711403,-0.039011948,-0.060714465
TyphoidFever,0.03211845,-0.011535604,-0.12716345,0.070724614,0.15889165,0.017173816,0.11849046,0.2945252,-0.077408545,-0.034290425,-0.043727994,-0.19575411,0.03664634,0.1087323,-0.03517057,-0.014011563,-0.013973101,0.15695174,0.038886692,-0.3342335,0.14378557,-0.040495913,0.09776648,0.1234455,0.019018732,0.008276854,0.008740485,-0.018710198,-0.13950711,-0.022171827,0.15399982,-0.01823245,0.15132329,-0.18334024,-0.019983796,-0.029255183,0.07360578,-0.014347795,-0.048390087,-0.15406902,-0.046979528,-0.04376426,-0.12649634,0.024165459,0.12846851,-0.08445532,-0.03422407,-0.095788375,0.08490458,0.042769987,0.055972718,-0.108736716,-0.020030858,-0.13063821,0.06782571,-0.10921383,-0.05720294,-0.22238718,-0.085250825,-0.032033656,-0.033390872,-0.15012544,0.22056423,0.0216627,-0.30901334,0.19086832,-0.057202883,0.19635876,-0.23532684,0.2362318,-0.05714152,0.106235676,0.12748374,0.0525771,0.10698437,0.011479167,0.12900048,0.044840157,-0.1434548,-0.13559328,-0.12545376,-0.14079423,-0.16900776,0.1400398,-0.17990525,-0.11457007,0.22067314,-0.08157763,-0.04573174,0.006430835,0.105588384,-0.008037696,0.17812082,0.1486486,0.24862385,0.012832979,0.100991294,-0.019793315,0.07463975,-0.015273809,-0.1405221,0.18750073,0.06931396,-0.07540328,-0.10253298,-0.25147113,-0.015272439,0.111187376,-0.1068766,-0.22294967,-0.020447446,-0.12269473,-0.036218837,-0.021640312,0.16133347,-0.102248825,0.15429656,-0.27180523,-0.0500397,-0.14508255,-0.09711872,0.089825876,0.13510916,-0.1050177,-0.11737797,0.07208388,-0.21757165,0.035792384,0.07437876,0.10611917,0.1255678,-0.103805415,-0.059169848,-0.19890454,-0.03909542,0.25573057,0.07907309,-0.015150051,-0.09129189,-0.023522804,0.1166834,-0.14630166,0.058365103,0.029701797,0.025507243,-0.06962606,-0.1542748,0.015288294,0.022442661,0.018421663,0.07722632,-0.028989464,0.058214445,0.10375941,-0.19528049,0.07077066,0.1908032,0.084361315,-0.028301295,-0.028195065,0.15258563,0.021301713,0.07053836,0.11137399,0.1731717,0.11062062,0.074139535,0.049235012,-0.12030585,-0.05633229,0.016654951,0.06942128,0.04980783,0.07272445,0.13720985,0.04585003,-0.15932134,0.13499585,0.08883726,0.08600151,-0.09328832,0.014386908,-0.012559321,-0.004479739,0.05458256,-0.033520732,0.039277926,0.19811599,0.19564758,0.13623415,0.21017295,0.1043129,-0.18267104,-0.1306739,0.11663966,0.091405645,-0.02753428,-0.06705607,-0.036293846,-0.05802858
MultipleEndocrineNeoplasia,0.03509448,-0.012706584,-0.1361212,0.0762379,0.170167,0.019163873,0.12591538,0.31389424,-0.08308643,-0.03681398,-0.04701699,-0.20915532,0.038489286,0.11801617,-0.03726979,-0.014841542,-0.014572807,0.16875938,0.04305977,-0.3550546,0.15393186,-0.043775525,0.10427652,0.13208787,0.021257488,0.00972535,0.008153235,-0.01906814,-0.14913629,-0.023311894,0.16431983,-0.019678736,0.15993091,-0.19605272,-0.021405857,-0.030826155,0.07785763,-0.015750432,-0.051945157,-0.16580556,-0.050700705,-0.04671405,-0.13499497,0.025740739,0.13596648,-0.08908391,-0.038346943,-0.102110445,0.090461746,0.04567187,0.059554596,-0.117086895,-0.021022247,-0.14037314,0.07281207,-0.11671482,-0.06229509,-0.23720945,-0.09059916,-0.034530636,-0.03536225,-0.15986693,0.23564145,0.0234571,-0.3296906,0.20370121,-0.060422715,0.20993581,-0.25020355,0.2522116,-0.0596888,0.11329739,0.13480781,0.055323448,0.114247166,0.011236542,0.1366904,0.048661295,-0.15215504,-0.14485165,-0.13504387,-0.15008232,-0.17980887,0.14902973,-0.19190638,-0.12198151,0.23614642,-0.08772312,-0.050060157,0.005585997,0.11315539,-0.008571664,0.18916117,0.15849052,0.2635262,0.013697888,0.10669215,-0.021939809,0.07976349,-0.014630581,-0.15027598,0.19928625,0.074337386,-0.08008372,-0.11015541,-0.2663863,-0.015142633,0.11739963,-0.11450758,-0.23747063,-0.022497216,-0.13127327,-0.038872503,-0.023353165,0.17247559,-0.1085465,0.16524518,-0.29010168,-0.054133933,-0.15498687,-0.10322107,0.096298195,0.14317913,-0.11024647,-0.12532742,0.07759297,-0.23195483,0.037548415,0.07986677,0.113243215,0.13373354,-0.110292196,-0.06319862,-0.21222423,-0.041322023,0.27251053,0.0838904,-0.016213384,-0.09708171,-0.024833303,0.12448573,-0.15538852,0.06186861,0.032999523,0.0267827,-0.07433385,-0.16559343,0.017279062,0.02463265,0.020563383,0.08259629,-0.0315946,0.06215131,0.11072387,-0.20838012,0.076225944,0.20488033,0.08956607,-0.03040275,-0.030635163,0.16150256,0.022383044,0.074643575,0.11882485,0.18382406,0.11813398,0.07832901,0.053974897,-0.12772702,-0.060672738,0.018198686,0.07490629,0.053675693,0.07709988,0.14594768,0.049740143,-0.16797148,0.14445283,0.094575,0.0908369,-0.10062965,0.015011118,-0.012346142,-0.004248901,0.059307184,-0.035433657,0.042257667,0.21136759,0.20686264,0.14451244,0.22566271,0.11249656,-0.19475424,-0.13779353,0.12426089,0.09911428,-0.028850636,-0.071444295,-0.03779714,-0.061471064
