,0,1,2,3,4,5,6,7,8,9,10,11,12,13,14,15,16,17,18,19,20,21,22,23,24,25,26,27,28,29,30,31,32,33,34,35,36,37,38,39,40,41,42,43,44,45,46,47,48,49,50,51,52,53,54,55,56,57,58,59,60,61,62,63,64,65,66,67,68,69,70,71,72,73,74,75,76,77,78,79,80,81,82,83,84,85,86,87,88,89,90,91,92,93,94,95,96,97,98,99,100,101,102,103,104,105,106,107,108,109,110,111,112,113,114,115,116,117,118,119,120,121,122,123,124,125,126,127
d0,0.07615698,0.019071251,-0.15008971,-0.20668334,0.38466048,0.10450429,0.08518259,-0.14709136,-0.08033722,0.44138175,-0.12108905,0.028111013,0.07646044,-0.16487448,0.07150737,-0.00976687,-0.418134,-0.20663461,-0.45038298,0.4608681,-0.38088068,-0.28574997,-0.00021527811,-0.3183504,0.35839957,0.15853158,0.274682,-0.02127381,-0.24619716,-0.17163894,0.036410235,-0.10598171,0.32806784,-0.092495166,-0.07993859,0.07113713,0.13072473,0.2550405,-0.26626566,0.3461893,0.10054463,0.070714936,-0.010692982,0.22804232,0.0059753684,-0.35913995,-0.07660332,0.02176302,0.076958396,-0.051661618,-0.16890176,0.20907487,-0.13622178,-0.08926709,-0.26939955,-0.13800511,-0.038892087,0.14169185,0.30711302,0.18746684,-0.2497669,0.031898525,0.0014547145,0.051905986,-0.009593027,-0.004866403,-0.3145357,0.0042940816,0.095482334,0.111656584,-0.051542882,-0.31783408,-0.22711055,-0.15935908,0.15951216,-0.23334043,0.08645874,-0.19567484,-0.21732257,-0.54237235,-0.046953417,0.12279956,-0.05451867,-0.054211944,-0.18680795,0.2584695,-0.19617578,-0.18401578,-0.06566041,-0.24198937,0.0063249604,0.14831696,0.08704056,0.09963589,0.011308827,0.11829438,0.021982204,0.18339436,0.15954195,0.13709635,-0.01944508,-0.0342155,0.26857108,-0.4617217,-0.3896992,0.026698872,0.15232055,-0.059455,0.056236573,0.18155023,-0.013168251,-0.4191806,-0.17672032,-0.26163244,0.35389805,0.12703538,0.270832,-0.046694312,0.04675541,0.010473039,0.005815382,-0.26485556,0.021099374,0.1512795,-0.23593487,0.22677921,-0.24907313,-0.08678522
d1,0.06490687,0.022925109,-0.13057092,-0.26038697,0.3096924,0.08251937,0.10691904,-0.18833847,-0.09600168,0.50128984,-0.11522466,-0.0008484769,0.089398056,-0.19087034,0.040205367,-0.029805422,-0.35905644,-0.12936513,-0.51416755,0.39014226,-0.29813632,-0.27564967,-0.028855706,-0.29133722,0.28770325,0.13367432,0.25021812,0.00871673,-0.26941147,-0.15224124,0.06110836,-0.13219768,0.3953733,-0.10617959,-0.1014485,0.12564903,0.12052236,0.26525167,-0.2386857,0.3331497,0.10321667,0.03239035,-0.0010828733,0.17902106,-0.0057603265,-0.33160123,-0.035976473,-0.024498101,0.052286115,-0.019666016,-0.16955517,0.19908267,-0.16197473,-0.060847465,-0.2396793,-0.17377546,-0.038633753,0.058172096,0.33113408,0.24915558,-0.2722657,-0.012170583,0.05842191,0.051911052,-0.015002459,0.04478213,-0.22974323,-0.02501982,0.05723123,0.12601769,-0.040151834,-0.2673771,-0.16408052,-0.0833849,0.15529808,-0.18248324,0.12084499,-0.19651699,-0.1683648,-0.51408625,-0.049761422,0.07471554,-0.048831668,-0.08984275,-0.14701246,0.23331238,-0.24096814,-0.16274756,-0.04322578,-0.23122194,-0.043128014,0.15413502,0.10390736,0.06466486,0.02119084,0.11123766,0.08384484,0.20772268,0.07561978,0.1100038,-0.02258828,-0.024707962,0.24570096,-0.44047657,-0.3598947,0.026203893,0.19013603,0.0030126558,0.048728283,0.2185815,0.009567061,-0.37042814,-0.19294752,-0.22906134,0.31888214,0.13460508,0.28768456,0.0035478699,0.033879053,0.024509922,0.0036756466,-0.17517519,0.00062365056,0.1366103,-0.18022951,0.21872617,-0.22773425,-0.047453534
d2,-0.0024446156,0.0014388543,-0.0021286374,-0.0020030402,0.0006321315,-0.0055978475,0.0068015307,0.0063079717,0.00024006795,0.0073329983,0.0031162435,-0.0019871797,0.006881763,-0.0015960699,0.0017656796,-0.001272928,0.0042405594,0.0067081517,0.00129293,0.0018165074,-0.0005917866,-0.0040140785,0.0076183416,0.0048455307,-0.00053750165,-0.00093606114,0.0069780797,0.0065954104,-0.0034204293,-0.003289326,0.0067352876,0.0061532,0.0061821667,0.0009520091,-0.006433254,-0.0056406055,-0.00046952907,0.005820403,-0.0040821685,-0.007406952,-0.00063915644,-0.0002886718,-0.007196313,0.0061281323,-0.005477052,-0.00047477055,-0.0056573804,-0.006759095,0.0036061918,-0.00021688174,0.00778721,0.0045131193,0.0024265526,-0.00078146905,0.0040393136,-0.0015780078,0.00195996,-0.006219412,-0.005854287,0.0010083811,-0.006435169,-0.0027738996,-0.0044356296,0.0065269647,0.002926237,0.0053811437,-0.006521116,0.0062534045,0.0071211895,-0.0027554007,0.0067812353,-0.002371979,-0.0028212322,-0.0011814777,0.004775294,0.0061866967,0.003097266,0.0025535552,0.0019586552,0.0026610894,0.0065931557,-0.00029995758,-0.00023755338,-0.0011671856,0.002713886,-0.0056604855,0.00037281588,0.0061269896,0.0023799883,0.004888973,-0.0056662196,-0.0032409206,0.0058295326,-0.0058631487,0.0052491752,0.00054762233,-0.003040691,-0.00055470504,0.002672459,0.007330644,-0.0022922745,-1.8290244e-05,-0.006932658,0.0065907557,0.0074567497,0.004782621,0.0056618974,0.0064517856,0.0014609313,0.0023156768,-0.006242047,-0.006831983,-0.00630344,-0.0062685274,-0.0056519816,-0.003032823,0.006645728,-0.004727671,-0.0034274925,-0.0023653088,0.0043441877,-0.0009219991,-0.005733299,0.0056860754,-0.0028157923,-0.007067535,0.005484786,-0.0016814992
d3,0.08184635,0.04388032,-0.13063006,-0.24386871,0.3813349,0.10167968,0.15042618,-0.13682131,-0.14489356,0.55267096,-0.18020004,0.001247048,0.048095208,-0.11757013,0.10450466,-0.009043255,-0.49972576,-0.22837687,-0.49374792,0.50002164,-0.4060989,-0.32033882,-0.014452559,-0.3594606,0.43258348,0.18806916,0.31221575,-0.010809811,-0.2854088,-0.18308108,0.044922635,-0.13948715,0.39863935,-0.062092535,-0.11746418,0.13139647,0.079806335,0.30360094,-0.3110851,0.3477181,0.07911744,0.062103204,-0.0076879123,0.23612715,-0.0023102239,-0.46073392,-0.11468072,0.055427488,0.1352,0.013934047,-0.21727432,0.29991415,-0.15750194,-0.1442041,-0.2671892,-0.14542536,-0.08254936,0.20260757,0.3513899,0.15495567,-0.2959131,0.070236005,0.049814142,0.033296123,0.043170244,-0.018697625,-0.354937,0.00712078,0.11651498,0.15204418,-0.003274797,-0.3607616,-0.2780408,-0.14461541,0.15181983,-0.23352107,0.099701285,-0.16595149,-0.25045046,-0.6010506,-0.08514874,0.14434516,-0.038680337,-0.054827474,-0.22621119,0.32103086,-0.21941778,-0.20776153,-0.094304025,-0.248312,0.056281287,0.15811695,0.08131341,0.0982552,-0.03291977,0.11806168,-0.008008037,0.2250449,0.1440421,0.1254634,-0.04250995,-0.04772653,0.32143837,-0.48973167,-0.4579997,0.07316153,0.15055455,-0.038517427,0.009331058,0.25709188,0.04738803,-0.41752705,-0.1880102,-0.29234105,0.34729263,0.10975906,0.33091503,-0.06330071,0.092289895,0.046135042,0.0059514586,-0.29074177,0.0766027,0.17610088,-0.3210266,0.33964428,-0.28441817,-0.057635587
d4,0.08686654,0.03621164,-0.15324396,-0.23412557,0.38111976,0.09942459,0.11431606,-0.16522889,-0.11010566,0.5151357,-0.14976358,0.031857565,0.062672235,-0.1291848,0.08884168,-0.03660481,-0.45667833,-0.22378792,-0.48611274,0.5144599,-0.42522284,-0.3169512,0.0017304845,-0.3354901,0.42743552,0.1736965,0.32343525,-0.047636513,-0.27951133,-0.17981306,0.045492273,-0.1355244,0.3902671,-0.09514622,-0.076145105,0.07585271,0.105945036,0.28653944,-0.31301343,0.36122748,0.0958648,0.054323472,-0.023520324,0.26432362,-0.0009393422,-0.425154,-0.08589911,0.044893395,0.11924387,-0.027509058,-0.21439348,0.25992647,-0.1602125,-0.13786538,-0.26357678,-0.14829941,-0.05763053,0.18044433,0.34879854,0.16645649,-0.27253556,0.06542225,0.032477688,0.053167492,-0.009386636,9.711075e-06,-0.34286705,-0.0017615345,0.12616178,0.13154994,-0.033562213,-0.3223808,-0.2580457,-0.15204196,0.140592,-0.23282535,0.10606753,-0.1806818,-0.23466696,-0.594179,-0.074236855,0.14605193,-0.03761605,-0.08227893,-0.23559582,0.2925529,-0.21814018,-0.19751938,-0.09389528,-0.25027102,0.03706627,0.15919335,0.06427526,0.10828068,-0.02384374,0.11644133,-0.003552063,0.21638015,0.15393592,0.13953032,0.006472827,-0.043794867,0.30942562,-0.5048625,-0.45481524,0.04624341,0.16823882,-0.058827944,0.017931104,0.23250227,-0.0022006813,-0.44693974,-0.19979374,-0.28742018,0.36844352,0.12569095,0.28543288,-0.093625635,0.06926679,0.01892229,0.0061637424,-0.28838754,0.050180826,0.1646373,-0.27666703,0.27904224,-0.28171402,-0.079440534
d5,0.0072812713,-0.048854616,-0.010898946,-0.0062496737,0.16545172,-0.036061667,0.07430986,-0.074916616,-0.023844734,0.25063407,0.036123697,-0.063099265,0.051890556,-0.13810219,0.062192574,0.09138797,-0.1372231,-0.012812732,-0.25075543,0.23709492,0.008606815,-0.07663864,-0.0972211,-0.22154213,-0.0078354925,0.09402741,0.010501464,0.06027487,-0.01451228,-0.066254444,-0.10380879,0.011008738,0.10719209,-0.0063601653,-0.025529657,0.116094,0.11132019,0.06572412,-0.017727561,0.131613,0.06192176,0.113727644,0.005889242,0.020993901,0.114632614,-0.13945404,-0.029518157,0.008503407,0.06824047,0.034636077,0.06624239,0.09228462,0.013765299,0.028275833,-0.14150876,-0.085838675,0.06828096,-0.065292746,0.027569572,0.10396424,-0.2244053,0.03276059,0.042573597,-0.026546996,0.13406503,-0.07543795,-0.008241707,0.0179604,0.018697675,-0.016124744,-0.023400016,-0.11671478,-0.20373592,-0.112509675,0.13936745,-0.083931096,0.0070131314,-0.112777315,-0.13354,-0.09227491,-0.08385487,0.012030472,0.11660667,0.12769718,0.028955877,0.19451925,0.047319364,-0.16922587,0.012444836,0.019845916,-0.035808127,-0.019943703,0.034796797,0.040127628,0.06734102,0.09246318,-0.066693574,-0.07702392,0.020647664,0.045364033,-0.12528759,0.05575924,0.077740565,-0.117751345,-0.022936935,0.045215227,-0.0023620313,0.060700823,0.11226953,0.034365818,0.002447842,-0.18107079,-0.05804311,0.005968727,0.060726427,0.05976724,0.1452209,0.022244446,0.0970196,0.03502368,-0.04811963,-0.14583483,-0.09879625,0.09572367,-0.1495813,0.05414216,-0.089628115,-0.0067064976
d6,0.025713183,-0.035967845,-0.023779565,-0.052455388,0.16892979,-0.008565583,0.062865876,-0.082682125,-0.0286796,0.25325078,-0.0097179925,-0.045224182,0.053107835,-0.11556213,0.062199503,0.05885178,-0.16162424,-0.042061545,-0.26549038,0.21903805,-0.06883802,-0.102421954,-0.07103504,-0.19887957,0.05214778,0.07611652,0.04874832,0.029092232,-0.06799763,-0.07336525,-0.04029125,-0.019671522,0.14774409,-0.014825791,-0.03380845,0.093001686,0.09869583,0.09661709,-0.04828813,0.1611097,0.069664106,0.078436375,0.0075285123,0.04190308,0.06644436,-0.15853433,-0.015052494,-0.016042182,0.037500948,0.009227248,0.007349456,0.09772187,-0.028317427,0.008941977,-0.12550183,-0.08314235,0.04145612,-0.033209257,0.08124568,0.121960364,-0.20389776,-0.001937109,0.043526594,-0.004921159,0.07160461,-0.027599962,-0.062870376,0.01912484,0.016461572,0.015885655,-0.016449356,-0.12943204,-0.15957868,-0.08605882,0.11100233,-0.0810936,0.025802651,-0.11183732,-0.12145922,-0.17272568,-0.056169957,0.023141826,0.060364943,0.05530189,-0.0071556177,0.16591856,-0.031521633,-0.12870425,0.010680643,-0.037201,-0.039081648,0.02547721,0.047889385,0.031653102,0.051657595,0.07997223,-0.01053529,0.011120362,0.03347454,0.059231866,-0.08359726,0.029966183,0.085289225,-0.16710207,-0.09104243,0.025687309,0.0436113,0.038873535,0.087738976,0.049438126,-0.0025701383,-0.19462381,-0.073169775,-0.044359233,0.10317259,0.063661575,0.16149414,0.023761414,0.058365647,0.028867453,-0.030526161,-0.12372253,-0.06517534,0.09478282,-0.12918426,0.08302956,-0.12355384,-0.020144703
d7,-0.0011309106,-0.069536015,-0.0014617132,0.013333256,0.19902341,-0.04698093,0.067894034,-0.07681705,-0.019237412,0.27741274,0.034702323,-0.08925554,0.050664548,-0.14185396,0.07252946,0.11936777,-0.15392353,-0.008787242,-0.2931691,0.2663796,0.0322868,-0.08599261,-0.12096352,-0.26052973,-0.028599044,0.101278506,-0.012610879,0.067376174,0.013366329,-0.06909039,-0.1215343,0.0077375085,0.113981076,0.016990757,-0.016588619,0.1411275,0.12281189,0.05044263,-0.015237054,0.15139517,0.08273958,0.12664127,0.010289241,0.0019866573,0.13515462,-0.14049259,-0.04373865,0.0008457142,0.07137073,0.031564992,0.08840444,0.1047976,0.02628165,0.017976224,-0.14568263,-0.08765533,0.083460025,-0.07560942,-0.0052845306,0.10138978,-0.26741982,0.03284456,0.03829898,-0.035307493,0.1701096,-0.09455213,-0.0025999828,0.020454817,0.016122475,-0.037260067,-0.032240883,-0.14212617,-0.23829773,-0.13374846,0.15618813,-0.0822322,-0.012782985,-0.12239875,-0.1577459,-0.100042194,-0.09260559,0.010694908,0.1353508,0.17423584,0.03456849,0.23994626,0.06695866,-0.19081059,0.024153342,0.049778715,-0.02755215,-0.04040573,0.05494023,0.033677287,0.08907058,0.10434442,-0.090227254,-0.10556739,0.022730872,0.049526267,-0.15437867,0.09519883,0.060211405,-0.1084977,-0.008531127,0.04044589,-0.00872755,0.06818652,0.1618625,0.021637784,-0.0067050275,-0.18838575,-0.051621243,0.023538342,0.053614084,0.065250255,0.16110055,0.04777698,0.116519734,0.029245215,-0.053545322,-0.18449609,-0.11202452,0.11682124,-0.18255775,0.053066194,-0.11380853,0.009018361
d8,0.040742178,0.004125707,-0.08216093,-0.1315563,0.22401567,0.038934227,0.08028257,-0.11373067,-0.057861805,0.31957015,-0.054413073,-0.016827717,0.05568996,-0.124866165,0.061337817,0.010767305,-0.25072193,-0.10202854,-0.32853237,0.29027483,-0.19618347,-0.17407201,-0.03534854,-0.2198828,0.17408144,0.10217779,0.14326587,0.0062385593,-0.14994717,-0.09805185,0.0015402678,-0.074044965,0.21634187,-0.05582868,-0.054959025,0.07903604,0.09566848,0.15065643,-0.1350063,0.20930925,0.07552846,0.05051629,0.002334828,0.10927336,0.029228486,-0.22888274,-0.0315023,0.006283296,0.04857812,-0.009321134,-0.08457622,0.14462988,-0.08999477,-0.04379327,-0.16684003,-0.10259855,-0.006907311,0.047645975,0.17875075,0.14166453,-0.19677107,0.0037929302,0.036305327,0.01178165,0.032402102,-0.006877901,-0.15782489,0.005187652,0.048981212,0.0671906,-0.022322148,-0.19448571,-0.15620337,-0.09256762,0.11023198,-0.13315262,0.051764905,-0.12585306,-0.13689531,-0.3165128,-0.043610275,0.05436372,0.0011307015,0.0005028746,-0.08413221,0.18363275,-0.114947736,-0.14442785,-0.023576729,-0.12519552,-0.023810934,0.06823175,0.06433798,0.047076534,0.025102928,0.07929318,0.01072928,0.09536431,0.07216008,0.068473816,-0.048021127,-0.0030536654,0.15519787,-0.26929387,-0.21599121,0.017183812,0.09641774,-0.0063940203,0.052429564,0.11737546,0.002039279,-0.25555328,-0.10739258,-0.13240328,0.19338699,0.08877029,0.1981432,-0.008866028,0.042721283,0.029375967,-0.0050998377,-0.15371634,-0.018043427,0.10199653,-0.16623862,0.1400161,-0.15429708,-0.04283926
d9,-0.0016234788,-0.06497276,-0.009812841,-0.030507408,0.1601773,-0.06937029,0.073161,-0.10086404,-0.013967188,0.2822833,0.04897496,-0.107020356,0.088115536,-0.1791296,0.06603768,0.12464323,-0.11376736,0.0037493943,-0.33646166,0.21683167,0.04538463,-0.09508471,-0.12947106,-0.23178405,-0.0948979,0.09321329,-0.025770793,0.076433055,-0.02508283,-0.08587571,-0.09166031,-0.012840427,0.15322658,0.0035564343,-0.036005173,0.14464584,0.138769,0.06427448,0.009756289,0.16496493,0.08578429,0.1001889,0.016659835,0.0047772136,0.109430596,-0.11534596,0.016714599,-0.03661927,0.003498847,0.011700362,0.08953811,0.08082168,-0.010655208,0.074162416,-0.13599773,-0.11451,0.09666585,-0.14500087,0.017743,0.16936618,-0.29067695,-0.038325064,0.056630854,-0.031518206,0.120776385,-0.060033567,0.031285007,0.022305902,-0.02153594,-0.020904055,-0.011826315,-0.10484449,-0.19664815,-0.07922406,0.15142368,-0.052574437,0.021716261,-0.14195411,-0.10995102,-0.11230727,-0.08978001,-0.015151144,0.12607953,0.1378646,0.04764547,0.20470496,0.014654002,-0.15403877,0.04714382,0.028731707,-0.105054535,-0.015072849,0.07731,0.013270041,0.13652761,0.09883801,-0.021326017,-0.051125668,-0.008174691,0.05744133,-0.15293775,0.07502357,0.026233507,-0.09598545,-0.0043203235,0.019672904,0.029444002,0.08307098,0.159069,0.015251368,-0.012962615,-0.18476425,-0.09061082,0.025530094,0.06916683,0.08919232,0.16769381,0.06935928,0.08560332,0.03014964,-0.037879225,-0.116429254,-0.1621325,0.10664522,-0.11557469,0.03777123,-0.11600236,0.0033798693
d10,0.037058588,0.0014638477,-0.060587242,-0.08756167,0.17202345,0.029552696,0.05332008,-0.08403783,-0.04295438,0.22430629,-0.025563259,-0.002058826,0.045814928,-0.09882172,0.046992842,0.010941685,-0.17482181,-0.08168473,-0.24503896,0.2196911,-0.1479142,-0.12119404,-0.020096395,-0.16907647,0.13834687,0.07871228,0.110013485,-0.0053309263,-0.10349941,-0.08266367,-0.0070606186,-0.044579882,0.15895364,-0.051777434,-0.038583193,0.06113025,0.08437834,0.119493775,-0.11026426,0.16214132,0.062337097,0.044056486,-0.0069486205,0.0914413,0.03146552,-0.18355507,-0.023091514,0.0052039204,0.041735355,-0.022675386,-0.051323872,0.09587399,-0.067287885,-0.032572083,-0.12340834,-0.08691488,7.4101845e-06,0.025318958,0.14188074,0.11586145,-0.14839652,0.017492058,0.014712239,0.005118928,0.013588318,-0.009360274,-0.11446894,0.016573045,0.03913583,0.044457585,-0.020029003,-0.14784944,-0.11963052,-0.073601626,0.09448666,-0.10589145,0.046795804,-0.09180574,-0.10916556,-0.23747356,-0.041765764,0.045889873,0.0034958548,-0.0048501217,-0.07542089,0.14355133,-0.07210905,-0.11629101,-0.025321024,-0.09024496,-0.011230681,0.062286068,0.04092698,0.043526344,0.01336133,0.0688142,0.008404972,0.07452641,0.06715159,0.056882627,-0.025518654,0.0049673636,0.12420175,-0.2072725,-0.16587612,0.017420001,0.0766355,-0.006258813,0.035507753,0.085387364,0.002407758,-0.1935187,-0.07724028,-0.09242816,0.16089244,0.064340405,0.1468946,-0.019038813,0.03040779,0.008288633,-0.013563478,-0.12071817,-0.021497354,0.0760068,-0.116823435,0.09854987,-0.12276143,-0.028076448
d11,-0.00017968539,-0.05283989,-0.00773732,-0.01401493,0.16167575,-0.047348082,0.06122501,-0.082573585,-0.010861984,0.25340915,0.043968577,-0.06839563,0.0573069,-0.14607027,0.062201463,0.092761055,-0.13787381,-0.013815248,-0.275251,0.23299606,0.007301218,-0.08469675,-0.11482372,-0.22698933,-0.025478413,0.08435587,0.0012173492,0.06152783,0.007416783,-0.07021969,-0.08872281,-0.0052623553,0.09875763,-0.009163519,-0.019198706,0.12561923,0.11104504,0.0579631,-0.004413904,0.13710125,0.07324531,0.112553984,0.0065835244,0.0007159587,0.11773421,-0.13468306,-0.012732944,0.0004540469,0.044714607,0.037927974,0.07055383,0.08067219,0.0019418286,0.025808312,-0.13403729,-0.078311495,0.088289715,-0.07616246,0.019780966,0.118670546,-0.23372078,0.012546271,0.033215143,-0.022473728,0.12885407,-0.071249425,0.012427723,0.013965396,0.001279548,-0.0254617,-0.03409397,-0.11910861,-0.202712,-0.09695873,0.14642733,-0.07023201,0.008070404,-0.12803209,-0.122606546,-0.082626395,-0.07339398,-0.001859075,0.11538806,0.14142969,0.029819472,0.19721523,0.044729155,-0.17574134,0.033690263,0.023800565,-0.031662542,-0.04096761,0.04674438,0.04319849,0.07551561,0.08172849,-0.04671115,-0.064190514,0.013041548,0.036737602,-0.13394697,0.071039714,0.06879939,-0.10630956,-0.004631045,0.019311065,-0.003132494,0.05504971,0.12376003,0.029035138,-0.0057032662,-0.17944494,-0.04685457,0.017548565,0.059769627,0.0727293,0.15007435,0.03535373,0.09181803,0.03371655,-0.04089739,-0.14120804,-0.11325775,0.09832041,-0.14578958,0.03504596,-0.09011867,0.0033668734
d12,-0.0047233836,-0.06758458,-0.010793362,-0.043234624,0.18988512,-0.04305547,0.084478416,-0.12724862,-0.026660562,0.31218174,0.04301712,-0.10521005,0.095845,-0.20108736,0.06919131,0.12183031,-0.12414421,0.009094297,-0.37281382,0.2211105,0.05256853,-0.102423504,-0.13846806,-0.23989332,-0.09155886,0.10850324,-0.014575986,0.092108786,-0.041949153,-0.09901171,-0.08919123,-0.01464655,0.17174365,-0.011888251,-0.04308172,0.17049314,0.15083484,0.059981138,0.0138509385,0.1656797,0.11615354,0.107891865,0.0072954055,-0.009030675,0.124000765,-0.11852863,0.02740396,-0.068406366,0.0016122311,0.025609924,0.097840905,0.08556703,-0.009351447,0.068214,-0.16036719,-0.13615292,0.10890987,-0.14557467,0.025280433,0.2013964,-0.29497865,-0.035866152,0.07853779,-0.01498166,0.14324033,-0.03590052,0.04165596,0.02501607,-0.027858071,-0.024593938,-0.01482362,-0.12610371,-0.18192455,-0.087672085,0.15394512,-0.06731166,0.02192559,-0.1480276,-0.12561134,-0.115766406,-0.088621244,-0.033336367,0.10658531,0.12105803,0.048667036,0.19693372,-0.00017858401,-0.17552568,0.03436967,0.0042075324,-0.10539877,-0.014999237,0.09563109,0.011136786,0.13902923,0.10204954,0.007222468,-0.05577802,-0.0010454264,0.055143163,-0.15040553,0.06914608,0.027973084,-0.11761714,-0.010965604,0.027862687,0.04048709,0.11507212,0.16823374,0.018818213,0.010153388,-0.19967696,-0.09869581,0.013272713,0.083432384,0.079368204,0.20305347,0.08652454,0.09005965,0.04338603,-0.05559095,-0.13657428,-0.15804349,0.116261475,-0.13049653,0.045950554,-0.122532666,0.008398096
d13,0.058345646,0.0045775524,-0.09912149,-0.15565053,0.24991558,0.057654407,0.06953635,-0.1227438,-0.057351865,0.35331252,-0.08037894,0.014274373,0.05339235,-0.12880754,0.05254454,-0.013933374,-0.28262848,-0.13742936,-0.3466824,0.33333793,-0.2614481,-0.19140667,-0.014840545,-0.23573166,0.23877123,0.11833645,0.20202485,-0.010044708,-0.17521909,-0.11449534,0.020068254,-0.08954913,0.26361516,-0.06555494,-0.054076143,0.07390782,0.11107378,0.18599872,-0.18899082,0.24860775,0.079989314,0.043190047,-0.008434605,0.14906976,0.011630857,-0.2659812,-0.05042617,-0.0012742755,0.04996989,-0.03304998,-0.11483301,0.16590154,-0.10738932,-0.05961947,-0.18702029,-0.11987727,-0.018072704,0.075264744,0.23652838,0.15537377,-0.1907059,0.014372578,0.01912582,0.02784185,-0.006161969,0.011475619,-0.20022798,0.006805618,0.059696976,0.088852264,-0.02537992,-0.22274345,-0.1614715,-0.10510858,0.10918906,-0.1563267,0.07809545,-0.14127643,-0.14192902,-0.3822487,-0.04149801,0.07583013,-0.015876018,-0.04246715,-0.13087408,0.20292139,-0.14660566,-0.14905667,-0.04283469,-0.16726828,-0.012192591,0.10317219,0.06603892,0.06982775,0.005150664,0.09585833,0.022532778,0.13993987,0.10374597,0.07991986,-0.011999161,-0.016070433,0.19805051,-0.32634497,-0.28062093,0.020203741,0.12858124,-0.028102947,0.033296846,0.1386784,-0.0049638273,-0.29727966,-0.14079015,-0.17212522,0.24765533,0.089649245,0.203218,-0.034577694,0.04298731,0.010703112,0.007834035,-0.18100771,0.003929851,0.1103578,-0.1715307,0.16430528,-0.18477812,-0.056316603
d14,0.05732454,0.045082927,-0.08633812,-0.22720413,0.25760904,0.06672441,0.111732095,-0.13742478,-0.103492305,0.4407442,-0.09901611,-0.009432217,0.052074816,-0.1421953,0.053878803,-0.021964282,-0.3323738,-0.12051229,-0.427566,0.34093025,-0.2834229,-0.23560958,-0.01298499,-0.25562418,0.27524015,0.11230393,0.2374975,0.007133014,-0.23330832,-0.12376801,0.047640916,-0.11238925,0.36140764,-0.08471901,-0.07477024,0.11332189,0.0757416,0.22855788,-0.20999002,0.27774256,0.08192743,0.041495766,0.0006823588,0.14968601,0.0075798286,-0.31532407,-0.048682492,0.011928072,0.08044225,0.008536676,-0.1607641,0.21107109,-0.13628471,-0.0708354,-0.20249093,-0.13309792,-0.04077162,0.07584547,0.29055592,0.19700326,-0.23763925,9.973277e-05,0.06313025,0.04030315,0.00899777,0.024082918,-0.22262205,-0.022031259,0.06881925,0.12181553,-0.019930927,-0.2332295,-0.1627254,-0.06661937,0.10995929,-0.16139716,0.09723022,-0.14375319,-0.17313837,-0.45283228,-0.06476141,0.07787601,-0.021136578,-0.068249516,-0.14724962,0.22346412,-0.1989819,-0.15025838,-0.044059057,-0.18268263,-0.00085213187,0.12395311,0.0894077,0.058052797,-0.005629371,0.09952022,0.042781185,0.17819771,0.058285497,0.084977776,-0.024114806,-0.021091375,0.22481546,-0.37872067,-0.33108133,0.0272157,0.14871211,-0.0046154005,0.015734186,0.20401908,0.021060208,-0.31988084,-0.1667966,-0.205561,0.26828972,0.11169398,0.26020345,-0.010732181,0.040913638,0.045147732,0.0029938207,-0.1748914,0.009165326,0.12921524,-0.1892314,0.22158225,-0.19370066,-0.03007822
d15,0.030968057,-0.010750041,-0.059447967,-0.10783113,0.21509324,0.009558341,0.069743626,-0.105776854,-0.043712795,0.3202,-0.032310788,-0.035746414,0.06650039,-0.1236137,0.0697227,0.037071027,-0.22660029,-0.09466591,-0.31859604,0.2726772,-0.14434719,-0.15603633,-0.048281446,-0.21707152,0.12724297,0.0956437,0.10775153,0.014643297,-0.12553848,-0.105536,-0.019405562,-0.05920544,0.20812559,-0.044605874,-0.04905153,0.0904826,0.10564375,0.14204235,-0.11609296,0.20564845,0.062212083,0.059249204,-0.007261413,0.103008054,0.041592542,-0.2049451,-0.021843899,-0.009281358,0.044345945,-0.0045516193,-0.039453793,0.13406031,-0.064087085,-0.0297836,-0.15469512,-0.118663855,0.019818377,0.024597526,0.14303495,0.14406851,-0.22513354,0.005760013,0.0395347,0.009672094,0.057121143,-0.013484538,-0.123665445,0.015069448,0.036802165,0.04141562,-0.022653969,-0.17972195,-0.17123237,-0.08919669,0.12601338,-0.12709309,0.03754016,-0.12049371,-0.1460165,-0.26547772,-0.05991799,0.037345864,0.020219047,0.022521513,-0.0631689,0.18873942,-0.07869521,-0.15183114,-0.018560197,-0.10317435,-0.035204045,0.049798336,0.063900344,0.0524098,0.059123017,0.076580554,0.0036778874,0.060892552,0.05826764,0.06566169,-0.05448229,0.019573057,0.13549905,-0.23760019,-0.16919868,0.024149513,0.07780605,0.007961242,0.065755874,0.09460779,0.004730491,-0.24679878,-0.11382792,-0.10518419,0.17504889,0.085133895,0.1922956,0.014031948,0.06157153,0.024676882,-0.022258615,-0.16164732,-0.044679426,0.10589775,-0.1486413,0.12770845,-0.14564626,-0.036454685
d16,0.043815836,0.0060999114,-0.072051056,-0.13356693,0.22788185,0.03763395,0.07972711,-0.099586934,-0.06566231,0.3213233,-0.06605634,-0.0070188665,0.060007967,-0.12169281,0.05717144,0.008210909,-0.25413346,-0.112822644,-0.32585156,0.29760835,-0.20332797,-0.17383924,-0.03449561,-0.23245858,0.197761,0.1001309,0.16062258,-0.002870775,-0.1378285,-0.11007053,0.002448077,-0.07035346,0.23774877,-0.050279986,-0.05254003,0.07729093,0.09754699,0.15173146,-0.13882948,0.21008725,0.07404766,0.06266811,-0.0116385985,0.12826177,0.03423982,-0.24264632,-0.037883457,0.01568204,0.0695462,0.002889311,-0.07453403,0.15285118,-0.08564392,-0.04102827,-0.17121457,-0.09191856,-0.008486674,0.06592086,0.18897402,0.12419573,-0.21066165,0.01916522,0.037916202,0.014607142,0.027449545,-0.015640847,-0.15773234,0.00950672,0.05213876,0.06649545,-0.020627461,-0.19491684,-0.17014202,-0.091312386,0.11810537,-0.124526,0.060254745,-0.13516186,-0.15577216,-0.31465062,-0.05992751,0.058171064,0.015349471,0.0016943612,-0.09191094,0.19434518,-0.10086524,-0.14560078,-0.035546895,-0.11974222,-0.013226352,0.07227869,0.057609424,0.052907128,0.023639368,0.08389,0.00033047542,0.098670006,0.07993196,0.08201521,-0.035922207,-0.008397341,0.16583595,-0.28347597,-0.22353356,0.029489398,0.102573,0.0016416932,0.04739644,0.12533496,0.0047671376,-0.26692653,-0.123019576,-0.14054118,0.19346121,0.08120495,0.20220573,-0.02478707,0.056814734,0.021683605,-0.010646234,-0.16565649,-0.015099575,0.110703744,-0.16300042,0.14077984,-0.16511711,-0.048545167
d17,0.048915762,-0.0183834,-0.08425515,-0.101637185,0.2435763,0.037296493,0.057947747,-0.10074357,-0.03960853,0.30827156,-0.02758979,0.0017255505,0.058326676,-0.13465217,0.04439687,0.019581016,-0.23288776,-0.084370315,-0.32785532,0.29580724,-0.17304686,-0.16186,-0.04374573,-0.22704172,0.14343028,0.1032408,0.12825318,0.012039367,-0.1264722,-0.10251276,-0.011747378,-0.056474324,0.19905834,-0.055444755,-0.0495867,0.09600181,0.11182951,0.15167794,-0.11839,0.21348706,0.085119314,0.04842598,0.00023394561,0.10407603,0.031902596,-0.21785527,-0.031683307,-0.0020326003,0.040584844,-0.021177804,-0.06763767,0.13059628,-0.07402653,-0.020895662,-0.17437409,-0.110556915,0.009525269,0.020804506,0.17029496,0.14366618,-0.19576323,0.006203086,0.01150242,0.02187938,0.036125798,-0.020150509,-0.14181384,0.00365555,0.036059473,0.047407176,-0.041310526,-0.18250449,-0.16758256,-0.095450126,0.13852935,-0.13062301,0.052164257,-0.12845296,-0.14469975,-0.28717595,-0.045921266,0.04912153,0.006274526,0.003589774,-0.07474124,0.20308457,-0.079258606,-0.14963445,-0.017095326,-0.10450157,-0.018796457,0.06842196,0.057050727,0.072719604,0.044557415,0.086979024,0.0049238084,0.07013934,0.06789591,0.073781386,-0.048726596,0.0014577215,0.14991874,-0.2622099,-0.18031654,0.021216275,0.098553285,0.007410496,0.07219714,0.10454033,-0.0076016113,-0.26058805,-0.10775243,-0.11170652,0.18700427,0.08239472,0.18463413,-0.009228357,0.052928846,0.0026399149,-0.011410634,-0.15116118,-0.047367916,0.100163974,-0.15375777,0.10998446,-0.16044806,-0.039976005
d18,0.081785545,0.014515431,-0.11405242,-0.21112698,0.31417137,0.0665137,0.113049455,-0.13404195,-0.10452709,0.450549,-0.15647507,0.009409166,0.098788254,-0.11450543,0.1007411,-0.0115947155,-0.39790592,-0.2002592,-0.47337514,0.40627375,-0.29120728,-0.2543539,-0.05874074,-0.30294403,0.3040028,0.16055518,0.21698706,-0.034657463,-0.24117048,-0.18215623,0.038938574,-0.1445095,0.3272338,-0.061404653,-0.10176512,0.1382868,0.10185691,0.27199656,-0.27787572,0.30409068,0.06731318,0.03348408,0.020296834,0.20446838,-0.032385558,-0.35426015,-0.032887932,0.005948008,0.05182652,-0.039373208,-0.13968559,0.22567716,-0.14733501,-0.12797228,-0.20313697,-0.1510911,-0.058185298,0.15209103,0.27804062,0.15447733,-0.2985848,-0.0008745824,0.040183436,0.017643,0.04046501,0.027687747,-0.2719375,0.018074267,0.058794886,0.116448395,0.009727265,-0.31350237,-0.20525216,-0.1271626,0.14322536,-0.21806067,0.052745868,-0.16137877,-0.18314159,-0.5075486,-0.071608394,0.09561936,-0.06980855,-0.072435305,-0.16988014,0.2365198,-0.23120238,-0.15694767,-0.060776025,-0.2049917,-0.018422814,0.14337601,0.09894917,0.07295684,0.06934045,0.084170796,0.03527746,0.18311147,0.13767661,0.09964633,-0.0518125,-0.0066369115,0.23472418,-0.41439214,-0.35486776,0.029314829,0.14975786,-0.041520063,0.023586478,0.2031286,0.038460057,-0.38893217,-0.20523152,-0.22828434,0.29504558,0.11452978,0.2553715,-0.012491349,0.055995215,0.02933163,-0.0011679154,-0.24081056,0.008202927,0.14898558,-0.23004834,0.26079983,-0.26020947,-0.07345668
d19,0.0921944,0.040647384,-0.18438518,-0.26546818,0.38376316,0.09733502,0.101289414,-0.19782944,-0.10766154,0.5237835,-0.14959462,0.036922257,0.11089922,-0.19383915,0.067875974,-0.021833355,-0.42387408,-0.20769224,-0.5435152,0.49136865,-0.405299,-0.30939448,-0.012068419,-0.32698014,0.39523917,0.14767663,0.30098107,-0.04080955,-0.31250954,-0.17796384,0.053205002,-0.13587826,0.4258027,-0.12724079,-0.11289231,0.1210052,0.15933508,0.30054554,-0.28877512,0.3828754,0.13085799,0.041512646,0.0051146145,0.25419343,-0.030346937,-0.4141489,-0.046485484,-0.01266942,0.062152926,-0.06282926,-0.20456272,0.23914228,-0.18421133,-0.1019413,-0.27591547,-0.19915767,-0.054257277,0.13400629,0.37550524,0.2533321,-0.30848485,0.010793078,0.019487338,0.06549811,-0.026215883,0.030095037,-0.31099516,0.0010549644,0.09074951,0.16627884,-0.04574121,-0.33708066,-0.21106549,-0.13252868,0.17220844,-0.2457859,0.118564725,-0.21708348,-0.21224365,-0.6212171,-0.06555161,0.097154446,-0.07923807,-0.08769418,-0.20654175,0.27425554,-0.27922556,-0.17827672,-0.04621262,-0.2818911,-0.010172775,0.17451976,0.0908757,0.10989126,0.028079662,0.11324858,0.07739455,0.24892199,0.12645984,0.11969062,0.0010373052,-0.047036927,0.28644356,-0.53763664,-0.44882873,0.031967342,0.21912463,-0.034270488,0.02954234,0.23200062,0.003326473,-0.4490314,-0.22483079,-0.28051367,0.38487485,0.15140514,0.30725667,-0.05165362,0.036316413,0.0085179,0.020462684,-0.22834004,0.0038274492,0.16821074,-0.23611961,0.25462797,-0.27874884,-0.08473894
d20,0.02838343,0.058478862,-0.057636213,-0.27096987,0.22553906,0.05234284,0.12590934,-0.15437633,-0.12679397,0.5182775,-0.1431045,-0.036228333,0.05117348,-0.13253064,0.04849553,-0.00086078316,-0.34711695,-0.09945157,-0.4802455,0.3308044,-0.2529924,-0.2608263,-0.026666997,-0.28095844,0.25397873,0.13947946,0.24082616,0.03971112,-0.26714006,-0.13131756,0.034067675,-0.1608729,0.4216432,-0.0784127,-0.12237183,0.1440594,0.03706551,0.22986332,-0.2207961,0.254631,0.0741035,0.026154803,0.020346507,0.13602386,-0.019737247,-0.3270201,-0.060658026,0.0049078474,0.100010075,0.04189357,-0.17465828,0.22685236,-0.13590893,-0.09601572,-0.19441997,-0.14112651,-0.05182786,0.065296695,0.28420535,0.1811932,-0.2895377,0.0009781545,0.11018076,0.03540064,0.037654307,0.029772937,-0.20295861,-0.03266769,0.043063514,0.12327039,-0.016951386,-0.22731918,-0.15976475,-0.0527063,0.10136692,-0.14175251,0.10957413,-0.15454207,-0.17678566,-0.46734327,-0.051324856,0.07636316,-0.012317438,-0.07703202,-0.14622062,0.23936237,-0.21438052,-0.15211447,-0.066823766,-0.18140432,-0.014000772,0.13930869,0.09893242,0.02095907,-0.026876332,0.12084171,0.035440475,0.1815582,0.01627653,0.07719114,-0.054816145,-0.022320379,0.22512093,-0.37725613,-0.34236345,0.04576053,0.15847346,0.034742177,0.009980205,0.24690968,0.053068396,-0.3168916,-0.20995578,-0.20465535,0.23860663,0.107423335,0.285008,0.01790941,0.071913026,0.050752126,0.0050301994,-0.17449816,0.030763298,0.14482552,-0.19832991,0.26671207,-0.18772532,-0.008242352
d21,0.10160421,0.0004837439,-0.20180073,-0.23351203,0.45589083,0.08753314,0.06594222,-0.17943762,-0.056776594,0.4673083,-0.037335694,0.039416697,0.11514953,-0.23589271,0.057324648,-0.039080106,-0.42348647,-0.2507683,-0.50661254,0.53198993,-0.44699466,-0.29654124,0.013744398,-0.3185502,0.39033496,0.15642634,0.31536767,-0.06691178,-0.26464984,-0.19040823,0.024301475,-0.12282425,0.32154426,-0.13113448,-0.046781376,0.029730741,0.23730622,0.2845027,-0.27297768,0.38147357,0.14527318,0.07380089,-0.051141918,0.2878634,0.049965844,-0.43609786,-0.030989883,-0.011992278,0.037054982,-0.11624106,-0.16299148,0.20018736,-0.20184281,-0.07520727,-0.3177508,-0.18968415,0.0028693778,0.1128763,0.37298137,0.25130713,-0.25670978,0.051075228,-0.032848123,0.027178243,-0.076326765,0.042433787,-0.31493008,0.03141908,0.1137635,0.14524162,-0.07685895,-0.35189152,-0.2348661,-0.18185946,0.1988011,-0.25481027,0.12739609,-0.2453082,-0.20001581,-0.56766266,-0.058640815,0.11099976,-0.035332594,-0.0504194,-0.17779651,0.24902245,-0.19972181,-0.23364374,-0.05575313,-0.28565857,-0.056690536,0.16161358,0.07927774,0.09959299,0.031683646,0.13878277,0.08457485,0.21688648,0.2110648,0.14998691,0.004817848,-0.04406113,0.27412793,-0.53195226,-0.4396345,0.016182583,0.20798759,-0.054913323,0.03866701,0.14925404,-0.044611868,-0.45394114,-0.17350215,-0.2771868,0.44432178,0.15541139,0.29114857,-0.086006984,0.037306737,-0.004467562,0.010166069,-0.24951005,-0.00699667,0.15272482,-0.23276925,0.16622816,-0.2724075,-0.1143205
d22,0.10919785,0.005628859,-0.19172376,-0.21659754,0.3828239,0.076984674,0.042166535,-0.17155395,-0.045707196,0.44419327,-0.054357708,0.055126768,0.12456727,-0.22470295,0.03436829,-0.04454596,-0.35408852,-0.20202495,-0.5122093,0.44661376,-0.3616919,-0.2814161,-0.0047489027,-0.2833003,0.3028112,0.121821925,0.28841335,-0.06324603,-0.26303285,-0.18020262,0.065775536,-0.11179447,0.3113945,-0.1328997,-0.060587004,0.0672418,0.2124197,0.2841904,-0.24234216,0.37911355,0.14926787,0.031614844,-0.0043031825,0.22918373,0.010074803,-0.33528742,-0.033987403,-0.044036448,-0.010184356,-0.11610963,-0.13951935,0.16466601,-0.17995156,-0.05148381,-0.27183184,-0.19780871,-0.005666107,0.074135244,0.35483983,0.28987122,-0.25339156,-0.03493406,-0.028012862,0.054359544,-0.06873628,0.045387927,-0.26775938,0.013301678,0.073581904,0.14005336,-0.056929227,-0.2990568,-0.17077722,-0.12771119,0.18455859,-0.244067,0.111185685,-0.22811122,-0.16836701,-0.5394159,-0.026636103,0.072114915,-0.07769489,-0.08258223,-0.16595313,0.21764852,-0.2272319,-0.18869856,-0.041727006,-0.26599047,-0.049739357,0.17307907,0.11333763,0.12496407,0.06563874,0.10427882,0.09979151,0.2085957,0.14851801,0.12982196,-0.004662748,-0.0364904,0.25562567,-0.4700654,-0.37593395,-0.017711889,0.22882162,-0.04711194,0.059667088,0.15768333,-0.04836606,-0.4361803,-0.1728779,-0.2543131,0.394751,0.17553185,0.25586513,-0.036156826,0.023398757,-0.00073132705,0.0120807905,-0.19443022,-0.034046818,0.14596428,-0.16673557,0.13194133,-0.25116143,-0.093829505
d23,0.08589612,0.02250472,-0.1504008,-0.23202728,0.38867846,0.1022787,0.10934387,-0.17360488,-0.089118116,0.50897026,-0.107090674,0.033087682,0.09433846,-0.1761204,0.08047426,-0.026885299,-0.4320294,-0.20980364,-0.50793856,0.49080005,-0.40274176,-0.28789815,-0.012761753,-0.34266594,0.3767159,0.14363156,0.2979976,-0.03417902,-0.2661341,-0.15597115,0.059865758,-0.11315308,0.35978714,-0.11791344,-0.08183831,0.11097035,0.15908182,0.29570815,-0.28958556,0.3527875,0.1177813,0.054790217,-0.0028145136,0.23647808,-0.001948327,-0.39752433,-0.0783951,0.014280635,0.08088097,-0.030407844,-0.1891185,0.22949028,-0.16381359,-0.09190866,-0.28030732,-0.15771241,-0.04500981,0.12775564,0.35680503,0.2106133,-0.2750278,0.024168598,0.019966727,0.039075352,-0.028771505,-0.006259828,-0.31531128,0.015458476,0.10374998,0.13240814,-0.043876495,-0.3352209,-0.2348674,-0.14670327,0.18342845,-0.24537352,0.10820509,-0.19282815,-0.22151114,-0.5679211,-0.0545238,0.11833804,-0.039328072,-0.062264714,-0.19387603,0.28578883,-0.20829374,-0.19317257,-0.06639995,-0.25049382,0.0060771066,0.14552392,0.09994477,0.12209801,0.011338043,0.10990659,0.043743387,0.21991418,0.15343149,0.1163683,-0.01734801,-0.047526866,0.29281333,-0.48446882,-0.41198248,0.04204733,0.18170306,-0.042708654,0.031333413,0.22153434,-0.0027539148,-0.43129376,-0.19593161,-0.27063215,0.35983184,0.13687755,0.301084,-0.05973151,0.04875361,0.022092458,0.022714315,-0.24376757,0.016684396,0.15538634,-0.2592109,0.23213522,-0.27951396,-0.0818691
d24,0.087876424,0.018423874,-0.13046578,-0.22537228,0.351023,0.0847607,0.10718718,-0.15677746,-0.09723473,0.46741936,-0.11420491,0.015803233,0.065389246,-0.14619008,0.08313667,-0.025962451,-0.39752254,-0.18935367,-0.4548927,0.4500201,-0.36919057,-0.2734102,-0.00408482,-0.30975777,0.35094666,0.14345925,0.28410086,-0.0331187,-0.25015703,-0.16101828,0.036167294,-0.12497749,0.3491109,-0.09065249,-0.085172035,0.08995567,0.117324814,0.2580969,-0.26045313,0.3277018,0.08979638,0.050786655,-0.01697069,0.2067124,0.0020303682,-0.37640187,-0.06097524,0.0117664905,0.0870445,-0.025491757,-0.17840438,0.23009124,-0.13871917,-0.09387412,-0.24558909,-0.14105329,-0.05084218,0.13681327,0.31860918,0.1830513,-0.26181278,0.040960588,0.025134942,0.049110755,-0.00626565,-0.0009906697,-0.2857202,0.0039026856,0.10438741,0.12819417,-0.023693096,-0.3071427,-0.21673298,-0.13474935,0.14373788,-0.21358441,0.100400425,-0.1748097,-0.20224498,-0.529689,-0.053130366,0.11001964,-0.039265614,-0.07080492,-0.186789,0.25723854,-0.2058239,-0.17851761,-0.06371636,-0.22489168,0.0031708225,0.145213,0.08344029,0.09788657,0.004978378,0.11620437,0.026432047,0.19606048,0.13063498,0.12045026,-0.021122117,-0.027443714,0.26826844,-0.45146322,-0.39648858,0.040662114,0.17635114,-0.040592156,0.03472342,0.19404696,0.00041965066,-0.39918578,-0.18533096,-0.24121767,0.33132684,0.11553875,0.28143463,-0.0586538,0.06622142,0.020575471,0.0084875105,-0.2362069,0.028612822,0.15740737,-0.24465147,0.23098437,-0.25294578,-0.06707356
d25,0.1322244,-0.0056852177,-0.26837158,-0.28240535,0.519171,0.10679171,0.06632853,-0.23017803,-0.04680155,0.5360902,-0.051303927,0.0810395,0.13881329,-0.2856387,0.06686029,-0.042924516,-0.4685204,-0.26306894,-0.5964726,0.5741624,-0.48974362,-0.3428042,0.025771942,-0.3516366,0.41622102,0.15061377,0.36314207,-0.075465925,-0.31538096,-0.23937143,0.057176698,-0.145531,0.37926546,-0.16912432,-0.082069665,0.05136871,0.2892159,0.34916204,-0.31285387,0.46926716,0.17765182,0.051977668,-0.029433444,0.31541526,0.034146827,-0.463525,-0.019765664,-0.04317546,0.019618602,-0.15102442,-0.20248443,0.2097504,-0.23072079,-0.0644512,-0.3504287,-0.22425438,-0.013938024,0.11077146,0.45099804,0.3311926,-0.29458806,0.008895451,-0.04649432,0.060246523,-0.10899872,0.06498288,-0.3543036,0.028281292,0.10870622,0.18368849,-0.08106896,-0.38626242,-0.22808433,-0.1924316,0.22828871,-0.3010217,0.13997084,-0.28031737,-0.21110776,-0.6884008,-0.049181163,0.1027261,-0.07983315,-0.09283805,-0.21317106,0.27118272,-0.27194187,-0.24150921,-0.039320655,-0.3409701,-0.071716875,0.19010039,0.11101706,0.13115259,0.054939985,0.13403846,0.14048792,0.25814137,0.21139294,0.16123241,0.01239616,-0.041337755,0.32275024,-0.6132739,-0.5131388,-0.0026969798,0.2556683,-0.068047345,0.067238465,0.18230547,-0.056992147,-0.54143065,-0.21109226,-0.3217046,0.5163073,0.19891444,0.3474302,-0.07028618,0.020566953,-0.009658865,0.029606277,-0.24630524,-0.029955855,0.1728213,-0.23042004,0.18312326,-0.31856263,-0.13949946
d26,0.060639612,0.010903746,-0.09417762,-0.16030987,0.34967074,0.06262895,0.12747607,-0.10856273,-0.09984847,0.44060415,-0.11336394,0.0036157465,0.060568213,-0.11373334,0.090458184,0.004150253,-0.41191894,-0.2423381,-0.41145286,0.46478006,-0.3665173,-0.2508287,-0.02915791,-0.31449193,0.36582,0.16886587,0.23814571,-0.03094917,-0.21527502,-0.16899411,-0.0034741207,-0.10390013,0.29462427,-0.054039378,-0.06994267,0.05478214,0.076460354,0.21990405,-0.2701902,0.30026087,0.0691464,0.08422493,-0.01798167,0.20076352,0.017630074,-0.39583403,-0.123153664,0.059204265,0.14163597,-0.007325735,-0.16151938,0.25087088,-0.12754731,-0.114347346,-0.24521041,-0.102299586,-0.04871758,0.18537429,0.2627283,0.10846299,-0.24897529,0.0967507,0.018194132,0.013845611,0.053096917,-0.021998545,-0.3176298,0.015064058,0.1091618,0.116974995,-0.005093877,-0.2999528,-0.26663184,-0.16753449,0.14666264,-0.20925802,0.07199205,-0.15262353,-0.2234217,-0.46306515,-0.06229721,0.14414018,-0.018028012,-0.016344756,-0.18300518,0.2992649,-0.1564054,-0.19400308,-0.1043892,-0.18157567,0.04667398,0.11589712,0.04991675,0.089847334,0.00095830497,0.12617776,-0.027832007,0.160876,0.14973062,0.1152533,-0.01898627,-0.029380273,0.23801742,-0.4160057,-0.37441084,0.05459135,0.14826155,-0.04094745,0.02859714,0.19812219,0.017091494,-0.38142127,-0.16201118,-0.23795576,0.30240062,0.08553719,0.24480852,-0.08963371,0.09324042,0.039198678,-0.020952305,-0.28304544,0.06257002,0.13048862,-0.27887765,0.2790924,-0.2246945,-0.07214025
d27,0.12063265,-0.0007774977,-0.22987664,-0.23487717,0.48287907,0.10212395,0.053851876,-0.19573472,-0.052744184,0.48709124,-0.06630225,0.075469606,0.12075204,-0.22891334,0.061254613,-0.0331396,-0.43380344,-0.2626474,-0.523762,0.57609737,-0.47477266,-0.32297668,0.03249826,-0.3288119,0.41389182,0.15254311,0.34668064,-0.08711953,-0.2736341,-0.20310761,0.039009128,-0.11834172,0.3196925,-0.14612375,-0.054546997,0.03677385,0.25113326,0.32507154,-0.30251402,0.4174196,0.14032449,0.075145796,-0.02619154,0.30516773,0.030326044,-0.4504399,-0.04572194,0.004526428,0.058314417,-0.13081391,-0.18860759,0.19871359,-0.18823077,-0.08979036,-0.32610297,-0.19604905,-0.008465799,0.14359494,0.40861404,0.26491156,-0.25780982,0.048419897,-0.059608944,0.052560885,-0.08082626,0.027383853,-0.35518062,0.026766535,0.13060236,0.1513465,-0.079079896,-0.36423692,-0.25413507,-0.2056497,0.2056623,-0.2903453,0.12213868,-0.2584811,-0.2084972,-0.6211892,-0.042526692,0.12608536,-0.07709426,-0.059604697,-0.21651952,0.26385656,-0.22349384,-0.23823304,-0.059508026,-0.30266935,-0.012127362,0.17601281,0.07278182,0.1415586,0.027322002,0.13798805,0.08196678,0.22771508,0.20669319,0.15798832,0.018220274,-0.042813115,0.31696644,-0.56912357,-0.47245958,-2.4639772e-05,0.21454358,-0.076731496,0.054027915,0.16965212,-0.05814756,-0.4867009,-0.17453374,-0.30066222,0.47707835,0.16756585,0.30221456,-0.092966236,0.041395884,-0.0072269533,0.027912248,-0.26933187,0.0020698824,0.16635558,-0.2378644,0.18774508,-0.30008993,-0.12548919
d28,0.09178583,0.0035112821,-0.19530638,-0.23962422,0.39466906,0.07409394,0.06783739,-0.19378428,-0.046477273,0.44944277,-0.08003973,0.05266006,0.115447745,-0.22991386,0.054270968,-0.023663206,-0.38246852,-0.1982231,-0.50613296,0.45983827,-0.38286322,-0.28155208,-0.0116486205,-0.30549222,0.32952577,0.12847498,0.28296936,-0.039312363,-0.26909524,-0.17921793,0.043743543,-0.12439149,0.32764965,-0.13962428,-0.06655022,0.06554496,0.19722949,0.2798097,-0.2514662,0.38567957,0.14225957,0.04290778,-0.020691391,0.24885158,0.008912269,-0.35000843,-0.03433609,-0.042085215,0.014641171,-0.09886337,-0.14576302,0.18703625,-0.17183699,-0.05813211,-0.27685633,-0.18970223,-0.01747102,0.082085356,0.3480223,0.27411935,-0.25841358,-0.015825097,-0.021546716,0.049386516,-0.06186423,0.04452733,-0.26572007,0.018637285,0.07944411,0.13857833,-0.061928403,-0.29623482,-0.17375302,-0.12312966,0.17292196,-0.23604925,0.11453245,-0.22278444,-0.17241801,-0.54687357,-0.05459484,0.090291105,-0.06752616,-0.08127623,-0.17368545,0.22697517,-0.24126929,-0.19709104,-0.039842647,-0.26208067,-0.049150303,0.1564943,0.097734116,0.09885148,0.06472012,0.114299275,0.10841737,0.22059055,0.15476616,0.14318205,-0.0033021572,-0.037544932,0.2587922,-0.4703182,-0.39247027,-0.009544916,0.2186459,-0.034198914,0.05289117,0.16985966,-0.045106184,-0.4264774,-0.18380117,-0.24653478,0.37946796,0.16194427,0.2811167,-0.03339335,0.03033529,-0.005056209,0.009615271,-0.20398887,-0.024874635,0.14311093,-0.18617836,0.16208002,-0.26442152,-0.10167164
d29,0.12742269,-0.007711722,-0.23260395,-0.26075187,0.47336686,0.112883486,0.039054107,-0.22365774,-0.04118329,0.5159288,-0.08000839,0.06433017,0.14516203,-0.25460428,0.033400234,-0.031842254,-0.42607954,-0.22909631,-0.5975206,0.5275084,-0.45854294,-0.33280182,0.0015718304,-0.32878494,0.36506072,0.14757697,0.32761768,-0.07926174,-0.30997196,-0.21730433,0.08415869,-0.14450586,0.36286706,-0.16353124,-0.08118657,0.08345455,0.23879312,0.3229243,-0.30895475,0.46059784,0.17287274,0.037123226,-0.014275813,0.29212198,0.013914691,-0.39923596,-0.018959265,-0.039031554,-0.00083357503,-0.16060376,-0.19342348,0.19254526,-0.19704026,-0.05572579,-0.34180334,-0.21714476,0.0029184765,0.08213993,0.4127373,0.32837167,-0.28281128,-0.0140291415,-0.0424538,0.06345338,-0.11224989,0.041059192,-0.32242447,0.0072434065,0.07718311,0.16432999,-0.08429908,-0.3471296,-0.2057547,-0.16645448,0.22917433,-0.2722882,0.1356349,-0.2728963,-0.19219023,-0.63808054,-0.032381937,0.10971883,-0.10199134,-0.11502302,-0.19888918,0.26615378,-0.2748394,-0.23009205,-0.052138373,-0.3193806,-0.06312139,0.19460881,0.117585,0.14420484,0.07418039,0.12704417,0.1387949,0.25360927,0.1892602,0.16384216,0.013518785,-0.04270269,0.31525582,-0.5722071,-0.44844076,0.0011338741,0.26203975,-0.05386005,0.06409186,0.18955766,-0.062358174,-0.49555662,-0.20495386,-0.30482474,0.47063145,0.19885214,0.30843586,-0.046064187,0.025666574,-0.022474596,0.0133648645,-0.23508595,-0.033214524,0.16571863,-0.20832762,0.16194426,-0.30467603,-0.1222054
d30,0.100116186,0.06984938,-0.15034166,-0.30352852,0.34531397,0.10653008,0.12245465,-0.20617847,-0.10277309,0.58909833,-0.126825,0.028258141,0.09669325,-0.2133173,0.058673147,-0.039682414,-0.4301785,-0.18224826,-0.6080965,0.4746749,-0.39667365,-0.32793796,-0.03198519,-0.35367596,0.38289064,0.16235885,0.32734835,-0.014279394,-0.32432705,-0.17302622,0.06599693,-0.16545033,0.46989396,-0.13633476,-0.11482224,0.15775003,0.1249026,0.31472713,-0.30772784,0.41242823,0.11518994,0.026242021,0.024595866,0.23248969,-0.033803202,-0.3922061,-0.08466097,-0.014090395,0.05454122,-0.038210686,-0.20929901,0.25269893,-0.19030786,-0.09491808,-0.276414,-0.20470181,-0.044522732,0.098549485,0.41633984,0.28166762,-0.31877804,-0.020721586,0.06360208,0.059065145,-0.04478571,0.028529791,-0.2965521,-0.011682916,0.06994456,0.1466257,-0.054246437,-0.31774658,-0.20062359,-0.08615888,0.17118526,-0.2393386,0.14426592,-0.19693902,-0.22672366,-0.6357273,-0.05737516,0.08941308,-0.07514984,-0.12060954,-0.22367942,0.2865205,-0.28354672,-0.21039113,-0.073165484,-0.28894335,-0.024353612,0.1964846,0.15364186,0.1113744,0.022761002,0.12514661,0.07184878,0.2568091,0.089112535,0.1298976,-0.021938989,-0.0579223,0.32215062,-0.5333635,-0.4493154,0.028246004,0.2364404,-0.02385442,0.03441107,0.2507399,0.012339364,-0.45200115,-0.25641477,-0.29078385,0.35555574,0.1648113,0.33644047,-0.028938139,0.03797924,0.017239872,0.02164089,-0.2369261,-0.0061748,0.16576721,-0.23270863,0.24436231,-0.27872202,-0.07443015
d31,0.11133156,-0.0327999,-0.025374686,-0.15577838,0.19334549,0.035083342,0.083667554,-0.071953356,0.11819766,0.43627396,0.009750125,-0.07953958,0.044249076,-0.11245015,0.08397975,0.0064722695,-0.22594249,0.10178848,-0.23877972,0.13113825,-0.16862641,-0.32759008,-0.021898767,-0.096899174,0.11280202,0.095517695,0.24550562,0.007025566,-0.117676444,-0.025386276,0.044892192,0.0426139,0.2737209,0.05206201,-0.029649049,0.06562307,0.15473096,0.27905408,0.107448444,0.18742034,-0.07392633,0.05485877,0.0870092,0.06712338,0.2171639,-0.32134607,0.08060865,0.03068985,0.22513121,0.012211274,0.12097744,0.26661968,-0.018344412,0.102092855,-0.22772285,-0.02346266,0.102293275,0.05185202,0.13438682,0.115039535,-0.21862991,-0.03747012,0.2191215,0.09149853,-0.008096432,-0.004226649,-0.18538818,-0.07664947,0.12681347,0.057574913,-0.14424077,-0.19527465,-0.14474371,-0.027876165,0.2187654,-0.007341575,0.042962264,-0.21913852,-0.18465078,-0.31582037,0.018401688,0.06052663,-0.052254822,0.10629288,0.020645805,0.25995284,-0.08747865,-0.09373741,0.122949384,-0.011905466,0.011700769,0.07503818,-0.028510036,-0.06580972,0.0264553,0.12230289,0.15946719,-0.10959315,0.014948143,0.30616248,-0.049755923,0.07626522,0.14784338,-0.14586824,-0.27162462,0.026979636,0.11673264,0.1611928,0.021263445,0.057342727,-0.13001038,-0.19999501,0.03664219,-0.042324502,0.1395817,0.17369923,0.22628683,0.036727022,0.09487207,0.14380273,-0.13151324,-0.14131528,-0.067250386,0.10887093,-0.049034394,0.26548,-0.18730083,0.030620307
d32,0.011086691,-0.07223001,-0.014883101,-0.029488169,0.16646102,-0.043521006,0.07137443,-0.09590604,-0.010349533,0.28671452,0.046716318,-0.08574775,0.07597678,-0.17496991,0.068845294,0.10840345,-0.12408866,-0.0009972106,-0.31321234,0.21924898,0.041984808,-0.0807418,-0.12963368,-0.23885657,-0.07524013,0.0950055,-0.014735693,0.07738895,-0.0135159595,-0.07705665,-0.10260162,0.0056471825,0.1404188,-0.009113946,-0.03192519,0.14082357,0.1294025,0.060770474,0.0049063503,0.15692706,0.09349826,0.10993022,0.010473311,-0.001990427,0.11773801,-0.115349606,0.012943884,-0.03012469,0.031220373,0.018715834,0.074068844,0.08315328,-0.0038218186,0.04899138,-0.13789967,-0.11288727,0.093608804,-0.12776934,0.020883147,0.17236236,-0.26836622,-0.00629848,0.047763012,-0.0129124755,0.12798235,-0.050539505,0.023147024,0.016512401,-0.007002173,-0.03658843,-0.028439455,-0.112752944,-0.18381861,-0.09300371,0.14987704,-0.06597909,0.013351217,-0.12957704,-0.12489651,-0.09671745,-0.084467344,-0.019916072,0.12506396,0.13124569,0.05858693,0.20364374,0.024886325,-0.18357122,0.039282177,0.027927162,-0.080023706,-0.02486645,0.063262776,0.024286503,0.10245381,0.094681695,-0.031680293,-0.062901475,-0.002687363,0.046779096,-0.150472,0.08289954,0.049970817,-0.11811161,-0.008601452,0.031023668,0.02489541,0.09762727,0.1422075,0.020020178,-0.005972359,-0.1919409,-0.06301825,0.031804524,0.06347506,0.07076657,0.17199898,0.059982367,0.08014719,0.03157327,-0.04164861,-0.12726079,-0.13823208,0.10190855,-0.13943228,0.031767435,-0.11667178,0.014970007
d33,0.06482754,-0.0018477482,-0.126077,-0.22306803,0.33799198,0.09801227,0.11612235,-0.15778583,-0.11399169,0.47339085,-0.17348215,-0.0017451802,0.07639443,-0.14988847,0.1157699,-0.014070861,-0.4109767,-0.2191754,-0.4795569,0.40339658,-0.32098037,-0.2450835,-0.030679438,-0.29914466,0.30435,0.16194694,0.25264934,-0.021070346,-0.27715153,-0.17848638,0.04451904,-0.12784973,0.34549627,-0.07208085,-0.11314451,0.11768134,0.105101764,0.27129808,-0.27312553,0.3130253,0.08665652,0.038007133,-0.038705397,0.22120589,-0.027312968,-0.35403058,-0.031119458,-0.0029328133,0.03561224,-0.026213452,-0.14791925,0.25501376,-0.15590201,-0.10623906,-0.24087273,-0.1587243,-0.06844188,0.13579924,0.29493025,0.15974826,-0.29356816,-0.0027661964,0.05158947,0.03148969,0.012136317,0.025957216,-0.29977518,0.010706561,0.0658343,0.13310745,0.006983812,-0.31364146,-0.20106621,-0.13098523,0.13014086,-0.19265887,0.08331568,-0.1715808,-0.17711264,-0.55475724,-0.06444281,0.104242,-0.07586851,-0.0779704,-0.1770393,0.22961801,-0.23944129,-0.14319327,-0.050917946,-0.2377781,-0.01868967,0.14690906,0.097201206,0.058859274,0.053850386,0.12204985,0.05113196,0.21854934,0.14544207,0.09966707,-0.03964914,-0.0304128,0.22064015,-0.41958612,-0.40722522,0.056231614,0.16066022,-0.012446933,0.0205463,0.21300824,0.040140916,-0.40222922,-0.20257196,-0.24483913,0.33223546,0.114039436,0.2774403,-0.020928219,0.050404027,0.038928233,-0.0009138374,-0.2241123,0.035447456,0.14226978,-0.25299886,0.2752268,-0.27083436,-0.064456716
d34,0.070633404,0.026086763,-0.10460493,-0.1893908,0.2862474,0.06040612,0.07751137,-0.13989381,-0.06081843,0.39010957,-0.07807897,0.014205809,0.069356985,-0.14293908,0.051082857,-0.021158746,-0.3078023,-0.14295366,-0.39120966,0.35442635,-0.27879798,-0.22545244,-0.017187532,-0.24521251,0.25353193,0.10514458,0.21138771,-0.008817395,-0.19579692,-0.13626334,0.030685665,-0.10258371,0.29991773,-0.08433475,-0.06780979,0.07785007,0.11274284,0.21556848,-0.20208277,0.27011538,0.08975445,0.04262129,0.0009782694,0.15841052,0.015122372,-0.30087206,-0.04819367,0.0009965227,0.062050067,-0.029613622,-0.124987505,0.18419635,-0.12504302,-0.05772892,-0.204107,-0.137574,-0.020034272,0.06624854,0.25758532,0.17790337,-0.21662277,0.0053284047,0.031444,0.04157071,-0.010437561,0.013609117,-0.20483789,0.008373307,0.07298082,0.09894728,-0.028036837,-0.23439787,-0.16393489,-0.09947068,0.12138798,-0.16565782,0.07772746,-0.15826531,-0.15887682,-0.41640177,-0.054768495,0.06581754,-0.020201309,-0.052538857,-0.12758496,0.20776361,-0.17544088,-0.15182365,-0.033685453,-0.18052961,-0.023955049,0.10819743,0.080819696,0.07215928,0.01910685,0.106148325,0.050061584,0.15452349,0.098184876,0.104455456,-0.02402768,-0.01832522,0.20595661,-0.37172168,-0.29774013,0.017369393,0.14865611,-0.0040390277,0.039559312,0.1542737,-0.004665843,-0.3276619,-0.14336619,-0.18319225,0.2630297,0.10758947,0.22632465,-0.032029565,0.043901738,0.014019335,0.011167184,-0.18808703,-0.014202727,0.12357786,-0.17057878,0.17154658,-0.19572376,-0.060375493
d35,0.07912942,0.016241496,-0.12329014,-0.22073266,0.36036113,0.09560094,0.12141213,-0.14909534,-0.11907489,0.511102,-0.16230893,0.022843052,0.08359464,-0.144226,0.0922627,-0.02311402,-0.43894857,-0.21770437,-0.51297176,0.4695672,-0.3578606,-0.27652663,-0.015946088,-0.3288403,0.35814485,0.16819052,0.27039114,-0.011067403,-0.27824995,-0.17960016,0.05678445,-0.13429673,0.40344664,-0.07453634,-0.11428427,0.13513646,0.12452958,0.2869694,-0.298062,0.3633461,0.10083206,0.027332459,8.256397e-05,0.21298589,-0.03359346,-0.39136815,-0.05379373,0.00024633075,0.057994846,-0.030661704,-0.18877189,0.26395488,-0.14293829,-0.11231422,-0.2520092,-0.16968821,-0.055719208,0.14402558,0.34144986,0.18193263,-0.30439827,0.01774768,0.03732743,0.037389826,0.02269625,0.01251745,-0.30062866,0.01597344,0.07867434,0.14937961,-0.01353809,-0.34053364,-0.2394644,-0.12725167,0.13994724,-0.23796682,0.09140294,-0.1549464,-0.22360945,-0.5930804,-0.07388267,0.123315826,-0.08566101,-0.09556893,-0.19008604,0.2675635,-0.2330513,-0.1844894,-0.08725136,-0.24614409,0.006591683,0.15587139,0.11300703,0.09526127,0.024169438,0.10068978,0.030836089,0.23264453,0.14043699,0.10960994,-0.024014357,-0.019136207,0.27979267,-0.48521447,-0.41015083,0.030999793,0.18082425,-0.028398661,0.02596293,0.23850217,0.043273937,-0.4154434,-0.22207429,-0.26285532,0.3331849,0.13118523,0.28236645,-0.01652563,0.07543854,0.022215135,0.0028736286,-0.26506218,0.039658535,0.16422172,-0.2676983,0.25949702,-0.28375915,-0.06880225
d36,0.097704,0.026430713,-0.14971536,-0.23031014,0.3935723,0.112127244,0.1059591,-0.15622328,-0.094686665,0.48649803,-0.14200549,0.049291395,0.081544444,-0.15824634,0.092236824,-0.024074921,-0.4527868,-0.23896527,-0.47105068,0.50923634,-0.43273982,-0.2909667,0.005968993,-0.32170725,0.425938,0.1681475,0.3167649,-0.043004602,-0.2649775,-0.16706978,0.042237416,-0.124716975,0.35961637,-0.11298034,-0.07051986,0.06785297,0.13564913,0.2881441,-0.29386312,0.35701093,0.08269139,0.07028363,-0.020996466,0.2593851,-0.0046548983,-0.42221874,-0.07560947,0.03680198,0.10481288,-0.057333037,-0.18348625,0.25067484,-0.1599899,-0.12512156,-0.27645347,-0.14947537,-0.060459904,0.179618,0.35573012,0.1760829,-0.25863513,0.03474726,0.00738464,0.04523884,-0.016245577,-0.0023993524,-0.3526932,0.021892773,0.10816683,0.1467972,-0.047737863,-0.34380937,-0.24562238,-0.16295616,0.15728782,-0.2433901,0.08755692,-0.19512582,-0.22662602,-0.5749398,-0.06900447,0.14108565,-0.05877008,-0.073476255,-0.21764274,0.27949116,-0.21828118,-0.1999324,-0.084298596,-0.26484236,0.012649894,0.15110976,0.0834147,0.10698572,-0.0044570398,0.1098293,0.019155253,0.22684735,0.17050527,0.12991785,0.0011716548,-0.028608723,0.30321205,-0.5026398,-0.45280048,0.029517878,0.186828,-0.060641974,0.017468832,0.22072008,0.0006754111,-0.4506083,-0.19660202,-0.29039,0.37291655,0.12893113,0.2911629,-0.084084466,0.045945846,0.014715326,0.0062328754,-0.28259325,0.03658068,0.15600866,-0.25243163,0.2609917,-0.27739057,-0.09891574
d37,0.053262204,0.016501354,-0.1278316,-0.24099521,0.33211985,0.06950209,0.11636077,-0.17671233,-0.105707936,0.51538414,-0.13651016,-0.016175723,0.09330625,-0.18209024,0.075945936,-0.009525233,-0.38984555,-0.16715173,-0.51051843,0.42521527,-0.33012798,-0.28103122,-0.028180376,-0.3120711,0.3054476,0.13884391,0.2645458,0.006207753,-0.29401612,-0.16821028,0.031190252,-0.1399621,0.4025284,-0.10948057,-0.11606932,0.13705862,0.1132722,0.2723807,-0.2563164,0.32039255,0.09218162,0.052992735,-0.0033600235,0.20140658,-0.006978052,-0.36689147,-0.041044205,-0.007929301,0.060631692,-0.019692985,-0.17012328,0.23610806,-0.15922734,-0.08850924,-0.24328066,-0.18742849,-0.05340902,0.10116662,0.3147093,0.2216901,-0.30272263,-0.0057905833,0.05419583,0.021030555,0.0011361245,0.030336412,-0.24493884,0.00678322,0.06773669,0.13894907,-0.006872683,-0.2928127,-0.20041345,-0.12219331,0.15323815,-0.20422497,0.10916136,-0.1977957,-0.19249432,-0.53284216,-0.07857822,0.09154324,-0.038572818,-0.07676632,-0.17148574,0.26341042,-0.2404935,-0.18491104,-0.053968344,-0.22534032,-0.03130211,0.13883027,0.093676195,0.0659315,0.04026777,0.12166062,0.057090465,0.197799,0.102463566,0.10335071,-0.032453854,-0.013595263,0.23758966,-0.44849536,-0.37682617,0.046252448,0.18769692,0.0043204557,0.04189645,0.21997756,0.032490477,-0.39823985,-0.206824,-0.24084063,0.33514854,0.11846604,0.30219445,-0.018202618,0.058757443,0.022586733,0.011690978,-0.20744962,0.007947287,0.152825,-0.23404376,0.24121659,-0.26106313,-0.04627473
d38,0.07657288,0.019043852,-0.14872836,-0.26657003,0.3873991,0.108682714,0.14389144,-0.183376,-0.1444825,0.56386507,-0.15990368,0.009814187,0.090181924,-0.17609268,0.1288312,-0.01953218,-0.48712713,-0.24872445,-0.53227997,0.48326436,-0.43024835,-0.3055298,-0.012527098,-0.34625646,0.39464825,0.19579722,0.3192502,-0.03939586,-0.31862846,-0.18728186,0.06000744,-0.14021109,0.44316053,-0.09413803,-0.12703297,0.1366192,0.13274902,0.3132327,-0.30695844,0.36766437,0.09481502,0.052444,0.001374044,0.23605464,0.0004614974,-0.4418898,-0.06970069,0.023561757,0.081806414,-0.022151835,-0.21656616,0.29976365,-0.17492007,-0.12697537,-0.26192668,-0.18204224,-0.062459085,0.18403834,0.3926324,0.18588533,-0.33284461,0.024210807,0.06414944,0.021063779,-0.0016396261,0.0103057595,-0.36298558,0.035464283,0.100808166,0.16265422,0.0050299894,-0.367553,-0.25022158,-0.14415607,0.1583364,-0.22680579,0.0949549,-0.17008063,-0.24575667,-0.6428948,-0.09251641,0.12134947,-0.068657205,-0.09354631,-0.20428449,0.29541302,-0.263167,-0.19119702,-0.08221977,-0.27797416,0.004315722,0.18509702,0.113517486,0.08153425,0.021324743,0.13531893,0.02457165,0.2617697,0.17799297,0.12497933,-0.025278145,-0.037320286,0.30097753,-0.5075721,-0.46605396,0.054638002,0.1985174,-0.01744437,-0.0025940475,0.26246566,0.038157675,-0.46648175,-0.21869957,-0.2806673,0.36885872,0.116832994,0.32382658,-0.055562135,0.07852062,0.059093405,-0.004343938,-0.270394,0.05414949,0.1831839,-0.2978268,0.30038065,-0.31244624,-0.07612451
d39,0.03577873,0.06980617,-0.09196595,-0.33098418,0.2539614,0.06795179,0.1578599,-0.19077638,-0.13345538,0.5749325,-0.15750886,-0.03665331,0.06019458,-0.15633065,0.05765898,-0.015375147,-0.3715084,-0.0991039,-0.5306273,0.3480134,-0.28055593,-0.29206398,-0.018540723,-0.28916508,0.29093632,0.14923716,0.2703774,0.041976817,-0.30896357,-0.14914678,0.05937052,-0.15571831,0.4825632,-0.116457246,-0.13033475,0.18032752,0.04105507,0.2792659,-0.23589869,0.29558456,0.082784936,0.02671588,0.018264355,0.1565106,-0.016407458,-0.35999477,-0.041239906,-0.0006756328,0.10002432,0.05248607,-0.20307228,0.26212704,-0.15527476,-0.09686139,-0.20731942,-0.16449042,-0.0804441,0.060774364,0.3507059,0.2271738,-0.31073335,-0.041275915,0.121510416,0.05340463,0.01579817,0.044144724,-0.22744909,-0.03913303,0.039680984,0.14896281,-0.024811875,-0.24700941,-0.16271651,-0.031410873,0.11355393,-0.14910999,0.11371498,-0.15608777,-0.19106054,-0.5421116,-0.06989195,0.073281266,-0.022546677,-0.1232235,-0.18280412,0.26641443,-0.26608056,-0.15837356,-0.052356414,-0.21305348,-0.014269214,0.1654229,0.1148195,0.029939843,-0.021289805,0.121749915,0.05606931,0.23104018,0.022254048,0.09520748,-0.056481045,-0.01708941,0.2439602,-0.42317802,-0.3821953,0.04200574,0.17255828,0.03214942,0.015328883,0.27373886,0.0718258,-0.35197502,-0.224027,-0.2241926,0.27588257,0.13534524,0.32412887,0.026773017,0.059017006,0.054926954,0.018878115,-0.16431816,0.030929614,0.17287722,-0.20173386,0.2949206,-0.2222351,-0.0023608024
d40,0.072089285,0.01847607,-0.12212599,-0.21543059,0.303565,0.07225373,0.079917654,-0.14620641,-0.06911117,0.43765152,-0.08188352,0.02226427,0.07163652,-0.170215,0.055235587,-0.028487489,-0.35616916,-0.17012122,-0.4428877,0.39114484,-0.32666406,-0.252357,-0.018985413,-0.2802115,0.29408708,0.13529868,0.25314635,-0.022735877,-0.22341684,-0.14301102,0.024110679,-0.115475915,0.3280027,-0.10317831,-0.07364491,0.088719495,0.13287319,0.24579608,-0.23119432,0.30902204,0.10108068,0.037122626,0.00081899646,0.1953691,0.0005812017,-0.33327207,-0.06167047,0.00013262237,0.060577877,-0.039333407,-0.15521763,0.1988872,-0.1419711,-0.0648467,-0.22209239,-0.14449818,-0.01936515,0.0920815,0.31164566,0.2070569,-0.24579155,0.01527479,0.028551778,0.03324244,-0.013122999,0.0067757466,-0.23478816,0.010395156,0.07057138,0.112049945,-0.03088829,-0.26635686,-0.17881173,-0.09471074,0.147377,-0.19607554,0.085083805,-0.16977586,-0.17208561,-0.47727397,-0.05553435,0.09086306,-0.030417085,-0.058182374,-0.15752125,0.23414676,-0.20047994,-0.18168664,-0.05349425,-0.21596038,-0.011022581,0.14589787,0.09167464,0.08526677,0.027814427,0.09967511,0.044962354,0.17400339,0.10415371,0.10696699,-0.017911049,-0.02267521,0.23708437,-0.41883373,-0.35023558,0.02394268,0.17416549,-0.02225471,0.037166927,0.16781007,0.007282095,-0.3578471,-0.17850342,-0.2228047,0.30688438,0.1158836,0.26332793,-0.02708281,0.040453777,0.013415877,-0.003444232,-0.20589806,-0.00027862616,0.12898111,-0.18910615,0.1848078,-0.22928025,-0.06654309
d41,0.07227851,0.029621279,-0.11488304,-0.17697342,0.34270883,0.09591004,0.14070256,-0.11850229,-0.11295793,0.43443042,-0.11982747,0.007933674,0.04677481,-0.10041146,0.10623532,-0.0043988386,-0.43105888,-0.24216956,-0.3931806,0.4427476,-0.38445547,-0.2425593,-0.0048487047,-0.30369273,0.40137717,0.15504488,0.27401754,-0.033816334,-0.22602975,-0.15670656,0.0030146271,-0.108584814,0.30295223,-0.0559367,-0.06683429,0.07970259,0.09339817,0.2566292,-0.2599277,0.2736965,0.056983136,0.07236072,-0.029177135,0.21677533,0.019227529,-0.40515786,-0.09545254,0.059437558,0.13716395,0.0017449475,-0.17363302,0.26374364,-0.13109373,-0.1287688,-0.22770636,-0.09160712,-0.0668724,0.19401537,0.29556593,0.09083434,-0.24468014,0.08843693,0.02502828,0.011172085,0.03771721,-0.032032277,-0.3207179,0.03905891,0.12062672,0.120634906,-0.0051934123,-0.32224712,-0.26946706,-0.16530846,0.11863024,-0.21117948,0.05959505,-0.15061082,-0.21111605,-0.49415788,-0.07641253,0.13102542,-0.0141861895,-0.016989172,-0.20049548,0.27518833,-0.15218988,-0.19565749,-0.076348536,-0.20279364,0.032335836,0.1124167,0.058763597,0.08624662,-0.018839352,0.096632764,-0.034485795,0.17238499,0.16167153,0.0924147,-0.029816683,-0.033924747,0.27254084,-0.42981344,-0.39571902,0.060673084,0.102443144,-0.06295966,0.0019216808,0.19170777,0.03634224,-0.37486362,-0.15543486,-0.24485375,0.30143854,0.08045116,0.25103733,-0.09756692,0.08874221,0.044753905,0.000736925,-0.274934,0.06208965,0.141334,-0.29280135,0.2721409,-0.25318152,-0.08337749
d42,0.10403887,0.03032189,-0.2021858,-0.29364017,0.436305,0.106905416,0.10000244,-0.1937111,-0.08821596,0.5565188,-0.11608558,0.04629946,0.115357146,-0.2014157,0.07657058,-0.042705752,-0.48096916,-0.25816017,-0.5839513,0.5325129,-0.47865036,-0.31175452,0.017513687,-0.3636936,0.4460142,0.17013386,0.35614404,-0.05136172,-0.31283614,-0.20498183,0.059047747,-0.15797994,0.39913937,-0.13373792,-0.07810055,0.072078906,0.20063868,0.34395042,-0.32018465,0.40947008,0.1299868,0.05139261,-0.012952078,0.28513494,-0.010577639,-0.4402102,-0.039702274,-0.0073985993,0.05705122,-0.07863548,-0.21539287,0.25732547,-0.19614705,-0.108470604,-0.30099675,-0.20054466,-0.03829189,0.15633501,0.41811782,0.2697068,-0.29815573,0.011084943,-0.0076936856,0.053012226,-0.07998378,0.022230038,-0.35249576,0.02276342,0.12064634,0.17738631,-0.056452256,-0.3932055,-0.24577561,-0.14689675,0.19657484,-0.26201823,0.13030733,-0.23742671,-0.23453128,-0.6674338,-0.07500692,0.10432275,-0.07091207,-0.0986956,-0.22419763,0.280554,-0.27308625,-0.23206826,-0.0652152,-0.31617653,-0.028352564,0.18621731,0.118385,0.12542655,0.03459279,0.12848236,0.069354415,0.2771856,0.18896018,0.12991151,0.00088310154,-0.05169716,0.34046668,-0.56944335,-0.50152093,0.017318647,0.23620646,-0.049809556,0.026247883,0.22747731,0.004825306,-0.51368016,-0.22584991,-0.31201312,0.43393216,0.16884534,0.31762078,-0.05562959,0.033609156,0.021338344,0.011876724,-0.2634067,-0.0005297171,0.1676653,-0.2538608,0.2557602,-0.30959356,-0.116019115
d43,0.10813547,0.019992866,-0.19468237,-0.24282452,0.4345255,0.11746102,0.09585175,-0.1705383,-0.08589149,0.5179941,-0.11712052,0.049248427,0.09658333,-0.20562924,0.10071613,-0.032870222,-0.47010118,-0.25298908,-0.5308999,0.5238698,-0.45302707,-0.3149819,0.0034093512,-0.3483964,0.41673487,0.16741513,0.3330321,-0.04057964,-0.29820716,-0.19954054,0.05868911,-0.14469165,0.35777947,-0.12913193,-0.07531694,0.07842856,0.18149403,0.3177855,-0.31604958,0.39685407,0.117411524,0.06214806,-0.013341545,0.26579717,0.01141232,-0.44607207,-0.054110456,0.020885795,0.07360622,-0.07213423,-0.2089169,0.26108325,-0.18899336,-0.10697013,-0.28554228,-0.17680351,-0.047090176,0.16823477,0.40297225,0.231064,-0.27912602,0.018656814,-0.0012176228,0.059688892,-0.05063544,0.012226905,-0.35279396,0.030627796,0.11794852,0.16637255,-0.04776354,-0.369594,-0.24660264,-0.16915236,0.18264319,-0.2709794,0.118702486,-0.20515394,-0.20739895,-0.637337,-0.06633506,0.13671032,-0.071574986,-0.07726728,-0.20493437,0.29705068,-0.24289721,-0.20825982,-0.06650033,-0.30404004,-0.005786369,0.16774674,0.105529904,0.12842807,0.011954319,0.11666133,0.057570998,0.23435633,0.18581511,0.14157608,0.0026972385,-0.035368152,0.3256339,-0.5363097,-0.4621308,0.027654408,0.21917729,-0.06062579,0.028931018,0.20532852,-0.014417201,-0.47751808,-0.1958328,-0.2937254,0.4243592,0.1439859,0.31916514,-0.08352434,0.05659151,0.023820087,0.022168383,-0.2672087,0.02684637,0.1620785,-0.271031,0.2361519,-0.3140257,-0.10482132
d44,0.08445576,0.043325003,-0.14455287,-0.2532288,0.34834874,0.084904365,0.09422518,-0.17895858,-0.082640916,0.49925938,-0.10768738,0.022830557,0.0760854,-0.18127418,0.0749071,-0.028179938,-0.40633205,-0.19132032,-0.512324,0.45187208,-0.38592514,-0.28643382,-0.0070034815,-0.32074994,0.36175078,0.14455101,0.28980747,-0.035606623,-0.2736504,-0.17160493,0.047577463,-0.13148342,0.38454992,-0.106239125,-0.07648537,0.08980931,0.12874727,0.2645175,-0.2735458,0.36291116,0.10208065,0.034835625,-0.00738432,0.23050925,-0.0053648674,-0.37669718,-0.07065599,0.007824844,0.0817732,-0.028073234,-0.18958342,0.22634223,-0.1659016,-0.08749046,-0.2540725,-0.16073479,-0.041342176,0.112623855,0.3539479,0.20975423,-0.27234107,0.013701091,0.041264232,0.055306155,-0.027801622,0.010003118,-0.2815894,0.004255081,0.09373405,0.13787846,-0.045961086,-0.29639265,-0.20179266,-0.11713975,0.14394195,-0.21750191,0.11271892,-0.18204023,-0.21655452,-0.5608738,-0.059899032,0.110728145,-0.044991843,-0.067836285,-0.18832831,0.26065934,-0.22313109,-0.19936456,-0.06548002,-0.24010794,-0.00088256586,0.15616222,0.10515514,0.088479385,0.012162976,0.1271963,0.05091095,0.21021341,0.13244106,0.123268515,-0.009377881,-0.051978085,0.2779814,-0.46736395,-0.4123528,0.024363406,0.20121206,-0.031383894,0.020246217,0.20474508,-0.01106579,-0.41374394,-0.20602635,-0.2562135,0.3359901,0.13806799,0.299493,-0.036190886,0.047261797,0.027889555,0.00072351034,-0.22787271,0.015340981,0.158326,-0.22403276,0.24278744,-0.24484134,-0.06579501
d45,0.039667726,0.048917167,-0.096804395,-0.25603962,0.30751017,0.08771867,0.15278739,-0.17272268,-0.114845365,0.52575403,-0.14990671,-0.033428352,0.07216612,-0.15352017,0.07508009,0.006908214,-0.40202045,-0.15676512,-0.4899405,0.39235038,-0.3266389,-0.28870913,-0.016218148,-0.301857,0.3136848,0.15407073,0.26258314,0.019751605,-0.29856965,-0.1440294,0.05605295,-0.14666997,0.41996285,-0.08810857,-0.11542269,0.12026934,0.07383435,0.25977847,-0.24402918,0.3161149,0.089684166,0.049066238,-0.008340742,0.19137302,0.0057230718,-0.36052045,-0.042946205,-0.00035125576,0.08013422,0.0062277564,-0.17131594,0.26266816,-0.15430745,-0.09666954,-0.24466151,-0.14888379,-0.06613879,0.12112352,0.30434513,0.19683559,-0.30153093,-0.001130101,0.09097898,0.0420101,0.018678691,0.016622303,-0.27302393,-0.015626537,0.07823583,0.13949573,-0.022416804,-0.28054065,-0.19211957,-0.097786225,0.1051367,-0.17457809,0.112622574,-0.176741,-0.1994604,-0.5425851,-0.0646212,0.10318709,-0.019022798,-0.09100251,-0.18126014,0.25775024,-0.229714,-0.17649455,-0.067193724,-0.21640854,-0.019720241,0.15220344,0.09048141,0.040382344,-0.01025087,0.108357124,0.03354661,0.22071695,0.09069172,0.10401757,-0.031022698,-0.021736909,0.24355164,-0.42650583,-0.3968713,0.041482855,0.15755506,0.013311861,0.027683415,0.23921391,0.032201927,-0.3757703,-0.20946716,-0.24399082,0.3081753,0.09893749,0.319804,-0.012641557,0.060157068,0.04549123,-0.012250905,-0.22185898,0.04028355,0.14182273,-0.23547328,0.28785607,-0.23858772,-0.04522809
d46,0.06684948,0.025470018,-0.105089605,-0.2010812,0.29023278,0.06638967,0.07942434,-0.13280037,-0.07182058,0.42578283,-0.09045821,0.023037827,0.063637555,-0.13694236,0.05737949,-0.008223321,-0.33392337,-0.1630886,-0.43073267,0.387894,-0.30961785,-0.23747405,-0.025041623,-0.2790428,0.2860329,0.1296083,0.23257808,-0.023938715,-0.22179033,-0.1567456,0.02935004,-0.11514761,0.3110651,-0.07952516,-0.06469338,0.08608438,0.1117737,0.22762981,-0.22613701,0.29569846,0.095631786,0.05456538,-0.00054283044,0.18026364,0.015765801,-0.32182223,-0.056495484,0.0013776056,0.07614126,-0.024153326,-0.12879226,0.18826859,-0.1195124,-0.08722911,-0.21885307,-0.13122608,-0.020927597,0.10276435,0.28724626,0.17151546,-0.2412977,0.022002425,0.040071227,0.034349125,-0.005121032,0.0009937568,-0.23985548,0.0032822567,0.072559744,0.10888709,-0.03304382,-0.26001543,-0.18797722,-0.103552416,0.13859206,-0.1866229,0.076689824,-0.16577654,-0.18163265,-0.45308983,-0.0668565,0.08040967,-0.027128082,-0.051484346,-0.15656899,0.23577324,-0.16863169,-0.1691881,-0.06571599,-0.19695267,-0.013826,0.122262985,0.07676948,0.08400783,0.008966136,0.10392109,0.023108337,0.1676097,0.10106833,0.10074145,-0.022425737,-0.03017756,0.22366114,-0.39459378,-0.3248548,0.02432157,0.1614433,-0.027475247,0.03468749,0.17699774,-0.0022154222,-0.3346962,-0.168029,-0.20930518,0.27692485,0.11091232,0.24410248,-0.031908352,0.051644962,0.019115023,0.009196496,-0.20549403,-0.0010738525,0.13591999,-0.20648828,0.19877928,-0.20198293,-0.057597727
d47,0.06145144,0.054636627,-0.11243939,-0.27831203,0.3192414,0.0891898,0.1252317,-0.1659525,-0.118383795,0.52474225,-0.15482895,0.006311856,0.065990284,-0.13415483,0.07472733,-0.035816673,-0.43327376,-0.18072736,-0.4882512,0.4343489,-0.3475848,-0.29012495,-0.010459278,-0.31676787,0.3657673,0.16891675,0.28404707,-0.016150342,-0.26876685,-0.15116018,0.04927091,-0.13338594,0.4206291,-0.09398061,-0.08989485,0.11124909,0.07358412,0.28204456,-0.25829658,0.33823287,0.08661542,0.063122265,0.011334264,0.21469498,-0.005773165,-0.39999425,-0.07193717,0.016355641,0.11218122,0.019405512,-0.18252175,0.2581725,-0.14294949,-0.1199111,-0.2301862,-0.145022,-0.06432252,0.13664815,0.35384274,0.2003735,-0.27832016,0.021474125,0.06172669,0.053341664,0.0002709091,0.012133306,-0.2787725,0.005985132,0.100851096,0.1538699,-0.030752057,-0.3037966,-0.21648054,-0.11224279,0.13935122,-0.2003379,0.101518825,-0.17911515,-0.22015715,-0.556238,-0.07405417,0.10225594,-0.026510403,-0.08450124,-0.19059157,0.27223387,-0.22957505,-0.19330028,-0.07011804,-0.2268889,0.010882181,0.16044077,0.084167846,0.078411534,0.0054288623,0.11040564,0.025068173,0.21477869,0.100272544,0.10628548,-0.030714462,-0.037235342,0.28257465,-0.46767017,-0.413588,0.03909033,0.17800544,-0.023577679,0.014018177,0.24902503,0.025044579,-0.39494434,-0.20268612,-0.2551635,0.32649368,0.11590806,0.28681585,-0.04920403,0.0575727,0.04370896,0.008455836,-0.24280572,0.03516847,0.17271979,-0.24667065,0.27936155,-0.25676042,-0.05777804
d48,0.07604306,0.0065805195,-0.15445368,-0.21591426,0.35209584,0.07665333,0.109887026,-0.15192503,-0.097056754,0.47215313,-0.14804673,-0.0021106182,0.10461969,-0.17905328,0.08321576,0.00119934,-0.4166795,-0.20246236,-0.4944959,0.41505638,-0.3331439,-0.28325117,-0.037736136,-0.2890113,0.31721917,0.15817776,0.24853684,-0.013829605,-0.27018338,-0.18182252,0.0391898,-0.11815872,0.35825852,-0.081804454,-0.11039828,0.12589262,0.12217856,0.2854887,-0.28393134,0.33578205,0.08840767,0.04093478,0.016247995,0.22543284,-0.005408452,-0.36845723,-0.012223782,-0.02137209,0.044429563,-0.057033002,-0.14337851,0.22442912,-0.16034156,-0.09273859,-0.245366,-0.1766018,-0.03188628,0.13835384,0.2987018,0.1966903,-0.2979877,0.0030554133,0.024751613,0.009633448,0.008137367,0.03592621,-0.28724748,0.03211184,0.06531064,0.13507943,-0.02188893,-0.3231374,-0.21783659,-0.13976559,0.1490895,-0.21342444,0.099659994,-0.18323413,-0.18900794,-0.55551815,-0.05445938,0.08720732,-0.07565254,-0.07305274,-0.16685763,0.23404367,-0.22850652,-0.15002497,-0.061515808,-0.23570308,-0.030047119,0.14413442,0.11352832,0.07683587,0.049444903,0.090572625,0.0545507,0.21160482,0.14383987,0.1168756,-0.033714086,-0.02221885,0.2423932,-0.4567067,-0.38953698,0.030629486,0.17125711,-0.03726655,0.044615038,0.19136892,0.012175805,-0.42429066,-0.18942827,-0.2541294,0.35765383,0.13843392,0.27877775,-0.009728227,0.038637478,0.01978479,0.006167049,-0.23395966,0.00659253,0.14070946,-0.23284653,0.23397134,-0.27417096,-0.06523354
d49,0.10724271,0.0056213913,-0.23559947,-0.26768386,0.4699843,0.10995818,0.067989826,-0.1962021,-0.044175368,0.49978736,-0.06073534,0.059798993,0.14480355,-0.23758802,0.062291805,-0.036962558,-0.44597843,-0.26428586,-0.5468014,0.5476615,-0.47664338,-0.31428343,0.012189382,-0.32528418,0.42315066,0.15284392,0.3354677,-0.08600512,-0.29874596,-0.20677345,0.04595706,-0.13870533,0.34266046,-0.15925536,-0.05561,0.059654724,0.23494904,0.33000264,-0.30483812,0.4305714,0.15241541,0.060440097,-0.017754866,0.30262613,0.018613897,-0.43383795,-0.02363353,-0.0238016,0.03260534,-0.1302376,-0.17769256,0.19609022,-0.2137208,-0.08764245,-0.31700507,-0.20685488,-0.008525217,0.13174398,0.41690144,0.2978658,-0.26783487,0.02049499,-0.04532691,0.047108162,-0.08728455,0.040959287,-0.33820245,0.037773296,0.10618158,0.17750655,-0.06376138,-0.3770507,-0.22974989,-0.18127422,0.20230937,-0.27839863,0.12425647,-0.2658412,-0.20294125,-0.63370043,-0.048049167,0.10550995,-0.070421815,-0.08873304,-0.19704455,0.25619745,-0.24862611,-0.23082022,-0.04887454,-0.3093002,-0.051859442,0.17552778,0.0858456,0.11856861,0.046136245,0.13136913,0.09860444,0.2570432,0.21514057,0.15570281,0.00914048,-0.040964425,0.3091022,-0.57564735,-0.4791474,-0.001664542,0.23089123,-0.06706283,0.04409694,0.17030552,-0.045764096,-0.49324012,-0.18783367,-0.3016623,0.4748072,0.17206468,0.3063291,-0.06599336,0.018179227,-0.006549208,0.017370343,-0.24789523,-0.015490045,0.15306047,-0.23271795,0.1834068,-0.30006585,-0.13047229
d50,0.11603704,0.0041209757,-0.22382858,-0.2316149,0.5004397,0.13285874,0.07493235,-0.17754087,-0.07527631,0.49345613,-0.114747934,0.06398292,0.10959405,-0.2037186,0.088881396,-0.046246227,-0.50889367,-0.30357233,-0.5300334,0.6097544,-0.51173973,-0.33587345,0.024228299,-0.35925424,0.49973947,0.16953029,0.36208132,-0.08736422,-0.29314035,-0.2329884,0.044988286,-0.1366881,0.3503897,-0.11748804,-0.06245878,0.04268069,0.22374319,0.32733104,-0.3564667,0.42717394,0.13633108,0.07779762,-0.048119824,0.3248364,0.021193452,-0.49648172,-0.06671897,0.031279393,0.08223883,-0.1268516,-0.21485485,0.24900313,-0.19460113,-0.1274014,-0.34443358,-0.174366,-0.03637126,0.2006099,0.4101617,0.21915126,-0.2648061,0.078547604,-0.049794804,0.042202454,-0.055360917,0.021366477,-0.42159176,0.023980366,0.15351361,0.17940691,-0.060377967,-0.40709636,-0.28330752,-0.22381349,0.20380192,-0.29888436,0.114732966,-0.24134797,-0.23653565,-0.66368467,-0.06596478,0.1505271,-0.08096242,-0.064816244,-0.23997498,0.2867107,-0.23619168,-0.24279626,-0.08830174,-0.31020194,0.010051763,0.17888607,0.07969575,0.13010103,0.02126745,0.1371681,0.034272872,0.24835177,0.23536628,0.15131567,0.017401911,-0.04620769,0.3383962,-0.6010616,-0.5127965,0.019464307,0.20324185,-0.09949825,0.03242202,0.21319644,-0.042168923,-0.5102868,-0.1858211,-0.32919636,0.4808572,0.16162556,0.3179638,-0.113448486,0.057837512,-0.010502116,0.011347393,-0.31509957,0.042705424,0.18016154,-0.30091825,0.24493618,-0.31389838,-0.12953043
d51,0.08870359,0.06833871,-0.124743626,-0.33230174,0.32977927,0.06842795,0.10438742,-0.20745789,-0.10075164,0.6030646,-0.1256943,0.032300297,0.0883618,-0.18576129,0.020116976,-0.056579553,-0.40670934,-0.1515625,-0.5918076,0.46066543,-0.37795523,-0.3392299,-0.01427646,-0.3343817,0.36975625,0.14467381,0.34007144,-0.03001784,-0.33908603,-0.18325014,0.06460386,-0.17326275,0.50506896,-0.14573698,-0.09945122,0.13129483,0.10628583,0.29876044,-0.2917544,0.39090952,0.13005367,0.0343176,0.022218596,0.22088765,-0.009749192,-0.4034134,-0.07114013,-0.013664379,0.08833953,-0.02345717,-0.21921606,0.24806882,-0.18582858,-0.08994986,-0.27795976,-0.19608828,-0.055775657,0.08281948,0.4303723,0.29117087,-0.32490203,-0.00869793,0.06973593,0.06414851,-0.033500187,0.033242226,-0.25315285,-0.032255884,0.07822623,0.15439956,-0.06363672,-0.27585977,-0.16201012,-0.065425985,0.14142907,-0.22019961,0.14771177,-0.22026853,-0.20637178,-0.60575616,-0.0685399,0.08717592,-0.046457723,-0.12428732,-0.20635511,0.2810257,-0.28095257,-0.20153527,-0.07098594,-0.26534238,-0.024409601,0.19933508,0.12859094,0.0828888,0.0022413486,0.123482294,0.09262764,0.2547781,0.057698146,0.13426615,-0.01720488,-0.042928804,0.3224697,-0.50942296,-0.43654215,0.012654269,0.24211164,0.00058903825,0.02742738,0.27310604,0.0079002045,-0.43374893,-0.23546039,-0.2940345,0.35182545,0.1580401,0.33223578,-0.017520308,0.047746886,0.008839585,0.009439236,-0.21095936,-0.0074047167,0.1798711,-0.19918877,0.25120345,-0.26114258,-0.064706385
d52,0.050229628,0.032482807,-0.08090791,-0.20298429,0.25677258,0.055926826,0.11047382,-0.1200548,-0.094346635,0.41906846,-0.10020677,-0.012836696,0.0569085,-0.12465923,0.05869584,-0.0048028096,-0.34293687,-0.13213481,-0.40827364,0.36645016,-0.26755396,-0.23291658,-0.030899867,-0.25401664,0.26703516,0.12733681,0.20699072,0.00061926694,-0.20940378,-0.122406,0.02240799,-0.1039764,0.33181602,-0.07665419,-0.07624746,0.10956971,0.06747647,0.20548691,-0.20278722,0.25204793,0.07245149,0.05351081,0.01163667,0.16134265,0.0044530914,-0.3270428,-0.059308086,0.022688327,0.09537913,0.013508713,-0.13483779,0.20894279,-0.112519085,-0.09290096,-0.19676295,-0.12521473,-0.032418694,0.0891845,0.26174462,0.15601362,-0.24016099,0.033189233,0.05690917,0.026843995,0.027476348,-0.010171177,-0.20818917,-0.006992773,0.070025496,0.1153601,-0.023784103,-0.21977225,-0.1783102,-0.080214724,0.11698416,-0.15528534,0.073153794,-0.13457789,-0.1872201,-0.41231558,-0.061072737,0.090659656,0.004661477,-0.03749978,-0.13609922,0.23333648,-0.15755868,-0.15726627,-0.05741785,-0.16093011,0.0068191504,0.1121322,0.06857962,0.056058656,-0.008850981,0.09824898,0.013994442,0.16139823,0.07523569,0.09258333,-0.039042935,-0.02419054,0.20821972,-0.36956322,-0.29720196,0.03855576,0.11879531,0.004064855,0.015465287,0.17961876,0.014416549,-0.3056116,-0.15844749,-0.18474537,0.25625604,0.10338029,0.23562989,-0.021255605,0.05909354,0.03654492,-0.006953496,-0.1937404,0.01625074,0.13145274,-0.1926066,0.21868567,-0.19228609,-0.036649078
d53,0.08546627,0.016893795,-0.13250776,-0.18996064,0.37085798,0.11734674,0.1214968,-0.11991289,-0.09508209,0.45394397,-0.17389543,0.012958015,0.044076253,-0.11518361,0.121341154,-0.009790487,-0.4484427,-0.24514134,-0.4253018,0.49292696,-0.3813859,-0.26750165,0.0027853542,-0.32889232,0.39663056,0.17084688,0.27948523,-0.047783908,-0.23449549,-0.1746803,0.024524398,-0.110607,0.31498605,-0.05314684,-0.08275858,0.08824668,0.11024235,0.26972136,-0.2941277,0.31634843,0.06899787,0.06472813,-0.032725982,0.24766394,0.013080716,-0.41003436,-0.09060639,0.052634176,0.12318312,-0.02310468,-0.18991327,0.2607223,-0.13357116,-0.13221337,-0.25223824,-0.118968934,-0.07446864,0.21634369,0.30769747,0.1085395,-0.2672916,0.07859727,0.014807741,0.037834816,0.029015252,-0.016760325,-0.34164107,0.0061743073,0.123040035,0.117714725,-0.013199423,-0.33198503,-0.2783616,-0.17580904,0.14156298,-0.23672698,0.07296703,-0.16341957,-0.22483678,-0.5427326,-0.07739647,0.15922095,-0.05049792,-0.043319978,-0.21789715,0.29508203,-0.18119377,-0.19749458,-0.0986551,-0.2281443,0.046204098,0.13167517,0.06279118,0.097967,-0.013771495,0.10931063,-0.031671364,0.18294783,0.16804983,0.11956164,-0.028567012,-0.03061275,0.29411867,-0.4527823,-0.42047724,0.052784737,0.12174176,-0.06810568,0.03199571,0.21099298,0.016413806,-0.42946008,-0.17060336,-0.26509202,0.33912057,0.09424902,0.26901394,-0.088867456,0.10182236,0.031983335,0.0088271955,-0.30014333,0.06950113,0.15986894,-0.29001755,0.2948445,-0.27358374,-0.081180535
d54,0.043239895,0.005041732,-0.07497162,-0.15689643,0.2319718,0.04359782,0.08127427,-0.11156361,-0.066714,0.36695614,-0.07469496,-0.012861638,0.052316837,-0.1324415,0.05654147,0.0057388186,-0.2728022,-0.1073302,-0.37649918,0.31252348,-0.19939892,-0.19881684,-0.036009777,-0.23673867,0.20184784,0.11511539,0.1604238,0.006164566,-0.17488419,-0.12028431,0.0075307684,-0.0929574,0.26054958,-0.055777617,-0.07664689,0.10410058,0.08623642,0.17839701,-0.16661245,0.22553074,0.07910598,0.044615287,-0.0024701632,0.12567034,0.015928669,-0.2647425,-0.038256727,0.0073945555,0.06927547,-0.008405215,-0.08701816,0.16176945,-0.09400856,-0.052216608,-0.16655488,-0.12900284,-0.017677134,0.058077663,0.21702874,0.14453006,-0.2383249,0.02288422,0.053815838,0.0067435773,0.038858853,0.004003427,-0.1681691,-0.0007161239,0.048745167,0.084347494,-0.023544583,-0.21608393,-0.16494933,-0.08392883,0.119782634,-0.14329246,0.059274122,-0.14343654,-0.15532404,-0.3567891,-0.050749835,0.05947467,0.0030201506,-0.010022888,-0.100653544,0.194188,-0.13460678,-0.14958298,-0.04920065,-0.12960568,-0.010347349,0.080167316,0.072779134,0.04006682,0.02530469,0.10165923,0.013037669,0.10359023,0.064097315,0.06389152,-0.048533253,-0.00021314686,0.16391449,-0.3031178,-0.24844882,0.029641533,0.10664688,0.0012214585,0.043071043,0.15115662,0.014640639,-0.28651097,-0.14752069,-0.14271146,0.21695784,0.096768,0.21923146,-0.0014020373,0.06317203,0.022001384,-0.011955657,-0.16535778,-0.0060483753,0.11409618,-0.17276128,0.17581077,-0.17776579,-0.042304944
d55,0.034866687,-0.0002294989,-0.06150582,-0.11464212,0.21784993,0.03462733,0.072552934,-0.09602479,-0.05148136,0.29234603,-0.04542949,-0.017235214,0.05746331,-0.1201709,0.053614344,0.020270418,-0.23107645,-0.10419204,-0.30455467,0.27158964,-0.17362335,-0.15991585,-0.032408234,-0.20178488,0.15853526,0.08791445,0.14321738,0.010590241,-0.1298511,-0.095194146,-0.0012666043,-0.06423434,0.19806235,-0.045734845,-0.040025324,0.07841654,0.1022777,0.14938645,-0.12680967,0.19492948,0.067008376,0.048916146,-0.006318183,0.10251604,0.026700767,-0.22022434,-0.036337394,0.002994576,0.045112018,-0.0040365783,-0.068196744,0.13566391,-0.072621845,-0.039423082,-0.1643289,-0.09802259,0.0071014073,0.03846444,0.16131175,0.1370817,-0.18608746,0.016932428,0.024453752,0.011832246,0.0335287,-0.012968931,-0.14070489,0.016422944,0.050949294,0.062368505,-0.02710347,-0.18456954,-0.1644201,-0.09186113,0.115785964,-0.12777013,0.04376665,-0.1255267,-0.1300794,-0.27907202,-0.0508353,0.050402094,0.006841692,0.006298683,-0.08195453,0.17865658,-0.09414298,-0.14266337,-0.018598761,-0.10696956,-0.01882021,0.06916493,0.060732596,0.04568592,0.031372637,0.083862185,0.004922469,0.083858445,0.06543739,0.06132868,-0.050055392,0.0014311733,0.14801762,-0.24479572,-0.19462022,0.031338885,0.08890804,-0.00043923303,0.051412083,0.101328775,0.008506695,-0.24873152,-0.113257006,-0.11962155,0.17372584,0.072732046,0.1761475,-0.014430139,0.05893577,0.017626889,-0.009425842,-0.1545753,-0.02491469,0.10257555,-0.14967142,0.13063574,-0.1570809,-0.030059844
d56,0.09602802,0.032896236,-0.16969132,-0.23088403,0.41279882,0.10651942,0.10939747,-0.1589664,-0.11690288,0.53081685,-0.16683026,0.024135835,0.08316374,-0.15494604,0.0941245,-0.022673547,-0.4993651,-0.27264565,-0.53127575,0.50396633,-0.43910247,-0.32123467,-0.018312173,-0.35159165,0.4251142,0.18128988,0.29938215,-0.031022875,-0.2978112,-0.21074255,0.043825813,-0.13141,0.3802688,-0.09349773,-0.086644225,0.108960174,0.14259444,0.3118796,-0.31822714,0.36515915,0.09085822,0.06537373,-0.018028807,0.27608454,-0.008687972,-0.44972062,-0.07646922,0.036100477,0.09173707,-0.057188407,-0.1968437,0.28283682,-0.1746578,-0.13918664,-0.29288545,-0.16460979,-0.07017792,0.1836302,0.36263892,0.18205956,-0.30863202,0.05180131,0.02535473,0.032030307,-0.0009748976,0.012552793,-0.3759634,0.021171918,0.11577708,0.14816606,-0.01629777,-0.38080037,-0.27035043,-0.16226363,0.17604315,-0.24591292,0.0952457,-0.20654884,-0.21593507,-0.6141073,-0.08124393,0.15023066,-0.059634924,-0.08856197,-0.21601407,0.2892104,-0.242754,-0.18558984,-0.08376648,-0.27928808,0.025841849,0.175749,0.101883516,0.11825367,0.029926028,0.124205664,0.029527837,0.2264766,0.1797046,0.16057204,-0.008363879,-0.025508158,0.3040324,-0.5224686,-0.4763805,0.059180334,0.19758707,-0.0637715,0.01987853,0.22613849,0.015110282,-0.4743191,-0.20589688,-0.3050285,0.3935862,0.12806265,0.31680837,-0.057361975,0.06201793,0.024583109,0.016185826,-0.30275014,0.059104215,0.16815957,-0.2969544,0.29883415,-0.29558253,-0.08608008
d57,0.030184181,0.07424488,-0.06216989,-0.27817276,0.24822372,0.07861542,0.16256163,-0.1594199,-0.14597873,0.51721483,-0.1829376,-0.030412182,0.032783903,-0.100965306,0.08252025,-0.015384294,-0.39697444,-0.118106924,-0.47153872,0.3771358,-0.2968355,-0.28554875,-0.0075815474,-0.29330105,0.33505931,0.16046569,0.24814205,0.03395344,-0.28101605,-0.12457062,0.051336024,-0.15528347,0.44996458,-0.07294346,-0.11988907,0.14847337,0.026201207,0.24213876,-0.23545018,0.26897368,0.06089306,0.044512827,0.0034402825,0.15086415,-0.019543752,-0.38593057,-0.086197555,0.039231446,0.14217645,0.09041623,-0.1923735,0.2806001,-0.12663049,-0.13152978,-0.20579089,-0.1196294,-0.08540753,0.12397231,0.3032178,0.14462811,-0.2892549,0.031041764,0.13762803,0.0387544,0.065612756,0.0064400234,-0.2492658,-0.03787731,0.060682587,0.13996921,-0.010464489,-0.2573921,-0.20561935,-0.07588661,0.092031434,-0.15237905,0.0959929,-0.13654992,-0.20568542,-0.49819455,-0.08417291,0.108095475,0.0042232666,-0.076699644,-0.1779268,0.27557793,-0.21366073,-0.17234601,-0.07677725,-0.19179451,0.03765742,0.12454468,0.08160987,0.028238922,-0.02777027,0.12072013,-0.0079025775,0.19697095,0.03924614,0.090785004,-0.046318892,-0.026462644,0.24131693,-0.40838975,-0.3797582,0.052517887,0.12606332,0.020639393,-0.00768111,0.27737275,0.0691067,-0.34408852,-0.21332942,-0.2195913,0.26208347,0.0961526,0.29827374,-0.011247931,0.07479505,0.066676654,0.011733184,-0.20458116,0.06226245,0.15071502,-0.2310327,0.32679302,-0.21158472,-0.031254087
d58,0.09178883,0.01709751,-0.16970451,-0.2268216,0.37568748,0.09015369,0.08116213,-0.16557524,-0.06467756,0.4656944,-0.08705955,0.04130251,0.09718969,-0.19590317,0.052214194,-0.025626922,-0.38689637,-0.1935588,-0.4836437,0.46758395,-0.39477488,-0.27043992,0.0010912878,-0.3059593,0.34630388,0.15657334,0.29186115,-0.04462467,-0.2668351,-0.16931319,0.034248766,-0.12268773,0.3459622,-0.12776579,-0.062134307,0.06905397,0.16994514,0.27860278,-0.27208585,0.35504937,0.12988798,0.048273224,-0.018186161,0.24989304,0.0012509092,-0.38202956,-0.05097475,-0.012484636,0.044062424,-0.06181185,-0.16312115,0.21637216,-0.15572958,-0.06943533,-0.26924145,-0.16312931,-0.033002134,0.12008343,0.36187437,0.22920895,-0.25470135,0.011878691,-0.0027138789,0.048366833,-0.057367533,0.019790623,-0.2802881,0.015579806,0.08650953,0.13426003,-0.05562736,-0.31279922,-0.21368809,-0.14182067,0.16447426,-0.2372206,0.107732005,-0.21323764,-0.19437228,-0.54912585,-0.04149579,0.09176774,-0.05173124,-0.071689636,-0.18007894,0.2447902,-0.22921403,-0.20161074,-0.052252635,-0.2570795,-0.027893579,0.15508887,0.08601206,0.111026585,0.026625985,0.1076221,0.065369464,0.21420458,0.15275127,0.115988754,0.0047823293,-0.032799996,0.2751889,-0.49150613,-0.41208014,0.007334103,0.1895949,-0.040206753,0.033362187,0.1896901,-0.014744718,-0.42786658,-0.1923302,-0.26390937,0.36882982,0.14637415,0.27624294,-0.058260806,0.038993955,0.016553389,0.00567494,-0.2334047,-0.009676726,0.14837718,-0.21331047,0.19103277,-0.2604622,-0.08098543
d59,0.09538704,-0.013819453,-0.2079148,-0.18460429,0.4414426,0.12038538,0.06597138,-0.15650353,-0.05426944,0.42807537,-0.113117315,0.081613995,0.092537396,-0.18814144,0.0734331,-0.0145486565,-0.42978433,-0.2748246,-0.4620748,0.52510846,-0.42867795,-0.29976574,-0.0067427224,-0.33346504,0.38457376,0.15978618,0.26652637,-0.05389873,-0.24418871,-0.17932251,0.034120675,-0.0979518,0.29402596,-0.09447294,-0.05519956,0.06734646,0.18228565,0.2875434,-0.30383396,0.38944915,0.105901465,0.06550492,-0.02004597,0.27151945,0.00676946,-0.38776594,-0.047235638,0.028825114,0.046255615,-0.10800155,-0.17716953,0.20870878,-0.1525231,-0.083678536,-0.2747223,-0.15961283,-0.022513881,0.18126181,0.33759314,0.21284893,-0.26588577,0.032747503,-0.040736433,0.023632715,-0.031532425,-0.002528485,-0.35034025,0.044861086,0.110061176,0.12147893,-0.045914482,-0.35092884,-0.26003712,-0.19421507,0.16540465,-0.29118901,0.07083114,-0.18901877,-0.21907292,-0.5840472,-0.04901584,0.13129254,-0.09887065,-0.06224799,-0.20565939,0.2835534,-0.19416606,-0.18654983,-0.07176828,-0.27222162,0.01203077,0.15050653,0.07130904,0.15296419,0.05959306,0.11854662,0.018371858,0.20130332,0.21280803,0.14639486,0.00715215,-0.019555248,0.3089246,-0.48831105,-0.3962672,0.01840405,0.18140407,-0.10243,0.06357104,0.17401473,-0.029334603,-0.46996903,-0.18630138,-0.2588884,0.3885979,0.1426819,0.27166483,-0.071938574,0.057321705,-0.0098331245,0.002664897,-0.29031527,0.0076625845,0.15054052,-0.23446558,0.20421365,-0.3002456,-0.116024256
d60,0.04698407,-0.022503879,-0.07276087,-0.0941362,0.22721729,0.020077473,0.07231489,-0.11422253,-0.04364719,0.31998172,-0.013830736,-0.011732757,0.060430124,-0.1577714,0.05631937,0.041712556,-0.22669612,-0.09240689,-0.342642,0.307912,-0.1483919,-0.15378737,-0.05070252,-0.23168468,0.13645005,0.10126319,0.12506025,0.018979544,-0.103223406,-0.09670047,-0.014031291,-0.04054145,0.20849797,-0.05126828,-0.0468719,0.09273294,0.13068496,0.14449081,-0.1225937,0.22704126,0.09646637,0.062478658,0.005159498,0.09562152,0.06315419,-0.21861412,-0.04035352,-0.0010783079,0.044693224,-0.0062770466,-0.05333114,0.13025285,-0.057737797,-0.002220836,-0.17621471,-0.11296031,0.028795568,0.010449358,0.16171238,0.17421487,-0.21612698,-0.0027902627,0.019201182,0.01185135,0.0443277,-0.029006392,-0.12006112,0.0024922278,0.042913508,0.03558774,-0.04645444,-0.18054274,-0.17436603,-0.09134362,0.13795826,-0.13003874,0.04925761,-0.13344616,-0.15057753,-0.26963496,-0.06295083,0.043826584,0.03143675,0.037006944,-0.063183874,0.20474315,-0.07459343,-0.16505401,-0.010718041,-0.0920559,-0.040453646,0.061045777,0.071703605,0.07754334,0.046299938,0.09200968,-0.0052401777,0.06209707,0.06788044,0.06625403,-0.06938469,0.022809487,0.14625439,-0.26046702,-0.17918469,0.028702714,0.09321301,0.01524467,0.07178437,0.08538905,-0.011422739,-0.27000573,-0.103886,-0.09849114,0.19338857,0.0945167,0.18809405,-0.006364919,0.05025015,0.022610417,-0.011340952,-0.16637428,-0.051934503,0.11930124,-0.15456592,0.106614776,-0.165631,-0.0393021
d61,0.09613676,0.008822653,-0.19754744,-0.25517195,0.41806522,0.086667694,0.077744596,-0.2025927,-0.049161516,0.49374202,-0.0753164,0.06596651,0.11748348,-0.2325767,0.05471937,-0.027383212,-0.41327322,-0.22824055,-0.5585906,0.49229804,-0.4041067,-0.30397657,-0.0028930209,-0.3358137,0.34225306,0.15616056,0.30270877,-0.059541292,-0.29488564,-0.18887655,0.042569164,-0.1461317,0.34790263,-0.15756658,-0.071135305,0.10476566,0.20656757,0.3097426,-0.28948742,0.4222635,0.14119948,0.022270883,-0.001318375,0.25106645,0.0108161,-0.3804311,-0.019712385,-0.05117155,-0.0033943448,-0.11428489,-0.17580639,0.20045033,-0.18663411,-0.06919852,-0.28848046,-0.21132323,-0.012513322,0.10623952,0.3986224,0.29377067,-0.28270495,-0.035125453,-0.024425395,0.03593946,-0.0749805,0.04683994,-0.30916673,0.02602245,0.065604754,0.14182636,-0.050092876,-0.33718285,-0.1974793,-0.13086909,0.18880391,-0.27173388,0.11851635,-0.23735107,-0.1941985,-0.60532063,-0.05049134,0.07041426,-0.09432067,-0.09921864,-0.18246701,0.261733,-0.25325224,-0.21362332,-0.04558408,-0.2865646,-0.05816857,0.19005078,0.115287006,0.119776405,0.062620714,0.116204016,0.112888426,0.23011129,0.16953067,0.14431128,0.0010808172,-0.028068498,0.2873973,-0.52270055,-0.42073268,0.0038530894,0.24620071,-0.051721975,0.07470542,0.19097914,-0.022704594,-0.45832044,-0.21102679,-0.28157535,0.41913557,0.17003721,0.3014142,-0.024732392,0.015624368,0.006498933,0.010851108,-0.2262949,-0.02590912,0.16434833,-0.19794318,0.1668125,-0.2884084,-0.098508656
d62,0.092484534,0.018560143,-0.13993347,-0.21981111,0.3835242,0.12218558,0.10852769,-0.13700296,-0.11505536,0.48650765,-0.16395171,0.01981078,0.06073452,-0.12913385,0.10601874,-0.012602719,-0.46196476,-0.2140909,-0.47856987,0.47781688,-0.3937041,-0.301702,-0.020106267,-0.31928036,0.40778896,0.1818271,0.30578238,-0.027643103,-0.24393506,-0.17597973,0.031691805,-0.10936786,0.35787526,-0.07480076,-0.08717867,0.10059189,0.10591951,0.28391185,-0.28255758,0.33442056,0.08716033,0.067782536,-0.026898403,0.25229344,0.013739405,-0.43096745,-0.07510584,0.04345756,0.10957722,-0.021450017,-0.17035177,0.27307484,-0.14918105,-0.11839728,-0.26295346,-0.1253118,-0.07005332,0.20018427,0.33469084,0.15787083,-0.29609862,0.04961392,0.035666633,0.05304648,0.0058593154,0.0021995509,-0.33005866,0.00021840064,0.11096892,0.11987356,-0.037303604,-0.34541273,-0.25299397,-0.16077153,0.15246587,-0.21812844,0.09411739,-0.17499566,-0.23753417,-0.5589587,-0.055274874,0.15288766,-0.036899418,-0.05420311,-0.21045998,0.3006711,-0.21464649,-0.19046281,-0.061104655,-0.23649861,0.028298356,0.14453863,0.07507591,0.09840348,0.00924524,0.13238646,0.008157861,0.20779106,0.1548229,0.122505516,-0.013746033,-0.020325582,0.28654134,-0.46813565,-0.41930714,0.050593734,0.16037163,-0.048188627,0.010440147,0.23052247,0.004460338,-0.4273561,-0.19488592,-0.2634955,0.3563227,0.124431066,0.2892095,-0.085280776,0.08380945,0.02821671,0.016998718,-0.2847778,0.03756737,0.17227942,-0.27635768,0.29715282,-0.28165457,-0.086024776
d63,0.08833527,0.0063790665,-0.13443479,-0.14073904,0.33622414,0.07230275,0.084753335,-0.109173805,-0.084553935,0.40821764,-0.13681838,0.011309074,0.06960086,-0.14521278,0.074794844,4.582097e-05,-0.3616496,-0.17180373,-0.41096064,0.41381955,-0.28514224,-0.24121046,-0.03209346,-0.28082561,0.27787519,0.12761936,0.20901987,-0.031327255,-0.20576285,-0.135975,0.038437176,-0.09107052,0.2783842,-0.057282563,-0.09181699,0.11843208,0.10986888,0.2351114,-0.24514629,0.30451718,0.07919314,0.047834944,-0.00031980858,0.19143419,-0.006859232,-0.31064543,-0.056324106,0.031493332,0.07445063,-0.050286528,-0.1241389,0.20134275,-0.12408216,-0.0841964,-0.22625044,-0.13766402,-0.03193486,0.12368534,0.24314973,0.14598635,-0.25917876,0.0034653721,0.01229689,0.03202305,0.02307392,-0.018587923,-0.25366554,-0.001550096,0.07226141,0.092324875,-0.026913384,-0.25989935,-0.18596399,-0.13328286,0.16429423,-0.20826456,0.05741979,-0.14596282,-0.19564624,-0.4661296,-0.050809484,0.09968873,-0.07879868,-0.050676093,-0.1482749,0.26089093,-0.16831261,-0.1492793,-0.06364619,-0.19635624,0.023686,0.1190519,0.075570926,0.1138736,0.048016828,0.095428355,0.02848069,0.14094056,0.1076989,0.11833159,-0.012055761,-0.023666827,0.2476524,-0.3967618,-0.2942463,0.024222622,0.14319405,-0.038478732,0.07520212,0.17561023,0.0036957741,-0.36540765,-0.18794918,-0.1936373,0.30202878,0.13178839,0.23250917,-0.027103718,0.06332557,-0.00092713267,0.00046733336,-0.22533494,0.018951157,0.15400092,-0.2138496,0.19491473,-0.2261299,-0.069029145
d64,0.06599819,-0.011925319,-0.10753874,-0.16315776,0.30807024,0.10866291,0.08822426,-0.14536248,-0.10956263,0.40632316,-0.12163083,0.0023963186,0.06854407,-0.12460069,0.0787145,0.021966493,-0.39114434,-0.16684644,-0.43168643,0.36725163,-0.2670219,-0.2507229,-0.036400303,-0.3104909,0.26960805,0.14912818,0.20210741,-0.00025572733,-0.23009482,-0.15126038,0.030599484,-0.11476263,0.31015915,-0.060604088,-0.110708274,0.14253524,0.11311185,0.24705707,-0.239305,0.31952697,0.09987883,0.04083938,0.004848175,0.1614957,0.0064787883,-0.30359653,-0.051303424,0.0015958763,0.027504135,-0.03516084,-0.15067573,0.19962654,-0.114709124,-0.08069299,-0.22063448,-0.115450814,-0.06384615,0.12485286,0.25752303,0.17752762,-0.27583086,-0.0062815347,0.03492436,0.03216017,0.009743061,-0.0041483813,-0.2553835,0.005874746,0.05370646,0.123728074,0.0114856055,-0.29376268,-0.20830183,-0.13411833,0.14715053,-0.2083466,0.07622438,-0.13570413,-0.19395462,-0.4838187,-0.0510778,0.107568204,-0.07331754,-0.04613171,-0.15191153,0.24695912,-0.2043342,-0.15270211,-0.07033444,-0.19612326,0.0003316342,0.15167007,0.118187375,0.09980545,0.075342946,0.11294652,0.0384825,0.18122946,0.110110566,0.06757311,-0.021653008,-0.0065487544,0.20451596,-0.4194324,-0.31922722,0.036217388,0.14475422,-0.03856137,0.048612177,0.20460653,0.04803525,-0.3769061,-0.19419949,-0.2090229,0.2988908,0.11670195,0.25071925,-0.01778215,0.047694147,0.013657653,0.01600254,-0.2155751,0.025195092,0.14135955,-0.20648955,0.23249164,-0.2556685,-0.0680202
d65,0.059723243,0.006413119,-0.08000604,-0.16550925,0.24463461,0.045231763,0.06687169,-0.12817465,-0.06186792,0.35873356,-0.06709553,-0.015951242,0.08548766,-0.1502184,0.045874268,-0.0028236725,-0.27689308,-0.10076899,-0.38972074,0.29948425,-0.19504216,-0.20052604,-0.04012244,-0.241969,0.1839186,0.103683606,0.1655498,-0.0036693402,-0.20047858,-0.12363328,0.02441521,-0.08983291,0.28327462,-0.07009982,-0.07907979,0.09712265,0.10136917,0.18771002,-0.162957,0.2469482,0.087809555,0.03913645,0.0018089665,0.1316149,0.0046128803,-0.23557103,-0.0042725382,-0.03807004,0.027473269,-0.013887502,-0.0848096,0.14830083,-0.11072391,-0.025920052,-0.17841403,-0.12906915,0.0050437218,0.032122895,0.22615907,0.18449914,-0.24361174,-0.018658105,0.05359733,0.03216779,0.00655623,0.0108804265,-0.1573256,0.010339345,0.035416774,0.079733595,-0.010564091,-0.19859618,-0.13303342,-0.06749499,0.119101435,-0.15308684,0.08059687,-0.14311785,-0.13783652,-0.36856028,-0.056033514,0.04109167,-0.021709695,-0.033149526,-0.10098048,0.1740782,-0.15917577,-0.1385273,-0.018906001,-0.14936942,-0.05917948,0.10579777,0.09113536,0.056647904,0.046235025,0.08652549,0.054077096,0.14154878,0.07632175,0.0853287,-0.04353991,-0.0075093885,0.1640905,-0.3034528,-0.2510848,0.025013346,0.13709158,0.014272615,0.050898716,0.1405458,0.0021174587,-0.2897035,-0.15372898,-0.1512585,0.2231773,0.10741183,0.220225,0.023503374,0.038034324,0.01645426,-0.012363264,-0.14818212,-0.026651595,0.10893674,-0.15615548,0.15681773,-0.1879496,-0.030910527
